{"learner":{"attributes":{"best_iteration":"52","best_score":"0.6341018766906947","scikit_learn":"{\"_estimator_type\": \"regressor\"}"},"feature_names":["Ore Milled (MT)","Head Grade (%Cu)","COPPER IN HEAD (MT)","Feed Rate (MT/h)","Grinding kWh","Milling Running Hours","Lime Bags","Pine Oil (cc)","Flotation pH","Prev_Recovery (%)","Prev_Head Grade (%Cu)","Prev_Feed Rate (MT/h)","Prev_Flotation pH","Roll7_Recovery (%)","Roll7_Head Grade (%Cu)","Roll7_Feed Rate (MT/h)","Cu_Recovery_Efficiency","Feed_Condition_Num","Shift_Num","Month","Day_of_Week"],"feature_types":["int","float","float","float","float","int","int","int","float","float","float","float","float","float","float","float","float","int","int","int","int"],"gradient_booster":{"model":{"cats":{"enc":[],"feature_segments":[],"sorted_idx":[]},"gbtree_model_param":{"num_parallel_tree":"1","num_trees":"83"},"iteration_indptr":[0,1,2,3,4,5,6,7,8,9,10,11,12,13,14,15,16,17,18,19,20,21,22,23,24,25,26,27,28,29,30,31,32,33,34,35,36,37,38,39,40,41,42,43,44,45,46,47,48,49,50,51,52,53,54,55,56,57,58,59,60,61,62,63,64,65,66,67,68,69,70,71,72,73,74,75,76,77,78,79,80,81,82,83],"tree_info":[0,0,0,0,0,0,0,0,0,0,0,0,0,0,0,0,0,0,0,0,0,0,0,0,0,0,0,0,0,0,0,0,0,0,0,0,0,0,0,0,0,0,0,0,0,0,0,0,0,0,0,0,0,0,0,0,0,0,0,0,0,0,0,0,0,0,0,0,0,0,0,0,0,0,0,0,0,0,0,0,0,0,0],"trees":[{"base_weights":[-2.893413E-3,-1.4324354E-1,1.0699307E-1,1.7104922E-1,9.1587245E-2,1.0820205E-1,-8.974492E-1,1.17690764E-1,-5.191592E-1,-7.885243E-2,-3.1251788E-1,6.433253E-3,-7.4101887E-3,-2.9943226E-2,-5.2663614E-3,3.0492248E-3,-2.7447281E-2],"categories":[],"categories_nodes":[],"categories_segments":[],"categories_sizes":[],"default_left":[0,0,0,0,0,0,0,0,0,0,0,0,0,0,0,0,0],"id":0,"left_children":[1,-1,3,-1,5,7,9,11,13,-1,15,-1,-1,-1,-1,-1,-1],"loss_changes":[3.5721692E2,0E0,5.5138306E1,0E0,1.7913334E1,6.4024153E0,6.47353E0,3.1014452E0,3.9425755E-1,0E0,1.0536427E0,0E0,0E0,0E0,0E0,0E0,0E0],"parents":[2147483647,0,0,2,2,4,4,5,5,6,6,7,7,8,8,10,10],"right_children":[2,-1,4,-1,6,8,10,12,14,-1,16,-1,-1,-1,-1,-1,-1],"split_conditions":[9.86E-1,-1.4324354E-1,8.89E-1,1.7104922E-1,9.1083E1,2.208E3,1.041E0,1.138E0,2.304E3,-7.885243E-2,1.08E0,6.433253E-3,-7.4101887E-3,-2.9943226E-2,-5.2663614E-3,3.0492248E-3,-2.7447281E-2],"split_indices":[14,0,1,0,13,0,1,1,0,0,14,0,0,0,0,0,0],"split_type":[0,0,0,0,0,0,0,0,0,0,0,0,0,0,0,0,0],"sum_hessian":[1.133E3,4.1E1,1.092E3,4E0,1.088E3,1.071E3,1.7E1,1.056E3,1.5E1,7E0,1E1,1.015E3,4.1E1,1.2E1,3E0,4E0,6E0],"tree_param":{"num_deleted":"0","num_feature":"21","num_nodes":"17","size_leaf_vector":"1"}},{"base_weights":[-1.0896836E-2,-2.3286922E0,6.8206884E-2,-6.827584E-1,-1.3433258E-1,9.021956E-2,-1.1639881E0,-6.721457E-2,1.4492373E-2,-1.6139214E0,1.0149318E-1,-1.6941458E0,-3.755746E-1,-1.0489471E-1,-3.5073407E-2,1.14433944E-1,-6.9254875E-1,-4.0670853E-2,-9.551209E-2,-0E0,-2.7589215E-2,6.1903815E-3,-1.1958801E-2,-8.256098E-2,-1.8101612E-2],"categories":[],"categories_nodes":[],"categories_segments":[],"categories_sizes":[],"default_left":[0,0,0,0,0,0,0,0,0,0,0,0,0,0,0,0,0,0,0,0,0,0,0,0,0],"id":1,"left_children":[1,3,5,7,-1,9,11,-1,-1,13,15,17,19,-1,-1,21,23,-1,-1,-1,-1,-1,-1,-1,-1],"loss_changes":[2.0554932E2,1.9628296E1,2.9372831E1,5.642371E0,0E0,2.0473171E1,7.0984364E0,0E0,0E0,1.3396759E0,1.0903207E1,2.6735306E-1,5.572889E-1,0E0,0E0,3.4752312E0,4.5874414E0,0E0,0E0,0E0,0E0,0E0,0E0,0E0,0E0],"parents":[2147483647,0,0,1,1,2,2,3,3,5,5,6,6,9,9,10,10,11,11,12,12,15,15,16,16],"right_children":[2,4,6,8,-1,10,12,-1,-1,14,16,18,20,-1,-1,22,24,-1,-1,-1,-1,-1,-1,-1,-1],"split_conditions":[9.01E-1,8.815E1,9.1083E1,1.043E0,-1.3433258E-1,8.89E-1,2.4148E2,-6.721457E-2,1.4492373E-2,7.4E-1,2.237E3,1.835E3,1E0,-1.0489471E-1,-3.5073407E-2,1.155E0,1.001E0,-4.0670853E-2,-9.551209E-2,-0E0,-2.7589215E-2,6.1903815E-3,-1.1958801E-2,-8.256098E-2,-1.8101612E-2],"split_indices":[10,9,13,1,0,1,15,0,0,1,0,0,18,0,0,1,1,0,0,0,0,0,0,0,0],"split_type":[0,0,0,0,0,0,0,0,0,0,0,0,0,0,0,0,0,0,0,0,0,0,0,0,0],"sum_hessian":[1.118E3,3.6E1,1.082E3,7E0,2.9E1,1.064E3,1.8E1,4E0,3E0,6E0,1.058E3,1E1,8E0,3E0,3E0,1.042E3,1.6E1,3E0,7E0,3E0,5E0,1.016E3,2.6E1,3E0,1.3E1],"tree_param":{"num_deleted":"0","num_feature":"21","num_nodes":"25","size_leaf_vector":"1"}},{"base_weights":[3.793582E-2,-1.295908E-1,1.1805008E-1,9.1991156E-1,9.815731E-2,2.0431818E-1,2.3897977E-1,1.07202835E-1,-8.514391E-1,-2.0059542E-1,4.002551E-1,1.20179914E-1,-2.2972025E-1,-6.0021516E-2,-1.4224528E-4,-2.07398E-2,-0E0,-3.2397795E-3,2.6012555E-2,-3.0180326E-2,6.2960656E-3,5.778461E-3,-1.9558314E-2],"categories":[],"categories_nodes":[],"categories_segments":[],"categories_sizes":[],"default_left":[0,0,0,0,0,0,0,0,0,0,0,0,0,0,0,0,0,0,0,0,0,0,0],"id":2,"left_children":[1,-1,3,5,7,9,-1,11,13,15,17,19,21,-1,-1,-1,-1,-1,-1,-1,-1,-1,-1],"loss_changes":[2.3517815E2,0E0,1.7099052E1,7.033612E1,9.113243E0,1.9250185E0,0E0,4.607543E0,2.8377752E0,3.6631456E-1,9.721229E-1,4.233656E0,2.2468455E0,0E0,0E0,0E0,0E0,0E0,0E0,0E0,0E0,0E0,0E0],"parents":[2147483647,0,0,2,2,3,3,4,4,5,5,7,7,8,8,9,9,10,10,11,11,12,12],"right_children":[2,-1,4,6,8,10,-1,12,14,16,18,20,22,-1,-1,-1,-1,-1,-1,-1,-1,-1,-1],"split_conditions":[9.86E-1,-1.295908E-1,9.03E0,1.084E0,9.1147E1,3E0,2.3897977E-1,1.093E0,2.8306E2,1.056E0,9.01E0,9.97E-1,8.8789E1,-6.0021516E-2,-1.4224528E-4,-2.07398E-2,-0E0,-3.2397795E-3,2.6012555E-2,-3.0180326E-2,6.2960656E-3,5.778461E-3,-1.9558314E-2],"split_indices":[14,0,12,14,13,19,0,14,11,14,12,14,13,0,0,0,0,0,0,0,0,0,0],"split_type":[0,0,0,0,0,0,0,0,0,0,0,0,0,0,0,0,0,0,0,0,0,0,0],"sum_hessian":[1.115E3,3.2E1,1.083E3,2.5E1,1.058E3,2.2E1,3E0,1.049E3,9E0,7E0,1.5E1,1.011E3,3.8E1,6E0,3E0,3E0,4E0,3E0,1.2E1,7E0,1.004E3,1.2E1,2.6E1],"tree_param":{"num_deleted":"0","num_feature":"21","num_nodes":"23","size_leaf_vector":"1"}},{"base_weights":[3.7232062E-3,-1.2602812E-1,9.007134E-2,1.9148365E-1,7.302434E-2,8.8103116E-2,-1.0249228E0,9.728175E-2,-4.604237E-1,-7.414924E-2,-3.6999576E-3,-4.9931684E-4,6.4500645E-3,-9.269448E-3,-2.7212664E-2],"categories":[],"categories_nodes":[],"categories_segments":[],"categories_sizes":[],"default_left":[0,0,0,0,0,0,0,0,0,0,0,0,0,0,0],"id":3,"left_children":[1,-1,3,-1,5,7,9,11,13,-1,-1,-1,-1,-1,-1],"loss_changes":[2.5042845E2,0E0,7.021895E1,0E0,1.8340336E1,5.5164623E0,6.2682905E0,3.677678E0,2.4114609E-1,0E0,0E0,0E0,0E0,0E0,0E0],"parents":[2147483647,0,0,2,2,4,4,5,5,6,6,7,7,8,8],"right_children":[2,-1,4,-1,6,8,10,12,14,-1,-1,-1,-1,-1,-1],"split_conditions":[9.86E-1,-1.2602812E-1,8.89E-1,1.9148365E-1,9.1147E1,2.208E3,2.6178E2,1.034E0,9.0207E1,-7.414924E-2,-3.6999576E-3,-4.9931684E-4,6.4500645E-3,-9.269448E-3,-2.7212664E-2],"split_indices":[14,0,1,0,13,0,11,14,13,0,0,0,0,0,0],"split_type":[0,0,0,0,0,0,0,0,0,0,0,0,0,0,0],"sum_hessian":[1.148E3,3.7E1,1.111E3,4E0,1.107E3,1.093E3,1.4E1,1.076E3,1.7E1,9E0,5E0,2.45E2,8.31E2,5E0,1.2E1],"tree_param":{"num_deleted":"0","num_feature":"21","num_nodes":"15","size_leaf_vector":"1"}},{"base_weights":[1.9491646E-2,-1.12236105E-1,9.871946E-2,2.6497755E0,8.2016304E-2,2.4550417E-1,-1.2398819E-2,9.635726E-2,-2.4806353E-1,3.1862512E-2,1.3615812E-1,1.7617165E-1,-3.934388E-1,-1.1795223E-2,4.4028317E-3,8.401305E-3,-1.2513037E-3,-1.8056215E-3,2.0557057E-2,-2.4085885E-2,4.107447E-3],"categories":[],"categories_nodes":[],"categories_segments":[],"categories_sizes":[],"default_left":[0,0,0,0,0,0,0,0,0,0,0,0,0,0,0,0,0,0,0,0,0],"id":4,"left_children":[1,-1,3,5,7,-1,-1,9,11,13,15,17,19,-1,-1,-1,-1,-1,-1,-1,-1],"loss_changes":[2.0163992E2,0E0,4.582731E1,4.753248E1,5.1258216E0,0E0,0E0,2.6407833E0,2.866338E0,5.994665E0,3.3059378E0,6.509137E-1,1.5069976E0,0E0,0E0,0E0,0E0,0E0,0E0,0E0,0E0],"parents":[2147483647,0,0,2,2,3,3,4,4,7,7,8,8,9,9,10,10,11,11,12,12],"right_children":[2,-1,4,6,8,-1,-1,10,12,14,16,18,20,-1,-1,-1,-1,-1,-1,-1,-1],"split_conditions":[9.86E-1,-1.12236105E-1,9.01E-1,1.2E1,1.155E0,2.4550417E-1,-1.2398819E-2,5E0,8.8171E1,2.36226E2,1.097E0,1.289E0,2.8306E2,-1.1795223E-2,4.4028317E-3,8.401305E-3,-1.2513037E-3,-1.8056215E-3,2.0557057E-2,-2.4085885E-2,4.107447E-3],"split_indices":[14,0,1,7,1,0,0,19,16,15,10,14,11,0,0,0,0,0,0,0,0],"split_type":[0,0,0,0,0,0,0,0,0,0,0,0,0,0,0,0,0,0,0,0,0],"sum_hessian":[1.123E3,3.7E1,1.086E3,6E0,1.08E3,3E0,3E0,1.036E3,4.4E1,3.97E2,6.39E2,1.1E1,3.3E1,6.8E1,3.29E2,5.34E2,1.05E2,6E0,5E0,2.8E1,5E0],"tree_param":{"num_deleted":"0","num_feature":"21","num_nodes":"21","size_leaf_vector":"1"}},{"base_weights":[-9.477242E-3,-2.3256717E0,7.8002185E-2,-6.0741335E-2,-1.2040009E-1,1.5613763E-1,6.408913E-2,7.385638E-2,-4.1642588E-1,8.821558E-2,-9.728802E-2,-6.2330407E-1,-1.8375209E-1,-5.8785183E-3,4.838332E-3,-1.2652661E-2,1.0170323E-2,-1.1090713E-2,-3.6681797E-2,-2.0950204E-2,-2.3833828E-3],"categories":[],"categories_nodes":[],"categories_segments":[],"categories_sizes":[],"default_left":[0,0,0,0,0,0,0,0,0,0,0,0,0,0,0,0,0,0,0,0,0],"id":5,"left_children":[1,3,5,-1,-1,-1,7,9,11,13,15,17,19,-1,-1,-1,-1,-1,-1,-1,-1],"loss_changes":[2.3382367E2,5.535736E-1,4.654512E1,0E0,0E0,0E0,5.191997E0,2.6765156E0,8.6373377E-1,1.7742643E0,3.9908073E0,2.2899294E-1,3.1752947E-1,0E0,0E0,0E0,0E0,0E0,0E0,0E0,0E0],"parents":[2147483647,0,0,1,1,2,2,6,6,7,7,8,8,9,9,10,10,11,11,12,12],"right_children":[2,4,6,-1,-1,-1,8,10,12,14,16,18,20,-1,-1,-1,-1,-1,-1,-1,-1],"split_conditions":[9.86E-1,1.3021E1,8.89E-1,-6.0741335E-2,-1.2040009E-1,1.5613763E-1,2.208E3,9.154E1,2.8941E1,1.4181E1,9.85E0,2.51493E2,9.22E0,-5.8785183E-3,4.838332E-3,-1.2652661E-2,1.0170323E-2,-1.1090713E-2,-3.6681797E-2,-2.0950204E-2,-2.3833828E-3],"split_indices":[14,2,1,0,0,0,0,9,2,2,12,15,8,0,0,0,0,0,0,0,0],"split_type":[0,0,0,0,0,0,0,0,0,0,0,0,0,0,0,0,0,0,0,0,0],"sum_hessian":[1.151E3,4.1E1,1.11E3,4E0,3.7E1,4E0,1.106E3,1.085E3,2.1E1,1.002E3,8.3E1,1E1,1.1E1,3.9E1,9.63E2,5.5E1,2.8E1,3E0,7E0,3E0,8E0],"tree_param":{"num_deleted":"0","num_feature":"21","num_nodes":"21","size_leaf_vector":"1"}},{"base_weights":[-5.7246857E-3,-1.0827247E-1,7.557535E-2,8.847874E-2,-1.0804684E0,7.310612E-2,1.6748738E-1,-6.9328874E-2,-4.830294E-3,8.197591E-2,-4.4576076E-1,-6.4903137E-4,6.657161E-3,-2.966175E-3,-3.1285122E-2],"categories":[],"categories_nodes":[],"categories_segments":[],"categories_sizes":[],"default_left":[0,0,0,0,0,0,0,0,0,0,0,0,0,0,0],"id":6,"left_children":[1,-1,3,5,7,9,-1,-1,-1,11,13,-1,-1,-1,-1],"loss_changes":[1.984333E2,0E0,1.6225967E1,5.3407413E1,3.3317614E0,4.9383664E0,0E0,0E0,0E0,5.1445E0,1.1460297E0,0E0,0E0,0E0,0E0],"parents":[2147483647,0,0,2,2,3,3,4,4,5,5,9,9,10,10],"right_children":[2,-1,4,6,8,10,-1,-1,-1,12,14,-1,-1,-1,-1],"split_conditions":[9.86E-1,-1.0827247E-1,9.1206E1,9.1147E1,2.5353E2,2.208E3,1.6748738E-1,-6.9328874E-2,-4.830294E-3,9.37E0,9.0207E1,-6.4903137E-4,6.657161E-3,-2.966175E-3,-3.1285122E-2],"split_indices":[14,0,13,13,11,0,0,0,0,12,13,0,0,0,0],"split_type":[0,0,0,0,0,0,0,0,0,0,0,0,0,0,0],"sum_hessian":[1.127E3,4E1,1.087E3,1.076E3,1.1E1,1.072E3,4E0,8E0,3E0,1.055E3,1.7E1,3.69E2,6.86E2,6E0,1.1E1],"tree_param":{"num_deleted":"0","num_feature":"21","num_nodes":"15","size_leaf_vector":"1"}},{"base_weights":[1.7736696E-3,-1.6852098E0,5.4006092E-2,-1.9647233E0,-1.8346183E-3,1.2144393E-1,4.30313E-2,-5.960064E-2,-1.0550628E-1,5.8666583E-2,-8.9105207E-1,6.3619934E-2,-6.3172564E-2,-1.2817887E0,-7.963894E-2,2.9136578E-4,5.2816416E-3,-1.0999779E-2,-8.000823E-2,3.9682677E-3,-1.2186675E-2],"categories":[],"categories_nodes":[],"categories_segments":[],"categories_sizes":[],"default_left":[0,0,0,0,0,0,0,0,0,0,0,0,0,0,0,0,0,0,0,0,0],"id":7,"left_children":[1,3,5,7,-1,-1,9,-1,-1,11,13,15,-1,17,19,-1,-1,-1,-1,-1,-1],"loss_changes":[9.976244E1,1.5394402E1,2.8318384E1,4.1275024E-1,0E0,0E0,1.597574E1,0E0,0E0,7.0266733E0,5.4686575E0,2.6008043E0,0E0,3.5225468E0,2.1842301E-1,0E0,0E0,0E0,0E0,0E0,0E0],"parents":[2147483647,0,0,1,1,2,2,3,3,6,6,9,9,10,10,11,11,13,13,14,14],"right_children":[2,4,6,8,-1,-1,10,-1,-1,12,14,16,-1,18,20,-1,-1,-1,-1,-1,-1],"split_conditions":[9.01E-1,6E0,7.4E-1,2.1233E2,-1.8346183E-3,1.2144393E-1,9.1083E1,-5.960064E-2,-1.0550628E-1,2.82E2,2.5353E2,9.44E0,-6.3172564E-2,2.2627E2,2.70924E2,2.9136578E-4,5.2816416E-3,-1.0999779E-2,-8.000823E-2,3.9682677E-3,-1.2186675E-2],"split_indices":[10,19,1,3,0,0,13,0,0,15,11,12,0,11,15,0,0,0,0,0,0],"split_type":[0,0,0,0,0,0,0,0,0,0,0,0,0,0,0,0,0,0,0,0,0],"sum_hessian":[1.132E3,3.3E1,1.099E3,2.8E1,5E0,4E0,1.095E3,6E0,2.2E1,1.078E3,1.7E1,1.075E3,3E0,1.1E1,6E0,4.54E2,6.21E2,3E0,8E0,3E0,3E0],"tree_param":{"num_deleted":"0","num_feature":"21","num_nodes":"21","size_leaf_vector":"1"}},{"base_weights":[-7.4060215E-4,-1.7644762E0,7.082459E-2,-1.8862171E0,-2.0882668E-2,1.6721311E-1,5.5497427E-2,-6.2833E-2,-1.0126143E-1,6.605226E-2,-8.073876E-1,7.5066864E-2,-2.8025347E-1,-5.680203E-2,-1.716732E-3,1.2475784E-2,3.2490734E-3,-2.022676E-2,-9.260483E-4],"categories":[],"categories_nodes":[],"categories_segments":[],"categories_sizes":[],"default_left":[0,0,0,0,0,0,0,0,0,0,0,0,0,0,0,0,0,0,0],"id":8,"left_children":[1,3,5,7,-1,-1,9,-1,-1,11,13,15,17,-1,-1,-1,-1,-1,-1],"loss_changes":[1.424204E2,6.196228E0,5.381126E1,6.2742615E-1,0E0,0E0,9.806306E0,0E0,0E0,3.331489E0,3.1468172E0,1.7838564E0,8.2847357E-1,0E0,0E0,0E0,0E0,0E0,0E0],"parents":[2147483647,0,0,1,1,2,2,3,3,6,6,9,9,10,10,11,11,12,12],"right_children":[2,4,6,8,-1,-1,10,-1,-1,12,14,16,18,-1,-1,-1,-1,-1,-1],"split_conditions":[9.95E-1,6E0,8.89E-1,1.729E3,-2.0882668E-2,1.6721311E-1,9.1147E1,-6.2833E-2,-1.0126143E-1,2.167E3,2.6178E2,1.9874E2,9.83E0,-5.680203E-2,-1.716732E-3,1.2475784E-2,3.2490734E-3,-2.022676E-2,-9.260483E-4],"split_indices":[14,19,1,0,0,0,13,0,0,0,11,11,8,0,0,0,0,0,0],"split_type":[0,0,0,0,0,0,0,0,0,0,0,0,0,0,0,0,0,0,0],"sum_hessian":[1.125E3,4.3E1,1.082E3,3.9E1,4E0,4E0,1.078E3,9E0,3E1,1.066E3,1.2E1,1.04E3,2.6E1,8E0,4E0,5.5E1,9.85E2,1.7E1,9E0],"tree_param":{"num_deleted":"0","num_feature":"21","num_nodes":"19","size_leaf_vector":"1"}},{"base_weights":[-5.0135558E-3,-9.645607E-2,6.603019E-2,7.4927084E-2,-7.251865E-1,-4.9827832E-1,8.143985E-2,-4.9636964E-2,-6.6032447E-3,-1.8465881E-1,-4.4020694E-2,9.083144E-2,-2.1997847E-1,-2.1448141E-2,1.3858071E-3,2.4533132E-3,6.6769132E-3,1.1605146E-2,-1.799227E-2],"categories":[],"categories_nodes":[],"categories_segments":[],"categories_sizes":[],"default_left":[0,0,0,0,0,0,0,0,0,0,0,0,0,0,0,0,0,0,0],"id":9,"left_children":[1,-1,3,5,7,9,11,-1,-1,13,-1,15,17,-1,-1,-1,-1,-1,-1],"loss_changes":[1.5354971E2,0E0,7.605907E0,3.9971056E0,1.6607099E0,1.1690586E0,3.007712E0,0E0,0E0,4.6708626E-1,0E0,1.8105707E0,2.1196947E0,0E0,0E0,0E0,0E0,0E0,0E0],"parents":[2147483647,0,0,2,2,3,3,4,4,5,5,6,6,9,9,11,11,12,12],"right_children":[2,-1,4,6,8,10,12,-1,-1,14,-1,16,18,-1,-1,-1,-1,-1,-1],"split_conditions":[9.86E-1,-9.645607E-2,9.1083E1,9.07E-1,2.6178E2,1.513E3,1.102E0,-4.9636964E-2,-6.6032447E-3,1.433E3,-4.4020694E-2,8E0,8.8637E1,-2.1448141E-2,1.3858071E-3,2.4533132E-3,6.6769132E-3,1.1605146E-2,-1.799227E-2],"split_indices":[14,0,13,1,11,0,14,0,0,0,0,5,13,0,0,0,0,0,0],"split_type":[0,0,0,0,0,0,0,0,0,0,0,0,0,0,0,0,0,0,0],"sum_hessian":[1.12E3,3.9E1,1.081E3,1.07E3,1.1E1,1.1E1,1.059E3,7E0,4E0,7E0,4E0,1.028E3,3.1E1,3E0,4E0,5.22E2,5.06E2,7E0,2.4E1],"tree_param":{"num_deleted":"0","num_feature":"21","num_nodes":"19","size_leaf_vector":"1"}},{"base_weights":[-9.163525E-3,-1.698548E0,6.2442422E-2,-1.7825502E0,-1.7294293E-2,7.449657E-2,-7.9491603E-1,-5.6284595E-2,-9.381129E-2,8.1556946E-2,-3.6174676E-1,3.4192372E-3,-1.0247734E0,-1.1906009E-2,1.09549485E-1,-2.9451061E-2,-1.7514059E-1,-2.0340996E-2,-5.8722224E-2,2.3740171E-3,-1.2204346E-2,4.9475385E-3,1.7685732E-2,-1.0427189E-3,-1.4178501E-2],"categories":[],"categories_nodes":[],"categories_segments":[],"categories_sizes":[],"default_left":[0,0,0,0,0,0,0,0,0,0,0,0,0,0,0,0,0,0,0,0,0,0,0,0,0],"id":10,"left_children":[1,3,5,7,-1,9,11,-1,-1,13,15,-1,17,19,21,-1,23,-1,-1,-1,-1,-1,-1,-1,-1],"loss_changes":[1.3684476E2,4.3974304E0,1.1190018E1,2.3361206E-1,0E0,3.2971296E0,3.1422567E0,0E0,0E0,2.7686124E0,5.4140615E-1,0E0,4.7396374E-1,3.3818254E0,2.0210571E0,0E0,1.4766476E-1,0E0,0E0,0E0,0E0,0E0,0E0,0E0,0E0],"parents":[2147483647,0,0,1,1,2,2,3,3,5,5,6,6,9,9,10,10,12,12,13,13,14,14,16,16],"right_children":[2,4,6,8,-1,10,12,-1,-1,14,16,-1,18,20,22,-1,24,-1,-1,-1,-1,-1,-1,-1,-1],"split_conditions":[9.95E-1,6E0,9.1083E1,2.1187E2,-1.7294293E-2,2.7496E1,4E0,-5.6284595E-2,-9.381129E-2,1.034E0,2.8314E1,3.4192372E-3,2.2627E2,9.0174E1,7.29747E2,-2.9451061E-2,2.271E3,-2.0340996E-2,-5.8722224E-2,2.3740171E-3,-1.2204346E-2,4.9475385E-3,1.7685732E-2,-1.0427189E-3,-1.4178501E-2],"split_indices":[14,19,13,11,0,2,19,0,0,14,2,0,11,13,4,0,0,0,0,0,0,0,0,0,0],"split_type":[0,0,0,0,0,0,0,0,0,0,0,0,0,0,0,0,0,0,0,0,0,0,0,0,0],"sum_hessian":[1.128E3,4.5E1,1.083E3,4.2E1,3E0,1.069E3,1.4E1,7E0,3.5E1,1.053E3,1.6E1,3E0,1.1E1,2.42E2,8.11E2,6E0,1E1,3E0,8E0,1.93E2,4.9E1,7.79E2,3.2E1,5E0,5E0],"tree_param":{"num_deleted":"0","num_feature":"21","num_nodes":"25","size_leaf_vector":"1"}},{"base_weights":[7.391414E-3,-1.6824877E0,6.977646E-2,-6.1186552E-2,-9.271717E-2,1.8491264E-1,5.620559E-2,7.156291E-2,-1.9174162E-1,7.504938E-2,-3.1560004E-2,2.3981403E-1,-2.699604E-1,3.205629E-4,4.9440633E-3,7.1024324E-4,1.85593E-2,1.7713336E-2,-1.5779343E-2],"categories":[],"categories_nodes":[],"categories_segments":[],"categories_sizes":[],"default_left":[0,0,0,0,0,0,0,0,0,0,0,0,0,0,0,0,0,0,0],"id":11,"left_children":[1,3,5,-1,-1,-1,7,9,11,13,-1,15,17,-1,-1,-1,-1,-1,-1],"loss_changes":[1.1845178E2,5.765686E-1,5.2843803E1,0E0,0E0,0E0,4.121749E0,2.490921E0,2.194368E0,1.650785E0,0E0,2.5257546E-1,1.6459222E0,0E0,0E0,0E0,0E0,0E0,0E0],"parents":[2147483647,0,0,1,1,2,2,6,6,7,7,8,8,9,9,11,11,12,12],"right_children":[2,4,6,-1,-1,-1,8,10,12,14,-1,16,18,-1,-1,-1,-1,-1,-1],"split_conditions":[9.63E-1,8.9741E1,8.89E-1,-6.1186552E-2,-9.271717E-2,1.8491264E-1,1.138E0,1.102E0,8.8171E1,1.035E0,-3.1560004E-2,1.289E0,8.728E1,3.205629E-4,4.9440633E-3,7.1024324E-4,1.85593E-2,1.7713336E-2,-1.5779343E-2],"split_indices":[14,16,1,0,0,0,1,14,16,14,0,14,9,0,0,0,0,0,0],"split_type":[0,0,0,0,0,0,0,0,0,0,0,0,0,0,0,0,0,0,0],"sum_hessian":[1.123E3,3.9E1,1.084E3,1.3E1,2.6E1,3E0,1.081E3,1.019E3,6.2E1,1.015E3,4E0,9E0,5.3E1,2.63E2,7.52E2,4E0,5E0,3E0,5E1],"tree_param":{"num_deleted":"0","num_feature":"21","num_nodes":"19","size_leaf_vector":"1"}},{"base_weights":[4.7554765E-3,-1.326544E0,3.879157E-2,-1.4811519E0,-1.8043994E-4,8.383825E-2,2.967297E-2,-3.3830836E-2,-8.2172744E-2,3.914303E-2,-6.468516E-1,4.8398137E-2,-4.744786E-1,-9.995554E-1,1.6064994E-3,-1.3884999E-3,4.7249566E-3,-4.204295E-2,-6.124377E-3,-7.557635E-3,-6.6363886E-2],"categories":[],"categories_nodes":[],"categories_segments":[],"categories_sizes":[],"default_left":[0,0,0,0,0,0,0,0,0,0,0,0,0,0,0,0,0,0,0,0,0],"id":12,"left_children":[1,3,5,7,-1,-1,9,-1,-1,11,13,15,17,19,-1,-1,-1,-1,-1,-1,-1],"loss_changes":[5.089895E1,5.5731926E0,1.6179358E1,1.9204674E0,0E0,0E0,6.967104E0,0E0,0E0,5.1095147E0,3.7210498E0,3.7349205E0,2.2509604E0,2.43194E0,0E0,0E0,0E0,0E0,0E0,0E0,0E0],"parents":[2147483647,0,0,1,1,2,2,3,3,6,6,9,9,10,10,11,11,12,12,13,13],"right_children":[2,4,6,8,-1,-1,10,-1,-1,12,14,16,18,20,-1,-1,-1,-1,-1,-1,-1],"split_conditions":[9.01E-1,9.81E-1,7.4E-1,1.699E3,-1.8043994E-4,8.383825E-2,9.1083E1,-3.3830836E-2,-8.2172744E-2,2.208E3,2.5353E2,9.37E0,1.26E0,2.2627E2,1.6064994E-3,-1.3884999E-3,4.7249566E-3,-4.204295E-2,-6.124377E-3,-7.557635E-3,-6.6363886E-2],"split_indices":[10,1,1,0,0,0,13,0,0,0,11,12,1,11,0,0,0,0,0,0,0],"split_type":[0,0,0,0,0,0,0,0,0,0,0,0,0,0,0,0,0,0,0,0,0],"sum_hessian":[1.124E3,2.7E1,1.097E3,2.4E1,3E0,5E0,1.092E3,5E0,1.9E1,1.078E3,1.4E1,1.06E3,1.8E1,9E0,5E0,3.99E2,6.61E2,8E0,1E1,3E0,6E0],"tree_param":{"num_deleted":"0","num_feature":"21","num_nodes":"21","size_leaf_vector":"1"}},{"base_weights":[-4.041301E-4,-1.582336E0,5.713474E-2,-4.0317178E-2,-8.216906E-2,1.8617372E-1,4.3598216E-2,5.5810075E-2,-7.28178E-1,3.3175748E-2,2.1309625E-1,-8.940129E-1,-6.5685883E-3,2.0951557E-3,-1.307015E-2,1.646594E-2,1.8119728E-3,-2.3495245E-3,-5.667103E-2],"categories":[],"categories_nodes":[],"categories_segments":[],"categories_sizes":[],"default_left":[0,0,0,0,0,0,0,0,0,0,0,0,0,0,0,0,0,0,0],"id":13,"left_children":[1,3,5,-1,-1,-1,7,9,11,13,15,17,-1,-1,-1,-1,-1,-1,-1],"loss_changes":[1.03735596E2,3.2471466E-1,5.3954147E1,0E0,0E0,0E0,1.0293587E1,3.8096154E0,1.4625235E0,2.418501E0,2.7264004E0,2.4648876E0,0E0,0E0,0E0,0E0,0E0,0E0,0E0],"parents":[2147483647,0,0,1,1,2,2,6,6,7,7,8,8,9,9,10,10,11,11],"right_children":[2,4,6,-1,-1,-1,8,10,12,14,16,18,-1,-1,-1,-1,-1,-1,-1],"split_conditions":[9.86E-1,1.605E3,8.89E-1,-4.0317178E-2,-8.216906E-2,1.8617372E-1,9.1083E1,9.87E0,1.28E0,1.102E0,1.067E0,1.775E3,-6.5685883E-3,2.0951557E-3,-1.307015E-2,1.646594E-2,1.8119728E-3,-2.3495245E-3,-5.667103E-2],"split_indices":[14,0,1,0,0,0,13,12,10,14,10,0,0,0,0,0,0,0,0],"split_type":[0,0,0,0,0,0,0,0,0,0,0,0,0,0,0,0,0,0,0],"sum_hessian":[1.136E3,3.9E1,1.097E3,4E0,3.5E1,3E0,1.094E3,1.078E3,1.6E1,9.44E2,1.34E2,1.2E1,4E0,9.18E2,2.6E1,8E1,5.4E1,3E0,9E0],"tree_param":{"num_deleted":"0","num_feature":"21","num_nodes":"19","size_leaf_vector":"1"}},{"base_weights":[-1.014506E-2,-1.3870696E0,4.469529E-2,-1.483972E0,-1.6690832E-2,5.6065306E-2,-7.0724356E-1,-3.488365E-2,-1.5273393E0,6.49128E-2,-2.1902056E-1,-9.8018444E-1,-3.615573E-3,-4.5435842E-2,-8.087199E-2,2.4946474E-2,1.1017539E-1,1.06687015E-2,-2.894672E-1,-1.7219787E-2,-5.8152784E-2,-6.2139626E-3,2.5974324E-3,-2.6647109E-3,6.801194E-3,-1.9361606E-2,-2.7495308E-3],"categories":[],"categories_nodes":[],"categories_segments":[],"categories_sizes":[],"default_left":[0,0,0,0,0,0,0,0,0,0,0,0,0,0,0,0,0,0,0,0,0,0,0,0,0,0,0],"id":14,"left_children":[1,3,5,7,-1,9,11,-1,13,15,17,19,-1,-1,-1,21,23,-1,25,-1,-1,-1,-1,-1,-1,-1,-1],"loss_changes":[8.476858E1,3.7115479E0,9.190956E0,4.1801453E-2,0E0,2.585958E0,2.596655E0,0E0,2.8417206E-1,1.8487973E0,1.0745788E0,7.276459E-1,0E0,0E0,0E0,2.2154033E0,2.052185E0,0E0,5.9926724E-1,0E0,0E0,0E0,0E0,0E0,0E0,0E0,0E0],"parents":[2147483647,0,0,1,1,2,2,3,3,5,5,6,6,8,8,9,9,10,10,11,11,15,15,16,16,18,18],"right_children":[2,4,6,8,-1,10,12,-1,14,16,18,20,-1,-1,-1,22,24,-1,26,-1,-1,-1,-1,-1,-1,-1,-1],"split_conditions":[9.95E-1,6E0,9.1083E1,1.605E3,-1.6690832E-2,1.109E0,2.6178E2,-3.488365E-2,2.1187E2,9.55E0,8.728E1,9.1006E1,-3.615573E-3,-4.5435842E-2,-8.087199E-2,1.632E3,8.906E1,1.06687015E-2,2E0,-1.7219787E-2,-5.8152784E-2,-6.2139626E-3,2.5974324E-3,-2.6647109E-3,6.801194E-3,-1.9361606E-2,-2.7495308E-3],"split_indices":[14,19,13,0,0,14,11,0,11,8,9,16,0,0,0,0,9,0,18,0,0,0,0,0,0,0,0],"split_type":[0,0,0,0,0,0,0,0,0,0,0,0,0,0,0,0,0,0,0,0,0,0,0,0,0,0,0],"sum_hessian":[1.119E3,4.2E1,1.077E3,3.8E1,4E0,1.062E3,1.5E1,3E0,3.5E1,1.03E3,3.2E1,1E1,5E0,6E0,2.9E1,5.49E2,4.81E2,4E0,2.8E1,3E0,7E0,8.3E1,4.66E2,6.5E1,4.16E2,1.9E1,9E0],"tree_param":{"num_deleted":"0","num_feature":"21","num_nodes":"27","size_leaf_vector":"1"}},{"base_weights":[-2.5059583E-2,-1.412192E0,2.1743119E-2,-3.903003E-2,-1.4833593E0,3.1987093E-2,-8.9710796E-1,-3.3575516E-2,-7.7037E-2,3.9337195E-2,-3.20065E-1,-5.3827416E-2,-1.2204508E-2,-5.1142126E-1,4.3567054E-2,-3.9502908E-2,-4.4169378E-1,-5.0231973E-3,-4.3613132E-2,-6.945119E-4,3.862369E-3,-9.542875E-3,3.4740677E-3,-2.646832E-2,-2.1626283E-3],"categories":[],"categories_nodes":[],"categories_segments":[],"categories_sizes":[],"default_left":[0,0,0,0,0,0,0,0,0,0,0,0,0,0,0,0,0,0,0,0,0,0,0,0,0],"id":15,"left_children":[1,3,5,-1,7,9,11,-1,-1,13,15,-1,-1,17,19,21,23,-1,-1,-1,-1,-1,-1,-1,-1],"loss_changes":[7.3596016E1,2.7879333E-1,1.0249077E1,0E0,2.3484802E-1,2.7894964E0,1.0112953E0,0E0,0E0,2.4518929E0,6.851692E-1,0E0,0E0,1.0014195E0,2.050959E0,1.573608E-1,4.4382763E-1,0E0,0E0,0E0,0E0,0E0,0E0,0E0,0E0],"parents":[2147483647,0,0,1,1,2,2,4,4,5,5,6,6,9,9,10,10,13,13,14,14,15,15,16,16],"right_children":[2,4,6,-1,8,10,12,-1,-1,14,16,-1,-1,18,20,22,24,-1,-1,-1,-1,-1,-1,-1,-1],"split_conditions":[9.63E-1,2.1187E2,9.1206E1,-3.903003E-2,1.605E3,2.208E3,2.047E3,-3.3575516E-2,-7.7037E-2,9.95E-1,9.0207E1,-5.3827416E-2,-1.2204508E-2,2.3946E2,9.37E0,2.5279E2,2.304E3,-5.0231973E-3,-4.3613132E-2,-6.945119E-4,3.862369E-3,-9.542875E-3,3.4740677E-3,-2.646832E-2,-2.1626283E-3],"split_indices":[14,11,13,0,0,0,0,0,0,14,13,0,0,3,12,11,0,0,0,0,0,0,0,0,0],"split_type":[0,0,0,0,0,0,0,0,0,0,0,0,0,0,0,0,0,0,0,0,0,0,0,0,0],"sum_hessian":[1.13E3,3.6E1,1.094E3,5E0,3.1E1,1.083E3,1.1E1,3E0,2.8E1,1.062E3,2.1E1,8E0,3E0,7E0,1.055E3,7E0,1.4E1,4E0,3E0,3.89E2,6.66E2,3E0,4E0,1.1E1,3E0],"tree_param":{"num_deleted":"0","num_feature":"21","num_nodes":"25","size_leaf_vector":"1"}},{"base_weights":[7.3757973E-3,-1.3687668E0,4.9123805E-2,-2.7512653E-2,-1.428943E0,6.1288464E-1,3.630339E-2,-4.8962038E-2,-8.162475E-2,-1.1920277E-1,2.164061E-1,4.6399932E-2,-6.6822743E-1,-3.4794366E-1,1.5720658E-1,4.9576677E-2,-3.0468047E-2,6.568079E-3,-8.874048E-1,-2.7502863E-2,1.251339E-3,1.971305E-2,-1.3597016E-2,1.3822719E-2,2.0918546E-3,-5.5045426E-2,-8.008509E-3],"categories":[],"categories_nodes":[],"categories_segments":[],"categories_sizes":[],"default_left":[0,0,0,0,0,0,0,0,0,0,0,0,0,0,0,0,0,0,0,0,0,0,0,0,0,0,0],"id":16,"left_children":[1,3,5,-1,7,9,11,-1,-1,13,-1,15,17,19,21,23,-1,-1,25,-1,-1,-1,-1,-1,-1,-1,-1],"loss_changes":[6.439553E1,6.412201E-1,7.790967E0,0E0,8.8635635E-1,6.62139E1,7.5587416E0,0E0,0E0,1.4015212E0,0E0,2.1678247E0,2.820952E0,9.7085786E-1,1.1367593E0,1.7985849E0,0E0,0E0,1.5607672E0,0E0,0E0,0E0,0E0,0E0,0E0,0E0,0E0],"parents":[2147483647,0,0,1,1,2,2,4,4,5,5,6,6,9,9,11,11,12,12,13,13,14,14,15,15,18,18],"right_children":[2,4,6,-1,8,10,12,-1,-1,14,-1,16,18,20,22,24,-1,-1,26,-1,-1,-1,-1,-1,-1,-1,-1],"split_conditions":[9.86E-1,1.605E3,1.3506E1,-2.7512653E-2,8.9741E1,1.3405E1,9.1083E1,-4.8962038E-2,-8.162475E-2,9.59E0,2.164061E-1,1.329E0,9.1006E1,1.049E0,7.26115E2,2.16789E2,-3.0468047E-2,6.568079E-3,2.5586E2,-2.7502863E-2,1.251339E-3,1.971305E-2,-1.3597016E-2,1.3822719E-2,2.0918546E-3,-5.5045426E-2,-8.008509E-3],"split_indices":[14,0,2,0,16,2,13,0,0,8,0,14,16,14,4,15,0,0,3,0,0,0,0,0,0,0,0],"split_type":[0,0,0,0,0,0,0,0,0,0,0,0,0,0,0,0,0,0,0,0,0,0,0,0,0,0,0],"sum_hessian":[1.121E3,3.2E1,1.089E3,3E0,2.9E1,2.3E1,1.066E3,1.1E1,1.8E1,2E1,3E0,1.052E3,1.4E1,1.1E1,9E0,1.048E3,4E0,3E0,1.1E1,7E0,4E0,6E0,3E0,3.3E1,1.015E3,8E0,3E0],"tree_param":{"num_deleted":"0","num_feature":"21","num_nodes":"27","size_leaf_vector":"1"}},{"base_weights":[1.834423E-4,-1.3204459E0,5.004155E-2,-2.6480896E-2,-6.831554E-2,1.8443947E-1,3.648852E-2,4.459215E-2,-3.525454E-1,3.104862E-2,1.93313E-1,-2.6535738E-2,-1.5151139E-1,2.9626791E-3,-2.9419349E-3,2.3025075E-2,6.0721952E-3,3.4449615E-3,-1.4141455E-2],"categories":[],"categories_nodes":[],"categories_segments":[],"categories_sizes":[],"default_left":[0,0,0,0,0,0,0,0,0,0,0,0,0,0,0,0,0,0,0],"id":17,"left_children":[1,3,5,-1,-1,-1,7,9,11,13,15,-1,17,-1,-1,-1,-1,-1,-1],"loss_changes":[7.421116E1,5.7390594E-1,5.314873E1,0E0,0E0,0E0,3.4054804E0,2.1146758E0,6.393664E-1,2.480485E0,1.5757089E0,0E0,3.882055E-1,0E0,0E0,0E0,0E0,0E0,0E0],"parents":[2147483647,0,0,1,1,2,2,6,6,7,7,8,8,9,9,10,10,12,12],"right_children":[2,4,6,-1,-1,-1,8,10,12,14,16,-1,18,-1,-1,-1,-1,-1,-1],"split_conditions":[9.86E-1,1.2808E1,8.89E-1,-2.6480896E-2,-6.831554E-2,1.8443947E-1,2.208E3,2.8377E2,2.8941E1,9.079E1,2.8759E2,-2.6535738E-2,2.285E3,2.9626791E-3,-2.9419349E-3,2.3025075E-2,6.0721952E-3,3.4449615E-3,-1.4141455E-2],"split_indices":[14,2,1,0,0,0,0,11,2,9,11,0,0,0,0,0,0,0,0],"split_type":[0,0,0,0,0,0,0,0,0,0,0,0,0,0,0,0,0,0,0],"sum_hessian":[1.127E3,4E1,1.087E3,3E0,3.7E1,3E0,1.084E3,1.063E3,2.1E1,9.76E2,8.7E1,1E1,1.1E1,7.44E2,2.32E2,1.7E1,7E1,4E0,7E0],"tree_param":{"num_deleted":"0","num_feature":"21","num_nodes":"19","size_leaf_vector":"1"}},{"base_weights":[-5.165767E-4,-1.2907654E0,4.3924816E-2,-3.0587895E-2,-6.9791846E-2,1.77523E-1,3.1019473E-2,3.9653003E-2,-5.4905117E-1,4.699437E-2,-2.6891345E-1,1.135879E-2,-7.533479E-1,1.928684E-3,1.2379802E-2,-1.8776221E-2,-0E0,-5.1840376E-2,-1.1658846E-2],"categories":[],"categories_nodes":[],"categories_segments":[],"categories_sizes":[],"default_left":[0,0,0,0,0,0,0,0,0,0,0,0,0,0,0,0,0,0,0],"id":18,"left_children":[1,3,5,-1,-1,-1,7,9,11,13,15,-1,17,-1,-1,-1,-1,-1,-1],"loss_changes":[6.5434814E1,1.656414E0,4.9355312E1,0E0,0E0,0E0,5.4696774E0,2.4437647E0,2.7610493E0,1.7506998E0,7.30474E-1,0E0,1.5480599E0,0E0,0E0,0E0,0E0,0E0,0E0],"parents":[2147483647,0,0,1,1,2,2,6,6,7,7,8,8,9,9,10,10,12,12],"right_children":[2,4,6,-1,-1,-1,8,10,12,14,16,-1,18,-1,-1,-1,-1,-1,-1],"split_conditions":[9.86E-1,2.1187E2,8.89E-1,-3.0587895E-2,-6.9791846E-2,1.77523E-1,9.1083E1,2.167E3,1.775E3,2.088E3,9.79E0,1.135879E-2,2.5586E2,1.928684E-3,1.2379802E-2,-1.8776221E-2,-0E0,-5.1840376E-2,-1.1658846E-2],"split_indices":[14,11,1,0,0,0,13,0,0,0,8,0,3,0,0,0,0,0,0],"split_type":[0,0,0,0,0,0,0,0,0,0,0,0,0,0,0,0,0,0,0],"sum_hessian":[1.137E3,3.7E1,1.1E3,6E0,3.1E1,3E0,1.097E3,1.082E3,1.5E1,1.058E3,2.4E1,3E0,1.2E1,1.017E3,4.1E1,1.7E1,7E0,7E0,5E0],"tree_param":{"num_deleted":"0","num_feature":"21","num_nodes":"19","size_leaf_vector":"1"}},{"base_weights":[1.6643531E-3,-1.1239786E0,5.535645E-2,-1.34272E-3,-1.2127628E0,1.3042352E-1,4.34806E-2,-8.221539E-1,-1.37925E0,5.2100215E-2,-4.6624643E-1,-4.9376857E-2,-2.152649E-2,-7.195208E-2,-2.8797442E-2,9.690997E-2,-2.3663292E-2,-4.401602E-2,-1.1362478E-1,9.454866E-3,2.5034884E-3,7.3003634E-3,-3.031175E-3,9.302163E-3,-1.6286349E-2],"categories":[],"categories_nodes":[],"categories_segments":[],"categories_sizes":[],"default_left":[0,0,0,0,0,0,0,0,0,0,0,0,0,0,0,0,0,0,0,0,0,0,0,0,0],"id":19,"left_children":[1,3,5,-1,7,-1,9,11,13,15,17,-1,-1,-1,-1,19,21,-1,23,-1,-1,-1,-1,-1,-1],"loss_changes":[6.903615E1,4.9086533E0,3.273126E1,0E0,1.7674103E0,0E0,4.7631674E0,5.340853E-1,5.066643E-1,3.6456037E0,2.4287846E0,0E0,0E0,0E0,0E0,2.876997E0,2.4961946E0,0E0,7.737303E-1,0E0,0E0,0E0,0E0,0E0,0E0],"parents":[2147483647,0,0,1,1,2,2,4,4,6,6,7,7,8,8,9,9,10,10,15,15,16,16,18,18],"right_children":[2,4,6,-1,8,-1,10,12,14,16,18,-1,-1,-1,-1,20,22,-1,24,-1,-1,-1,-1,-1,-1],"split_conditions":[9.95E-1,1.603E3,8.89E-1,-1.34272E-3,8.9741E1,1.3042352E-1,9.1083E1,8.74E-1,2.8549E2,2.47657E2,1.041E0,-4.9376857E-2,-2.152649E-2,-7.195208E-2,-2.8797442E-2,1E0,8.9421E1,-4.401602E-2,1.08E0,9.454866E-3,2.5034884E-3,7.3003634E-3,-3.031175E-3,9.302163E-3,-1.6286349E-2],"split_indices":[14,0,1,0,16,0,13,14,11,15,1,0,0,0,0,18,16,0,14,0,0,0,0,0,0],"split_type":[0,0,0,0,0,0,0,0,0,0,0,0,0,0,0,0,0,0,0,0,0,0,0,0,0],"sum_hessian":[1.142E3,5.1E1,1.091E3,4E0,4.7E1,4E0,1.087E3,1.6E1,3.1E1,1.07E3,1.7E1,1E1,6E0,2.8E1,3E0,6.73E2,3.97E2,7E0,1E1,2.25E2,4.48E2,7E1,3.27E2,4E0,6E0],"tree_param":{"num_deleted":"0","num_feature":"21","num_nodes":"25","size_leaf_vector":"1"}},{"base_weights":[7.930797E-3,-1.0931917E0,4.726856E-2,-6.966795E-1,-1.2161212E0,1.2520659E-1,3.6149073E-2,-4.2302243E-2,-1.9481996E-2,-2.193766E-2,-1.2850963E0,5.026234E-2,-9.403943E-2,-6.939595E-2,-3.4718376E-2,5.4755554E-2,-5.06857E-1,-3.4531854E-2,-4.081668E-1,-1.1523493E-3,4.18638E-3,-9.159999E-3,-3.2220557E-2,6.800209E-3,-6.6130036E-3,-3.426805E-2,-3.7254777E-3],"categories":[],"categories_nodes":[],"categories_segments":[],"categories_sizes":[],"default_left":[0,0,0,0,0,0,0,0,0,0,0,0,0,0,0,0,0,0,0,0,0,0,0,0,0,0,0],"id":20,"left_children":[1,3,5,7,9,-1,11,-1,-1,-1,13,15,17,-1,-1,19,21,23,25,-1,-1,-1,-1,-1,-1,-1,-1],"loss_changes":[5.0236607E1,9.1119385E-1,3.0307428E1,9.711218E-2,8.187294E-1,0E0,2.0545454E0,0E0,0E0,0E0,4.072876E-1,2.510831E0,1.9791677E0,0E0,0E0,2.2688584E0,1.5534592E-1,1.5675685E0,1.4452407E0,0E0,0E0,0E0,0E0,0E0,0E0,0E0,0E0],"parents":[2147483647,0,0,1,1,2,2,3,3,4,4,6,6,10,10,11,11,12,12,15,15,16,16,17,17,18,18],"right_children":[2,4,6,8,10,-1,12,-1,-1,-1,14,16,18,-1,-1,20,22,24,26,-1,-1,-1,-1,-1,-1,-1,-1],"split_conditions":[9.86E-1,8.9741E1,8.89E-1,7.24489E2,1.2808E1,1.2520659E-1,1.123E0,-4.2302243E-2,-1.9481996E-2,-2.193766E-2,2.8377E2,1.102E0,9.126E1,-6.939595E-2,-3.4718376E-2,1.035E0,2.0186E1,9.0093E1,2.41707E2,-1.1523493E-3,4.18638E-3,-9.159999E-3,-3.2220557E-2,6.800209E-3,-6.6130036E-3,-3.426805E-2,-3.7254777E-3],"split_indices":[14,16,1,4,2,0,1,0,0,0,11,14,9,0,0,14,2,16,15,0,0,0,0,0,0,0,0],"split_type":[0,0,0,0,0,0,0,0,0,0,0,0,0,0,0,0,0,0,0,0,0,0,0,0,0,0,0],"sum_hessian":[1.16E3,3.9E1,1.121E3,1.1E1,2.8E1,4E0,1.117E3,6E0,5E0,3E0,2.5E1,1.009E3,1.08E2,2E1,5E0,1.002E3,7E0,9.2E1,1.6E1,2.71E2,7.31E2,3E0,4E0,3.3E1,5.9E1,8E0,8E0],"tree_param":{"num_deleted":"0","num_feature":"21","num_nodes":"27","size_leaf_vector":"1"}},{"base_weights":[-1.9714175E-2,-9.944981E-1,1.1005275E-2,-1.0596702E0,-2.4311053E-2,1.8756775E-2,-6.901948E-1,-5.5412102E-2,-2.2094635E-2,-5.105551E-2,2.263311E-2,-4.2852204E-2,-5.8617643E-3,4.1454233E-2,-9.1008745E-2,-1.1058196E-3,3.8592306E-3,-1.1576404E-2,-9.456233E-4],"categories":[],"categories_nodes":[],"categories_segments":[],"categories_sizes":[],"default_left":[0,0,0,0,0,0,0,0,0,0,0,0,0,0,0,0,0,0,0],"id":21,"left_children":[1,3,5,7,-1,9,11,-1,-1,-1,13,-1,-1,15,17,-1,-1,-1,-1],"loss_changes":[3.4306286E1,4.895668E-1,5.9681726E0,2.5546265E-1,0E0,4.345131E0,9.492707E-1,0E0,0E0,0E0,2.338738E0,0E0,0E0,2.142332E0,1.5408698E0,0E0,0E0,0E0,0E0],"parents":[2147483647,0,0,1,1,2,2,3,3,5,5,6,6,10,10,13,13,14,14],"right_children":[2,4,6,8,-1,10,12,-1,-1,-1,14,-1,-1,16,18,-1,-1,-1,-1],"split_conditions":[9.87E-1,9.86E0,9.1147E1,8.97E-1,-2.4311053E-2,8.89E-1,2.766E2,-5.5412102E-2,-2.2094635E-2,-5.105551E-2,2.7588E2,-4.2852204E-2,-5.8617643E-3,1.74E3,1.996E3,-1.1058196E-3,3.8592306E-3,-1.1576404E-2,-9.456233E-4],"split_indices":[14,8,13,14,0,1,3,0,0,0,3,0,0,0,0,0,0,0,0],"split_type":[0,0,0,0,0,0,0,0,0,0,0,0,0,0,0,0,0,0,0],"sum_hessian":[1.141E3,3.4E1,1.107E3,2.9E1,5E0,1.096E3,1.1E1,2.6E1,3E0,3E0,1.093E3,8E0,3E0,9.39E2,1.54E2,3.37E2,6.02E2,5.1E1,1.03E2],"tree_param":{"num_deleted":"0","num_feature":"21","num_nodes":"19","size_leaf_vector":"1"}},{"base_weights":[-2.2803629E-3,-8.9037865E-1,2.8026683E-2,-1.0058998E0,1.5068284E-3,1.6351738E0,1.7442444E-2,-1.0648979E0,-1.4346938E-2,-3.834303E-2,1.8267074E-1,2.615106E-2,-4.6268636E-1,-7.868926E-1,-6.8011045E-2,3.0791745E-2,-2.5367862E-1,-4.144761E-2,-1.11861005E-1,-4.5207415E-2,-2.2959193E-2,-1.2225573E-3,2.8706458E-3,-2.3156956E-2,-2.537119E-3,1.1450104E-2,-1.4040497E-2],"categories":[],"categories_nodes":[],"categories_segments":[],"categories_sizes":[],"default_left":[0,0,0,0,0,0,0,0,0,0,0,0,0,0,0,0,0,0,0,0,0,0,0,0,0,0,0],"id":22,"left_children":[1,3,5,7,-1,9,11,13,-1,-1,-1,15,17,19,-1,21,23,-1,25,-1,-1,-1,-1,-1,-1,-1,-1],"loss_changes":[3.0175957E1,4.0624313E0,1.8194492E1,9.5902634E-1,0E0,3.7025505E1,4.463297E0,1.1779823E0,0E0,0E0,0E0,1.3581443E0,2.254603E0,1.401596E-1,0E0,1.5356263E0,6.4773214E-1,0E0,7.0295984E-1,0E0,0E0,0E0,0E0,0E0,0E0,0E0,0E0],"parents":[2147483647,0,0,1,1,2,2,3,3,5,5,6,6,7,7,11,11,12,12,13,13,15,15,16,16,18,18],"right_children":[2,4,6,8,-1,10,12,14,-1,-1,-1,16,18,20,-1,22,24,-1,26,-1,-1,-1,-1,-1,-1,-1,-1],"split_conditions":[9.01E-1,6E0,8.89E-1,7.28899E2,1.5068284E-3,5E0,9.1083E1,1.6296E1,-1.4346938E-2,-3.834303E-2,1.8267074E-1,2.208E3,1.061E0,7.2591E2,-6.8011045E-2,1.74E3,1.26E0,-4.144761E-2,1.775E3,-4.5207415E-2,-2.2959193E-2,-1.2225573E-3,2.8706458E-3,-2.3156956E-2,-2.537119E-3,1.1450104E-2,-1.4040497E-2],"split_indices":[10,19,1,4,0,20,13,2,0,0,0,0,10,4,0,0,1,0,0,0,0,0,0,0,0,0,0],"split_type":[0,0,0,0,0,0,0,0,0,0,0,0,0,0,0,0,0,0,0,0,0,0,0,0,0,0,0],"sum_hessian":[1.116E3,3.6E1,1.08E3,3.2E1,4E0,6E0,1.074E3,2.9E1,3E0,3E0,3E0,1.056E3,1.8E1,1.7E1,1.2E1,1.04E3,1.6E1,8E0,1E1,1.1E1,6E0,3.37E2,7.03E2,7E0,9E0,3E0,7E0],"tree_param":{"num_deleted":"0","num_feature":"21","num_nodes":"27","size_leaf_vector":"1"}},{"base_weights":[1.2415467E-2,-8.472511E-1,5.2658275E-2,-9.5092916E-1,-3.061627E-2,6.104613E-1,3.8136043E-2,-2.73302E-2,-1.0318028E0,-1.4466648E-2,1.0537724E-2,2.7602706E-2,2.0378561E-1,4.619219E-2,-4.9725583E-1,-2.4005933E-2,-1.0810943E0,-3.7254864E-1,2.0946981E-1,4.911222E-2,-2.8309023E-2,-4.0671434E-2,1.1170578E-2,-5.6484252E-2,-2.815245E-2,-3.1630334E-2,-3.499626E-3,2.0255234E-2,-1.8010085E-2,8.997535E-3,1.7869882E-3,7.3428913E-3,-5.115466E-3],"categories":[],"categories_nodes":[],"categories_segments":[],"categories_sizes":[],"default_left":[0,0,0,0,0,0,0,0,0,0,0,0,0,0,0,0,0,0,0,0,0,0,0,0,0,0,0,0,0,0,0,0,0],"id":23,"left_children":[1,3,5,7,9,11,13,-1,15,-1,-1,17,-1,19,21,-1,23,25,27,29,-1,-1,31,-1,-1,-1,-1,-1,-1,-1,-1,-1,-1],"loss_changes":[4.0234196E1,4.275425E0,8.927766E0,7.823372E-1,5.0596255E-1,5.6030212E1,4.661994E0,0E0,3.3097458E-1,0E0,0E0,1.881089E0,0E0,1.8912039E0,2.6613224E0,0E0,2.5341034E-2,5.149193E-1,2.1564667E0,1.8388569E0,0E0,0E0,1.272642E-1,0E0,0E0,0E0,0E0,0E0,0E0,0E0,0E0,0E0,0E0],"parents":[2147483647,0,0,1,1,2,2,3,3,4,4,5,5,6,6,8,8,11,11,13,13,14,14,16,16,17,17,18,18,19,19,22,22],"right_children":[2,4,6,8,10,12,14,-1,16,-1,-1,18,-1,20,22,-1,24,26,28,30,-1,-1,32,-1,-1,-1,-1,-1,-1,-1,-1,-1,-1],"split_conditions":[1.004E0,1.1E1,9.03E0,2.1187E2,8.688E1,9.0451E1,9.1147E1,-2.73302E-2,2.0579E2,-1.4466648E-2,1.0537724E-2,1.1E1,2.0378561E-1,1.329E0,2.6178E2,-2.4005933E-2,2.8549E2,9.24E0,2.541E2,2.0532E2,-2.8309023E-2,-4.0671434E-2,2.6205E2,-5.6484252E-2,-2.815245E-2,-3.1630334E-2,-3.499626E-3,2.0255234E-2,-1.8010085E-2,8.997535E-3,1.7869882E-3,7.3428913E-3,-5.115466E-3],"split_indices":[14,19,12,11,9,13,13,0,3,0,0,6,0,14,11,0,11,8,15,11,0,0,3,0,0,0,0,0,0,0,0,0,0],"split_type":[0,0,0,0,0,0,0,0,0,0,0,0,0,0,0,0,0,0,0,0,0,0,0,0,0,0,0,0,0,0,0,0,0],"sum_hessian":[1.163E3,5.1E1,1.112E3,4.5E1,6E0,2.7E1,1.085E3,9E0,3.6E1,3E0,3E0,2.4E1,3E0,1.07E3,1.5E1,4E0,3.2E1,7E0,1.7E1,1.066E3,4E0,9E0,6E0,2.8E1,4E0,3E0,4E0,1.3E1,4E0,9.7E1,9.69E2,3E0,3E0],"tree_param":{"num_deleted":"0","num_feature":"21","num_nodes":"33","size_leaf_vector":"1"}},{"base_weights":[1.6321744E-3,-9.476202E-1,4.1417606E-2,-5.705665E-1,-1.0609754E0,1.6814463E-1,2.9177573E-2,-3.2076705E-2,-1.1275296E-2,-1.2166015E0,-3.723048E-2,3.7250485E-2,-5.123267E-1,-1.3266736E0,-2.8951783E-2,-3.0643538E-2,6.530428E-2,-4.1843694E-2,1.0215813E-2,-4.2489365E-2,-7.827577E-2,-1.1748007E-2,-7.552387E-5,1.1651486E-3,5.634745E-3,7.0772218E-3,-4.933338E-3],"categories":[],"categories_nodes":[],"categories_segments":[],"categories_sizes":[],"default_left":[0,0,0,0,0,0,0,0,0,0,0,0,0,0,0,0,0,0,0,0,0,0,0,0,0,0,0],"id":24,"left_children":[1,3,5,7,9,-1,11,-1,-1,13,-1,15,17,19,-1,21,23,-1,25,-1,-1,-1,-1,-1,-1,-1,-1],"loss_changes":[4.319117E1,1.1975746E0,4.4283142E1,8.697176E-2,5.719681E-1,0E0,4.767131E0,0E0,0E0,5.149822E-1,0E0,2.0663366E0,2.8046498E0,3.6441994E-1,0E0,1.8569459E0,1.5104635E0,0E0,1.1834929E-1,0E0,0E0,0E0,0E0,0E0,0E0,0E0,0E0],"parents":[2147483647,0,0,1,1,2,2,3,3,4,4,6,6,9,9,11,11,12,12,13,13,15,15,16,16,18,18],"right_children":[2,4,6,8,10,-1,12,-1,-1,14,-1,16,18,20,-1,22,24,-1,26,-1,-1,-1,-1,-1,-1,-1,-1],"split_conditions":[9.95E-1,2.1608E2,8.89E-1,9.73E0,9.43E0,1.6814463E-1,9.1083E1,-3.2076705E-2,-1.1275296E-2,9.86E0,-3.723048E-2,1.038E0,2.6178E2,7.26468E2,-2.8951783E-2,1E0,7.2545624E2,-4.1843694E-2,9.52E0,-4.2489365E-2,-7.827577E-2,-1.1748007E-2,-7.552387E-5,1.1651486E-3,5.634745E-3,7.0772218E-3,-4.933338E-3],"split_indices":[14,11,1,12,12,0,13,0,0,8,0,14,11,4,0,20,4,0,8,0,0,0,0,0,0,0,0],"split_type":[0,0,0,0,0,0,0,0,0,0,0,0,0,0,0,0,0,0,0,0,0,0,0,0,0,0,0],"sum_hessian":[1.144E3,4.5E1,1.099E3,1.2E1,3.3E1,3E0,1.096E3,9E0,3E0,2E1,1.3E1,1.081E3,1.5E1,1.6E1,4E0,3.15E2,7.66E2,9E0,6E0,7E0,9E0,3.8E1,2.77E2,4.08E2,3.58E2,3E0,3E0],"tree_param":{"num_deleted":"0","num_feature":"21","num_nodes":"27","size_leaf_vector":"1"}},{"base_weights":[1.2440916E-2,-9.046681E-1,5.011879E-2,-0E0,-9.9042076E-1,1.618392E-1,3.8593516E-2,-6.8007034E-1,-1.1026443E0,4.728849E-2,-2.373281E-1,-4.3597117E-2,-1.7467475E-2,-5.831893E-2,-1.9385533E-2,3.8624138E-2,3.1129652E-1,-3.2333323E-1,2.6389906E-2,2.8563982E-3,-2.9644568E-3,2.290051E-2,3.0923856E-3,-2.573556E-2,-1.0206288E-2,-6.437083E-3,1.3874488E-2],"categories":[],"categories_nodes":[],"categories_segments":[],"categories_sizes":[],"default_left":[0,0,0,0,0,0,0,0,0,0,0,0,0,0,0,0,0,0,0,0,0,0,0,0,0,0,0],"id":25,"left_children":[1,3,5,-1,7,-1,9,11,13,15,17,-1,-1,-1,-1,19,21,23,25,-1,-1,-1,-1,-1,-1,-1,-1],"loss_changes":[4.0285236E1,3.5516815E0,4.0755447E1,0E0,5.346565E-1,0E0,2.6768465E0,4.6164274E-1,7.1377563E-1,2.4371643E0,8.0938447E-1,0E0,0E0,0E0,0E0,1.9109646E0,1.1640043E0,4.162066E-1,4.011809E-1,0E0,0E0,0E0,0E0,0E0,0E0,0E0,0E0],"parents":[2147483647,0,0,1,1,2,2,4,4,6,6,7,7,8,8,9,9,10,10,15,15,16,16,17,17,18,18],"right_children":[2,4,6,-1,8,-1,10,12,14,16,18,-1,-1,-1,-1,20,22,24,26,-1,-1,-1,-1,-1,-1,-1,-1],"split_conditions":[9.95E-1,1.603E3,8.89E-1,-0E0,8.9468E1,1.618392E-1,2.167E3,9.01E-1,2.8549E2,7.29747E2,7.26863E2,-4.3597117E-2,-1.7467475E-2,-5.831893E-2,-1.9385533E-2,7.28372E2,1.856E3,1.1E1,9.0701E1,2.8563982E-3,-2.9644568E-3,2.290051E-2,3.0923856E-3,-2.573556E-2,-1.0206288E-2,-6.437083E-3,1.3874488E-2],"split_indices":[14,0,1,0,16,0,0,1,11,4,4,0,0,0,0,4,0,6,16,0,0,0,0,0,0,0,0],"split_type":[0,0,0,0,0,0,0,0,0,0,0,0,0,0,0,0,0,0,0,0,0,0,0,0,0,0,0],"sum_hessian":[1.166E3,4.5E1,1.121E3,4E0,4.1E1,3E0,1.118E3,1.3E1,2.8E1,1.085E3,3.3E1,7E0,6E0,2.5E1,3E0,1.052E3,3.3E1,2.5E1,8E0,8.86E2,1.66E2,2E1,1.3E1,8E0,1.7E1,5E0,3E0],"tree_param":{"num_deleted":"0","num_feature":"21","num_nodes":"27","size_leaf_vector":"1"}},{"base_weights":[4.632455E-3,7.249553E-1,-8.933803E-3,4.1024122E-2,1.7982034E-1,-9.0354943E-1,1.5003962E-2,-3.668142E-2,2.5152984E-1,-2.3535525E-2,-9.699446E-1,2.923413E-2,-3.8422033E-1,2.7791161E-2,8.125742E-2,-5.471621E-2,-3.149712E-2,-1.3253996E-2,7.463308E-2,8.943581E-2,-5.432325E-1,-7.3158643E-3,2.7054626E-2,-4.3765754E-3,4.0671187E-3,1.15823816E-4,7.443109E-3,1.0640896E-2,-6.1920932E-3,-3.6936145E-2,-8.243172E-3],"categories":[],"categories_nodes":[],"categories_segments":[],"categories_sizes":[],"default_left":[0,0,0,0,0,0,0,0,0,0,0,0,0,0,0,0,0,0,0,0,0,0,0,0,0,0,0,0,0,0,0],"id":26,"left_children":[1,3,5,7,-1,9,11,-1,13,-1,15,17,19,-1,21,-1,-1,23,25,27,29,-1,-1,-1,-1,-1,-1,-1,-1,-1,-1],"loss_changes":[1.1100992E1,4.07301E1,2.383034E1,3.0715575E0,0E0,2.3278618E-1,6.111245E0,0E0,6.683186E-1,0E0,1.5315628E-1,2.0209155E0,2.8806963E0,0E0,1.269764E0,0E0,0E0,3.7949595E0,2.7007434E0,2.9839987E-1,1.8589439E0,0E0,0E0,0E0,0E0,0E0,0E0,0E0,0E0,0E0,0E0],"parents":[2147483647,0,0,1,1,2,2,3,3,5,5,6,6,8,8,10,10,11,11,12,12,14,14,17,17,18,18,19,19,20,20],"right_children":[2,4,6,8,-1,10,12,-1,14,-1,16,18,20,-1,22,-1,-1,24,26,28,30,-1,-1,-1,-1,-1,-1,-1,-1,-1,-1],"split_conditions":[9.03E0,2.57664E2,8.89E-1,8.9581E1,1.7982034E-1,1.1E1,9.0874E1,-3.668142E-2,9.24E0,-2.3535525E-2,2.56533E2,7E0,4E0,2.7791161E-2,9.73E0,-5.471621E-2,-3.149712E-2,9.03E1,8E0,1.2E1,2.6178E2,-7.3158643E-3,2.7054626E-2,-4.3765754E-3,4.0671187E-3,1.15823816E-4,7.443109E-3,1.0640896E-2,-6.1920932E-3,-3.6936145E-2,-8.243172E-3],"split_indices":[12,15,1,13,0,6,13,0,8,0,15,19,19,0,8,0,0,9,5,7,11,0,0,0,0,0,0,0,0,0,0],"split_type":[0,0,0,0,0,0,0,0,0,0,0,0,0,0,0,0,0,0,0,0,0,0,0,0,0,0,0,0,0,0,0],"sum_hessian":[1.127E3,2E1,1.107E3,1.7E1,3E0,2.8E1,1.079E3,3E0,1.4E1,5E0,2.3E1,1.043E3,3.6E1,4E0,1E1,1.5E1,8E0,5.38E2,5.05E2,9E0,2.7E1,7E0,3E0,3.02E2,2.36E2,2.57E2,2.48E2,6E0,3E0,1.7E1,1E1],"tree_param":{"num_deleted":"0","num_feature":"21","num_nodes":"31","size_leaf_vector":"1"}},{"base_weights":[-1.1576215E-2,-8.027862E-1,2.40484E-2,-8.595519E-1,1.9954015E-3,6.5786934E-1,9.316321E-3,-1.4377909E-2,-8.897433E-1,-0E0,2.0633371E-1,3.8370375E-2,-4.500619E-2,-1.0366325E0,-6.5664464E-1,-2.7130608E-2,1.4739431E-1,2.6721792E-2,3.1673875E-1,-6.0940795E-2,3.9815816E-1,-3.7549462E-2,-6.1742134E-2,-3.512883E-2,-1.3613634E-2,2.1232726E-2,-1.6733976E-2,2.8673725E-3,-4.309668E-3,4.0832455E-3,2.290796E-2,-4.075371E-3,8.405174E-3,-0E0,2.8629899E-2],"categories":[],"categories_nodes":[],"categories_segments":[],"categories_sizes":[],"default_left":[0,0,0,0,0,0,0,0,0,0,0,0,0,0,0,0,0,0,0,0,0,0,0,0,0,0,0,0,0,0,0,0,0,0,0],"id":27,"left_children":[1,3,5,7,-1,9,11,-1,13,15,-1,17,19,21,23,-1,25,27,29,31,33,-1,-1,-1,-1,-1,-1,-1,-1,-1,-1,-1,-1,-1,-1],"loss_changes":[3.2709015E1,2.5080795E0,1.0273103E1,4.380722E-1,0E0,5.729796E1,1.7119288E0,0E0,6.56517E-1,1.8631911E0,0E0,2.2529492E0,2.6527839E0,2.8949928E-1,6.432247E-2,0E0,2.5569985E0,2.3570247E0,8.394408E-1,1.7244363E0,8.899267E-1,0E0,0E0,0E0,0E0,0E0,0E0,0E0,0E0,0E0,0E0,0E0,0E0,0E0,0E0],"parents":[2147483647,0,0,1,1,2,2,3,3,5,5,6,6,8,8,9,9,11,11,12,12,13,13,14,14,16,16,17,17,18,18,19,19,20,20],"right_children":[2,4,6,8,-1,10,12,-1,14,16,-1,18,20,22,24,-1,26,28,30,32,34,-1,-1,-1,-1,-1,-1,-1,-1,-1,-1,-1,-1,-1,-1],"split_conditions":[9.95E-1,1.041E0,9.03E0,1.2808E1,1.9954015E-3,1.078E0,1.073E0,-1.4377909E-2,9.43E0,2.1696E2,2.0633371E-1,9.98E0,7.29747E2,1.6296E1,7.28523E2,-2.7130608E-2,2.541E2,9.075E1,6E0,2.8759E2,8E0,-3.7549462E-2,-6.1742134E-2,-3.512883E-2,-1.3613634E-2,2.1232726E-2,-1.6733976E-2,2.8673725E-3,-4.309668E-3,4.0832455E-3,2.290796E-2,-4.075371E-3,8.405174E-3,-0E0,2.8629899E-2],"split_indices":[14,10,12,2,0,14,10,0,12,3,0,12,4,2,4,0,15,9,19,3,5,0,0,0,0,0,0,0,0,0,0,0,0,0,0],"split_type":[0,0,0,0,0,0,0,0,0,0,0,0,0,0,0,0,0,0,0,0,0,0,0,0,0,0,0,0,0,0,0,0,0,0,0],"sum_hessian":[1.156E3,4.9E1,1.107E3,4.6E1,3E0,2.4E1,1.083E3,3E0,4.3E1,2.1E1,3E0,7.07E2,3.76E2,2.4E1,1.9E1,4E0,1.7E1,6.8E2,2.7E1,3.64E2,1.2E1,1.2E1,1.2E1,1.6E1,3E0,1.1E1,6E0,5.36E2,1.44E2,1.1E1,1.6E1,3.35E2,2.9E1,4E0,8E0],"tree_param":{"num_deleted":"0","num_feature":"21","num_nodes":"35","size_leaf_vector":"1"}},{"base_weights":[3.8193853E-3,-7.285618E-1,2.606023E-2,-8.353587E-1,8.2861324E-4,1.2337744E-1,1.471386E-2,-5.8659405E-1,-5.652795E-2,-3.841027E-2,1.8407196E-2,-3.4186553E-2,-8.864579E-3,-3.4793552E-2,5.5021692E-2,-7.5431145E-3,1.4144338E-3,4.1614533E-3,-3.856498E-3],"categories":[],"categories_nodes":[],"categories_segments":[],"categories_sizes":[],"default_left":[0,0,0,0,0,0,0,0,0,0,0,0,0,0,0,0,0,0,0],"id":28,"left_children":[1,3,5,7,-1,-1,9,11,-1,-1,13,-1,-1,15,17,-1,-1,-1,-1],"loss_changes":[1.824103E1,2.721796E0,2.9938381E1,1.294733E0,0E0,0E0,3.0823114E0,5.0832987E-1,0E0,0E0,2.1135333E0,0E0,0E0,3.245472E0,2.4039085E0,0E0,0E0,0E0,0E0],"parents":[2147483647,0,0,1,1,2,2,3,3,6,6,7,7,10,10,13,13,14,14],"right_children":[2,4,6,8,-1,-1,10,12,-1,-1,14,-1,-1,16,18,-1,-1,-1,-1],"split_conditions":[9.01E-1,7E0,7.4E-1,1.6296E1,8.2861324E-4,1.2337744E-1,8.89E-1,7.2591E2,-5.652795E-2,-3.841027E-2,5E0,-3.4186553E-2,-8.864579E-3,9.35E0,1.2E1,-7.5431145E-3,1.4144338E-3,4.1614533E-3,-3.856498E-3],"split_indices":[10,19,1,2,0,0,1,4,0,0,19,0,0,12,19,0,0,0,0],"split_type":[0,0,0,0,0,0,0,0,0,0,0,0,0,0,0,0,0,0,0],"sum_hessian":[1.122E3,3.2E1,1.09E3,2.8E1,4E0,4E0,1.086E3,1.7E1,1.1E1,4E0,1.082E3,1.3E1,4E0,4.4E2,6.42E2,1.55E2,2.85E2,5.3E2,1.12E2],"tree_param":{"num_deleted":"0","num_feature":"21","num_nodes":"19","size_leaf_vector":"1"}},{"base_weights":[2.7710216E-3,-7.565943E-1,3.548345E-2,-8.149932E-1,2.4971296E-3,1.02044776E-1,2.6160017E-2,-9.351973E-3,-8.5394007E-1,4.6542455E-2,-6.94963E-2,-8.9139324E-1,-1.2982517E-2,5.4048356E-2,-2.6544482E-1,3.7182397E-1,-9.648539E-2,-6.0993697E-2,-3.543418E-2,-1.4684796E-4,5.065809E-3,-3.0351406E-2,-8.461746E-3,-3.3246842E-3,3.23038E-2,-1.0101411E-2,5.6818774E-4],"categories":[],"categories_nodes":[],"categories_segments":[],"categories_sizes":[],"default_left":[0,0,0,0,0,0,0,0,0,0,0,0,0,0,0,0,0,0,0,0,0,0,0,0,0,0,0],"id":29,"left_children":[1,3,5,7,-1,-1,9,-1,11,13,15,17,-1,19,21,23,25,-1,-1,-1,-1,-1,-1,-1,-1,-1,-1],"loss_changes":[2.8273115E1,2.3309517E0,2.0194782E1,8.1228256E-1,0E0,0E0,2.126122E0,0E0,5.6602097E-1,2.1007776E0,2.2833111E0,1.2232704E0,0E0,2.380479E0,5.0978076E-1,1.4232229E0,2.0816312E0,0E0,0E0,0E0,0E0,0E0,0E0,0E0,0E0,0E0,0E0],"parents":[2147483647,0,0,1,1,2,2,3,3,6,6,8,8,9,9,10,10,11,11,13,13,14,14,15,15,16,16],"right_children":[2,4,6,8,-1,-1,10,-1,12,14,16,18,-1,20,22,24,26,-1,-1,-1,-1,-1,-1,-1,-1,-1,-1],"split_conditions":[9.95E-1,1.041E0,8.89E-1,1.441E3,2.4971296E-3,1.02044776E-1,9.84E0,-9.351973E-3,9.2089E1,2.167E3,1.9472E2,9.33E0,-1.2982517E-2,1.045E0,2.184E3,9.0587E1,7.2545624E2,-6.0993697E-2,-3.543418E-2,-1.4684796E-4,5.065809E-3,-3.0351406E-2,-8.461746E-3,-3.3246842E-3,3.23038E-2,-1.0101411E-2,5.6818774E-4],"split_indices":[14,10,1,0,0,0,8,0,16,0,11,12,0,14,0,16,4,0,0,0,0,0,0,0,0,0,0],"split_type":[0,0,0,0,0,0,0,0,0,0,0,0,0,0,0,0,0,0,0,0,0,0,0,0,0,0,0],"sum_hessian":[1.139E3,4.6E1,1.093E3,4.3E1,3E0,4E0,1.089E3,3E0,4E1,8.99E2,1.9E2,3.7E1,3E0,8.79E2,2E1,1E1,1.8E2,1.1E1,2.6E1,3.98E2,4.81E2,3E0,1.7E1,4E0,6E0,9.1E1,8.9E1],"tree_param":{"num_deleted":"0","num_feature":"21","num_nodes":"27","size_leaf_vector":"1"}},{"base_weights":[-5.7908096E-3,-7.1165794E-1,2.4420649E-2,-4.513839E-3,-7.811015E-1,-6.278513E-2,2.9178957E-2,-1.5583693E-2,-8.3341134E-1,3.509785E-2,-5.465865E-1,-6.095713E-2,-7.4668205E-1,4.0747575E-2,-2.9557198E-1,-3.8205817E-2,5.9890563E-6,-3.918752E-2,-1.2849932E-2,2.1617936E-3,-3.0254109E-2,-1.9237547E-3,-2.0629043E-2],"categories":[],"categories_nodes":[],"categories_segments":[],"categories_sizes":[],"default_left":[0,0,0,0,0,0,0,0,0,0,0,0,0,0,0,0,0,0,0,0,0,0,0],"id":30,"left_children":[1,3,5,-1,7,-1,9,-1,11,13,15,-1,17,19,21,-1,-1,-1,-1,-1,-1,-1,-1],"loss_changes":[2.4418243E1,1.8704376E0,6.583874E0,0E0,6.570797E-1,0E0,3.689455E0,0E0,1.3091087E-1,2.0079474E0,1.384665E0,0E0,2.9351044E-1,1.6814489E0,4.8050737E-1,0E0,0E0,0E0,0E0,0E0,0E0,0E0,0E0],"parents":[2147483647,0,0,1,1,2,2,4,4,6,6,8,8,9,9,10,10,12,12,13,13,14,14],"right_children":[2,4,6,-1,8,-1,10,-1,12,14,16,-1,18,20,22,-1,-1,-1,-1,-1,-1,-1,-1],"split_conditions":[9.95E-1,1.603E3,8.89E-1,-4.513839E-3,2.014E2,-6.278513E-2,9.1147E1,-1.5583693E-2,9.06E0,2.208E3,2.5227E2,-6.095713E-2,7.28848E2,1.329E0,9.0207E1,-3.8205817E-2,5.9890563E-6,-3.918752E-2,-1.2849932E-2,2.1617936E-3,-3.0254109E-2,-1.9237547E-3,-2.0629043E-2],"split_indices":[14,0,1,0,11,0,13,0,12,0,11,0,4,14,13,0,0,0,0,0,0,0,0],"split_type":[0,0,0,0,0,0,0,0,0,0,0,0,0,0,0,0,0,0,0,0,0,0,0],"sum_hessian":[1.14E3,4.6E1,1.094E3,5E0,4.1E1,3E0,1.091E3,5E0,3.6E1,1.081E3,1E1,4E0,3.2E1,1.064E3,1.7E1,7E0,3E0,2.9E1,3E0,1.061E3,3E0,6E0,1.1E1],"tree_param":{"num_deleted":"0","num_feature":"21","num_nodes":"23","size_leaf_vector":"1"}},{"base_weights":[7.2508235E-3,5.942301E-1,-5.1339143E-3,1.9165838E-1,-4.624514E-2,-5.1694685E-1,1.746272E-2,1.2261E-1,-3.155518E-2,-2.745515E-1,-6.49899E-1,2.5827104E-2,-3.0693054E-1,-7.717728E-2,3.6951786E-1,-4.8881036E-1,1.4829369E-1,-6.950349E-1,-1.3260617E-2,9.086821E-3,1.2790705E-1,-4.64493E-2,-1.1878224E-1,-1.825871E-2,7.950818E-3,2.6507307E-2,2.5676538E-3,-3.2891564E-2,-8.265706E-3,-4.583888E-3,1.8809585E-2,-1.2710862E-2,-3.6856607E-2,7.415237E-4,-1.5325834E-2,1.510135E-2,2.9847852E-3,-0E0,-2.119346E-2],"categories":[],"categories_nodes":[],"categories_segments":[],"categories_sizes":[],"default_left":[0,0,0,0,0,0,0,0,0,0,0,0,0,0,0,0,0,0,0,0,0,0,0,0,0,0,0,0,0,0,0,0,0,0,0,0,0,0,0],"id":31,"left_children":[1,3,5,-1,7,9,11,13,-1,15,17,19,21,23,25,27,29,31,-1,33,35,-1,37,-1,-1,-1,-1,-1,-1,-1,-1,-1,-1,-1,-1,-1,-1,-1,-1],"loss_changes":[8.44379E0,5.0342983E1,1.31277075E1,0E0,2.2021124E0,1.27602E0,2.918375E0,8.963462E-1,0E0,1.827907E0,2.4053764E-1,1.79139E0,2.9449208E0,7.5891477E-1,3.234756E-1,5.1974607E-1,4.4576293E-1,1.9596195E-1,0E0,1.6249495E0,1.703587E0,0E0,7.675878E-1,0E0,0E0,0E0,0E0,0E0,0E0,0E0,0E0,0E0,0E0,0E0,0E0,0E0,0E0,0E0,0E0],"parents":[2147483647,0,0,1,1,2,2,4,4,5,5,6,6,7,7,9,9,10,10,11,11,12,12,13,13,14,14,15,15,16,16,17,17,19,19,20,20,22,22],"right_children":[2,4,6,-1,8,10,12,14,-1,16,18,20,22,24,26,28,30,32,-1,34,36,-1,38,-1,-1,-1,-1,-1,-1,-1,-1,-1,-1,-1,-1,-1,-1,-1,-1],"split_conditions":[9.03E0,9.26E-1,9.26E-1,1.9165838E-1,2.5532E2,1.729E3,9.0963E1,8.991E1,-3.155518E-2,2.1622E2,7.28848E2,9.86E0,2.22453E2,2.5401E2,1.024E0,8.806E1,9.32E0,2.1187E2,-1.3260617E-2,9.99E0,2.36056E2,-4.64493E-2,9.1249E1,-1.825871E-2,7.950818E-3,2.6507307E-2,2.5676538E-3,-3.2891564E-2,-8.265706E-3,-4.583888E-3,1.8809585E-2,-1.2710862E-2,-3.6856607E-2,7.415237E-4,-1.5325834E-2,1.510135E-2,2.9847852E-3,-0E0,-2.119346E-2],"split_indices":[12,1,1,0,15,0,13,9,0,3,4,12,15,11,1,16,12,11,0,8,15,0,13,0,0,0,0,0,0,0,0,0,0,0,0,0,0,0,0],"split_type":[0,0,0,0,0,0,0,0,0,0,0,0,0,0,0,0,0,0,0,0,0,0,0,0,0,0,0,0,0,0,0,0,0,0,0,0,0,0,0],"sum_hessian":[1.152E3,2.3E1,1.129E3,3E0,2E1,4.7E1,1.082E3,1.6E1,4E0,1.8E1,2.9E1,1.056E3,2.6E1,9E0,7E0,1.2E1,6E0,2.5E1,4E0,9.09E2,1.47E2,5E0,2.1E1,4E0,5E0,4E0,3E0,7E0,5E0,3E0,3E0,3E0,2.2E1,8.94E2,1.5E1,4E1,1.07E2,1.6E1,5E0],"tree_param":{"num_deleted":"0","num_feature":"21","num_nodes":"39","size_leaf_vector":"1"}},{"base_weights":[-9.264235E-3,-6.136646E-1,1.5650546E-2,-0E0,-6.5571666E-1,4.6233744E-3,1.1939173E0,-8.121362E-1,-4.1835958E-1,2.7577922E-2,-5.87701E-2,1.8988816E-1,-4.5026866E-1,-9.130677E-1,-1.7024854E-2,-3.8889583E-2,-2.961041E-1,-8.556435E-2,4.4900183E-2,-2.1501265E-1,-8.58888E-3,-3.461197E-2,-3.5365392E-3,-3.186675E-2,-5.6875557E-2,-6.678458E-3,-1.7437503E-2,3.991403E-3,-1.039059E-2,-4.4313297E-4,4.2426637E-3,1.4148622E-3,-1.5170119E-2,9.843362E-4,-1.3296956E-2],"categories":[],"categories_nodes":[],"categories_segments":[],"categories_sizes":[],"default_left":[0,0,0,0,0,0,0,0,0,0,0,0,0,0,0,0,0,0,0,0,0,0,0,0,0,0,0,0,0,0,0,0,0,0,0],"id":32,"left_children":[1,3,5,-1,7,9,11,13,15,17,19,-1,21,23,-1,-1,25,27,29,31,33,-1,-1,-1,-1,-1,-1,-1,-1,-1,-1,-1,-1,-1,-1],"loss_changes":[1.7115633E1,1.1122112E0,1.4010956E1,0E0,1.096529E0,1.5686284E0,4.4856834E1,7.062254E-1,4.9721146E-1,1.5559204E0,2.2181594E0,0E0,5.175997E-1,2.7338028E-1,0E0,0E0,4.2094827E-2,2.1523616E0,1.490465E0,1.5200162E0,1.6161888E0,0E0,0E0,0E0,0E0,0E0,0E0,0E0,0E0,0E0,0E0,0E0,0E0,0E0,0E0],"parents":[2147483647,0,0,1,1,2,2,4,4,5,5,6,6,7,7,8,8,9,9,10,10,12,12,13,13,16,16,17,17,18,18,19,19,20,20],"right_children":[2,4,6,-1,8,10,12,14,16,18,20,-1,22,24,-1,-1,26,28,30,32,34,-1,-1,-1,-1,-1,-1,-1,-1,-1,-1,-1,-1,-1,-1],"split_conditions":[9.95E-1,1.603E3,9.1147E1,-0E0,9.45E0,2.5198E2,9.56E0,9.86E0,1.4065E1,8.9453E1,9.23E0,1.8988816E-1,2.047E3,7.26593E2,-1.7024854E-2,-3.8889583E-2,2.40359E2,1.027E0,9.44E0,8.971E1,1.086E0,-3.461197E-2,-3.5365392E-3,-3.186675E-2,-5.6875557E-2,-6.678458E-3,-1.7437503E-2,3.991403E-3,-1.039059E-2,-4.4313297E-4,4.2426637E-3,1.4148622E-3,-1.5170119E-2,9.843362E-4,-1.3296956E-2],"split_indices":[14,0,13,0,12,15,8,8,2,13,12,0,0,4,0,0,15,14,12,16,14,0,0,0,0,0,0,0,0,0,0,0,0,0,0],"split_type":[0,0,0,0,0,0,0,0,0,0,0,0,0,0,0,0,0,0,0,0,0,0,0,0,0,0,0,0,0,0,0,0,0,0,0],"sum_hessian":[1.131E3,4.4E1,1.087E3,3E0,4.1E1,1.078E3,9E0,2.3E1,1.8E1,7.93E2,2.85E2,3E0,6E0,1.8E1,5E0,3E0,1.5E1,1.04E2,6.89E2,6.8E1,2.17E2,3E0,3E0,1E1,8E0,5E0,1E1,4.4E1,6E1,2.93E2,3.96E2,1.8E1,5E1,1.96E2,2.1E1],"tree_param":{"num_deleted":"0","num_feature":"21","num_nodes":"35","size_leaf_vector":"1"}},{"base_weights":[-1.4771487E-2,-6.34755E-1,1.0513995E-2,-6.8989027E-1,-1.7847291E-3,-6.2153798E-2,1.51665425E-2,-1.1306767E-2,-7.1792E-1,2.1458944E-2,-5.034814E-1,-6.032639E-1,-5.2998614E-2,5.217402E-2,-2.938978E-2,-3.449454E-2,-2.3624077E-3,-3.181416E-2,-9.81565E-3,4.2734044E-3,-1.8902138E-3,-1.31402165E-2,-2.2184609E-4],"categories":[],"categories_nodes":[],"categories_segments":[],"categories_sizes":[],"default_left":[0,0,0,0,0,0,0,0,0,0,0,0,0,0,0,0,0,0,0,0,0,0,0],"id":33,"left_children":[1,3,5,7,-1,-1,9,-1,11,13,15,17,-1,19,21,-1,-1,-1,-1,-1,-1,-1,-1],"loss_changes":[1.8003107E1,1.3891392E0,6.3116894E0,2.7620125E-1,0E0,0E0,3.5427067E0,0E0,6.8453217E-1,1.698389E0,9.9929047E-1,2.0838356E-1,0E0,2.0391111E0,2.348449E0,0E0,0E0,0E0,0E0,0E0,0E0,0E0,0E0],"parents":[2147483647,0,0,1,1,2,2,3,3,6,6,8,8,9,9,10,10,11,11,13,13,14,14],"right_children":[2,4,6,8,-1,-1,10,-1,12,14,16,18,-1,20,22,-1,-1,-1,-1,-1,-1,-1,-1],"split_conditions":[9.95E-1,6E0,8.89E-1,1.2808E1,-1.7847291E-3,-6.2153798E-2,9.1206E1,-1.1306767E-2,9.66E0,2.47657E2,2.5353E2,2.8549E2,-5.2998614E-2,1.083E0,7.21127E2,-3.449454E-2,-2.3624077E-3,-3.181416E-2,-9.81565E-3,4.2734044E-3,-1.8902138E-3,-1.31402165E-2,-2.2184609E-4],"split_indices":[14,19,1,2,0,0,13,0,8,15,11,11,0,10,4,0,0,0,0,0,0,0,0],"split_type":[0,0,0,0,0,0,0,0,0,0,0,0,0,0,0,0,0,0,0,0,0,0,0],"sum_hessian":[1.143E3,4.4E1,1.099E3,4E1,4E0,3E0,1.096E3,3E0,3.7E1,1.084E3,1.2E1,3E1,7E0,6.77E2,4.07E2,8E0,4E0,2.7E1,3E0,4.95E2,1.82E2,3.8E1,3.69E2],"tree_param":{"num_deleted":"0","num_feature":"21","num_nodes":"23","size_leaf_vector":"1"}},{"base_weights":[6.7822286E-3,-5.7750297E-1,3.357151E-2,-2.941214E-1,-7.2458875E-1,1.4453895E-1,2.2973526E-2,-4.5802882E-1,-9.080185E-2,-8.8015234E-1,-4.5456752E-1,2.8751636E-2,-4.1643894E-1,-2.771292E-2,-1.1547378E-2,-1.068095E-2,6.0914326E-3,-6.338044E-1,-5.6357767E-2,-1.3792924E-2,-5.795825E-1,-1.2117199E-2,8.432106E-2,1.6762543E-3,-5.5129504E-1,-1.3628448E-2,-3.8392548E-2,-1.2857132E-2,-3.660634E-2,1.8952474E-4,-9.409002E-3,4.79428E-3,-1.1744614E-2,-3.8405612E-2,-0E0],"categories":[],"categories_nodes":[],"categories_segments":[],"categories_sizes":[],"default_left":[0,0,0,0,0,0,0,0,0,0,0,0,0,0,0,0,0,0,0,0,0,0,0,0,0,0,0,0,0,0,0,0,0,0,0],"id":34,"left_children":[1,3,5,7,9,-1,11,13,15,17,19,21,23,-1,-1,-1,-1,25,-1,-1,27,29,31,-1,33,-1,-1,-1,-1,-1,-1,-1,-1,-1,-1],"loss_changes":[1.7855894E1,1.769083E0,3.2769234E1,5.367129E-1,8.1061363E-1,0E0,2.7432241E0,1.1994362E-2,2.963507E-1,2.6563358E-1,6.735158E-2,2.4564424E0,9.1978455E-1,0E0,0E0,0E0,0E0,2.6773357E-1,0E0,0E0,5.711651E-2,1.7584203E0,1.6993546E0,0E0,1.3767827E0,0E0,0E0,0E0,0E0,0E0,0E0,0E0,0E0,0E0,0E0],"parents":[2147483647,0,0,1,1,2,2,3,3,4,4,6,6,7,7,8,8,9,9,10,10,11,11,12,12,17,17,20,20,21,21,22,22,24,24],"right_children":[2,4,6,8,10,-1,12,14,16,18,20,22,24,-1,-1,-1,-1,26,-1,-1,28,30,32,-1,34,-1,-1,-1,-1,-1,-1,-1,-1,-1,-1],"split_conditions":[9.95E-1,8.9741E1,8.89E-1,8.74E-1,2.589E2,1.4453895E-1,9.1083E1,8.9216E1,2E0,9.047E1,8.4E-1,9.033E1,2.2432E2,-2.771292E-2,-1.1547378E-2,-1.068095E-2,6.0914326E-3,2.6022E2,-5.6357767E-2,-1.3792924E-2,7.77E-1,2.8196E2,1.09E0,1.6762543E-3,2.6178E2,-1.3628448E-2,-3.8392548E-2,-1.2857132E-2,-3.660634E-2,1.8952474E-4,-9.409002E-3,4.79428E-3,-1.1744614E-2,-3.8405612E-2,-0E0],"split_indices":[14,16,1,14,15,0,13,16,18,13,1,9,11,0,0,0,0,11,0,0,14,3,14,0,11,0,0,0,0,0,0,0,0,0,0],"split_type":[0,0,0,0,0,0,0,0,0,0,0,0,0,0,0,0,0,0,0,0,0,0,0,0,0,0,0,0,0,0,0,0,0,0,0],"sum_hessian":[1.142E3,4.9E1,1.093E3,1.8E1,3.1E1,3E0,1.09E3,9E0,9E0,1.8E1,1.3E1,1.077E3,1.3E1,5E0,4E0,6E0,3E0,1.1E1,7E0,7E0,6E0,6.2E2,4.57E2,3E0,1E1,4E0,7E0,3E0,3E0,5.69E2,5.1E1,4.42E2,1.5E1,7E0,3E0],"tree_param":{"num_deleted":"0","num_feature":"21","num_nodes":"35","size_leaf_vector":"1"}},{"base_weights":[-9.140451E-3,-6.4646983E-1,1.215492E-2,-4.9783534E-1,-7.949103E-1,4.798861E-1,6.4552843E-4,-1.0804615E-2,-5.837332E-1,-4.0808192E-1,-4.7985923E-2,-4.222347E-2,1.758786E-1,9.25116E-3,-5.1495355E-1,-3.296102E-2,-8.373337E-3,-2.582472E-2,-8.63245E-3,-3.7941176E-2,9.152051E-2,-5.179478E-2,3.881917E-2,-6.8250084E-1,-2.472102E-3,1.3802505E-2,-4.6119103E-3,-6.501175E-3,9.32306E-4,1.3481815E-2,6.229748E-4,-3.9009403E-2,-1.7508186E-2],"categories":[],"categories_nodes":[],"categories_segments":[],"categories_sizes":[],"default_left":[0,0,0,0,0,0,0,0,0,0,0,0,0,0,0,0,0,0,0,0,0,0,0,0,0,0,0,0,0,0,0,0,0],"id":35,"left_children":[1,3,5,7,9,11,13,-1,15,17,-1,19,-1,21,23,-1,-1,-1,-1,-1,25,27,29,31,-1,-1,-1,-1,-1,-1,-1,-1,-1],"loss_changes":[1.5950725E1,3.1340027E-1,6.050917E0,3.2630205E-1,5.553684E-1,4.331819E1,4.8660135E0,0E0,3.096981E-1,2.0580411E-2,0E0,2.4363608E0,0E0,1.9681706E0,1.2969756E0,0E0,0E0,0E0,0E0,0E0,7.559308E-1,1.96979E0,4.4464498E0,3.5817623E-2,0E0,0E0,0E0,0E0,0E0,0E0,0E0,0E0,0E0],"parents":[2147483647,0,0,1,1,2,2,3,3,4,4,5,5,6,6,8,8,9,9,11,11,13,13,14,14,20,20,21,21,22,22,23,23],"right_children":[2,4,6,8,10,12,14,-1,16,18,-1,20,-1,22,24,-1,-1,-1,-1,-1,26,28,30,32,-1,-1,-1,-1,-1,-1,-1,-1,-1],"split_conditions":[8.74E-1,1.2E1,9.03E0,1.1E1,8.2E-1,9.0451E1,9.1083E1,-1.0804615E-2,9.1281E1,2.7201E2,-4.7985923E-2,8.9581E1,1.758786E-1,1.038E0,2.6178E2,-3.296102E-2,-8.373337E-3,-2.582472E-2,-8.63245E-3,-3.7941176E-2,2.42726E2,7E0,2E0,1.078E0,-2.472102E-3,1.3802505E-2,-4.6119103E-3,-6.501175E-3,9.32306E-4,1.3481815E-2,6.229748E-4,-3.9009403E-2,-1.7508186E-2],"split_indices":[14,6,12,7,14,13,13,0,16,11,0,13,0,14,11,0,0,0,0,0,15,19,19,14,0,0,0,0,0,0,0,0,0],"split_type":[0,0,0,0,0,0,0,0,0,0,0,0,0,0,0,0,0,0,0,0,0,0,0,0,0,0,0,0,0,0,0,0,0],"sum_hessian":[1.169E3,3.7E1,1.132E3,2.1E1,1.6E1,2.6E1,1.106E3,6E0,1.5E1,6E0,1E1,2.3E1,3E0,1.089E3,1.7E1,1.2E1,3E0,3E0,3E0,3E0,2E1,3.54E2,7.35E2,1.2E1,5E0,1E1,1E1,1.68E2,1.86E2,7.4E1,6.61E2,8E0,4E0],"tree_param":{"num_deleted":"0","num_feature":"21","num_nodes":"33","size_leaf_vector":"1"}},{"base_weights":[1.0796289E-2,-5.020017E-1,3.267976E-2,-5.104069E-2,-4.2590502E-1,9.058701E-2,2.4305006E-2,-5.2809155E-1,-1.766682E-1,2.9683003E-2,-4.1086802E-1,-3.577173E-1,-6.779413E-1,-2.7700254E-1,5.920916E-3,5.363996E-2,-2.8591508E-2,2.7094266E-4,-3.037988E-2,-4.6248473E-3,-2.1504134E-2,-1.6114391E-2,-3.88987E-2,-2.3569632E-3,-1.7240444E-2,-4.8547375E-4,4.469705E-3,2.224684E-2,-2.1469865E-3],"categories":[],"categories_nodes":[],"categories_segments":[],"categories_sizes":[],"default_left":[0,0,0,0,0,0,0,0,0,0,0,0,0,0,0,0,0,0,0,0,0,0,0,0,0,0,0,0,0],"id":36,"left_children":[1,3,5,-1,7,-1,9,11,13,15,17,19,21,23,-1,25,27,-1,-1,-1,-1,-1,-1,-1,-1,-1,-1,-1,-1],"loss_changes":[1.2616441E1,1.2366333E0,1.5893285E1,0E0,9.0591E-1,0E0,2.496984E0,3.9430904E-1,4.6316293E-1,1.4922595E0,1.1281579E0,2.1504521E-1,1.3731956E-1,1.1599922E-1,0E0,1.7234447E0,2.0851355E0,0E0,0E0,0E0,0E0,0E0,0E0,0E0,0E0,0E0,0E0,0E0,0E0],"parents":[2147483647,0,0,1,1,2,2,4,4,6,6,7,7,8,8,9,9,10,10,11,11,12,12,13,13,15,15,16,16],"right_children":[2,4,6,-1,8,-1,10,12,14,16,18,20,22,24,-1,26,28,-1,-1,-1,-1,-1,-1,-1,-1,-1,-1,-1,-1],"split_conditions":[9.95E-1,9.06E0,8.89E-1,-5.104069E-2,8.74E-1,9.058701E-2,9.1083E1,2E0,2E0,9.0251E1,1E0,9.18E0,7.74E-1,8.97E-1,5.920916E-3,9.37E0,8.815E1,2.7094266E-4,-3.037988E-2,-4.6248473E-3,-2.1504134E-2,-1.6114391E-2,-3.88987E-2,-2.3569632E-3,-1.7240444E-2,-4.8547375E-4,4.469705E-3,2.224684E-2,-2.1469865E-3],"split_indices":[14,12,1,0,14,0,13,18,18,13,18,8,14,14,0,8,9,0,0,0,0,0,0,0,0,0,0,0,0],"split_type":[0,0,0,0,0,0,0,0,0,0,0,0,0,0,0,0,0,0,0,0,0,0,0,0,0,0,0,0,0],"sum_hessian":[1.126E3,4.5E1,1.081E3,4E0,4.1E1,4E0,1.077E3,2.8E1,1.3E1,1.065E3,1.2E1,1.5E1,1.3E1,1E1,3E0,7.56E2,3.09E2,4E0,8E0,4E0,1.1E1,4E0,9E0,3E0,7E0,2.72E2,4.84E2,8E0,3.01E2],"tree_param":{"num_deleted":"0","num_feature":"21","num_nodes":"29","size_leaf_vector":"1"}},{"base_weights":[-2.2532176E-2,-5.5881923E-1,-1.5521989E-3,-3.7940056E-3,-6.1773545E-1,4.0434506E-2,-8.3992615E-2,-4.6922025E-1,-7.6771176E-1,4.7339957E-2,-5.0845236E-1,-1.692847E-1,1.13284355E-2,-1.5861277E-1,-5.9692955E-1,-4.245525E-1,-4.7773402E-2,-0E0,1.0232442E-1,-5.9262565E-3,-3.3349756E-2,-4.1643253E-1,-1.185307E-1,-3.3954602E-1,5.381451E-2,-1.9526711E-3,-1.2170439E-2,-3.717342E-2,-1.5448055E-2,-2.6685774E-2,-7.848029E-3,-1.2165202E-3,1.14614945E-2,-3.5511402E-3,7.006859E-3,-3.242528E-2,-1.0301816E-2,-8.106896E-3,9.276282E-3,-2.238477E-2,7.646899E-3,8.705811E-3,-3.2954935E-3],"categories":[],"categories_nodes":[],"categories_segments":[],"categories_sizes":[],"default_left":[0,0,0,0,0,0,0,0,0,0,0,0,0,0,0,0,0,0,0,0,0,0,0,0,0,0,0,0,0,0,0,0,0,0,0,0,0,0,0,0,0,0,0],"id":37,"left_children":[1,3,5,-1,7,9,11,13,15,17,19,21,23,25,27,29,-1,31,33,-1,-1,35,37,39,41,-1,-1,-1,-1,-1,-1,-1,-1,-1,-1,-1,-1,-1,-1,-1,-1,-1,-1],"loss_changes":[1.2848326E1,1.1072407E0,3.8326E0,0E0,3.6248493E-1,2.7524672E0,3.058382E0,7.0244884E-1,5.5166626E-1,1.8745401E0,3.9877367E-1,2.380804E0,2.6282876E0,4.335308E-2,2.9803276E-1,8.084929E-2,0E0,2.206318E0,2.206146E0,0E0,0E0,1.392231E0,2.228744E0,1.1099205E0,2.312381E0,0E0,0E0,0E0,0E0,0E0,0E0,0E0,0E0,0E0,0E0,0E0,0E0,0E0,0E0,0E0,0E0,0E0,0E0],"parents":[2147483647,0,0,1,1,2,2,4,4,5,5,6,6,7,7,8,8,9,9,10,10,11,11,12,12,13,13,14,14,15,15,17,17,18,18,21,21,22,22,23,23,24,24],"right_children":[2,4,6,-1,8,10,12,14,16,18,20,22,24,26,28,30,-1,32,34,-1,-1,36,38,40,42,-1,-1,-1,-1,-1,-1,-1,-1,-1,-1,-1,-1,-1,-1,-1,-1,-1,-1],"split_conditions":[9.86E-1,2.1187E2,1.073E0,-3.7940056E-3,1.2E1,9.1083E1,2.468E2,1.1E1,8.2E-1,9.58E0,2.3837E2,8.953E1,1.585E3,9.0759E1,2.027E3,2.7201E2,-4.7773402E-2,9.9E0,9.17E0,-5.9262565E-3,-3.3349756E-2,1.762E3,9.91E0,1.156E0,1.881E3,-1.9526711E-3,-1.2170439E-2,-3.717342E-2,-1.5448055E-2,-2.6685774E-2,-7.848029E-3,-1.2165202E-3,1.14614945E-2,-3.5511402E-3,7.006859E-3,-3.242528E-2,-1.0301816E-2,-8.106896E-3,9.276282E-3,-2.238477E-2,7.646899E-3,8.705811E-3,-3.2954935E-3],"split_indices":[14,11,10,0,6,13,11,7,14,8,11,13,0,13,0,11,0,12,12,0,0,0,8,10,0,0,0,0,0,0,0,0,0,0,0,0,0,0,0,0,0,0,0],"split_type":[0,0,0,0,0,0,0,0,0,0,0,0,0,0,0,0,0,0,0,0,0,0,0,0,0,0,0,0,0,0,0,0,0,0,0,0,0,0,0,0,0,0,0],"sum_hessian":[1.146E3,4.2E1,1.104E3,5E0,3.7E1,7.31E2,3.73E2,2.1E1,1.6E1,7.23E2,8E0,1.97E2,1.76E2,7E0,1.4E1,7E0,9E0,3.9E2,3.33E2,3E0,5E0,3.2E1,1.65E2,1.8E1,1.58E2,4E0,3E0,8E0,6E0,4E0,3E0,3.53E2,3.7E1,5.9E1,2.74E2,1.4E1,1.8E1,1.45E2,2E1,1.5E1,3E0,7.9E1,7.9E1],"tree_param":{"num_deleted":"0","num_feature":"21","num_nodes":"43","size_leaf_vector":"1"}},{"base_weights":[-1.035909E-2,-6.4335406E-1,9.124717E-3,-4.8460257E-1,-7.235961E-2,-5.5728877E-1,1.4399703E-2,-3.229374E-3,-5.4288995E-1,-7.761888E-3,-3.4656692E-2,1.9574452E-2,-4.0851992E-1,-5.89209E-1,-5.791645E-3,2.518545E-2,-2.7378714E-1,-5.910831E-1,-4.0174513E-3,-3.249231E-2,-1.4621468E-2,-1.9181351E-3,2.6987873E-3,-1.722644E-2,3.5155823E-3,-3.5521302E-2,-1.3456683E-2],"categories":[],"categories_nodes":[],"categories_segments":[],"categories_sizes":[],"default_left":[0,0,0,0,0,0,0,0,0,0,0,0,0,0,0,0,0,0,0,0,0,0,0,0,0,0,0],"id":38,"left_children":[1,3,5,7,-1,9,11,-1,13,-1,-1,15,17,19,-1,21,23,25,-1,-1,-1,-1,-1,-1,-1,-1,-1],"loss_changes":[1.4042753E1,3.4442635E0,3.2403417E0,6.386366E-1,0E0,3.5372853E-1,2.3567593E0,0E0,3.7554884E-1,0E0,0E0,1.7581246E0,6.642189E-1,1.2964296E-1,0E0,1.9429758E0,5.384884E-1,1.8223524E-2,0E0,0E0,0E0,0E0,0E0,0E0,0E0,0E0,0E0],"parents":[2147483647,0,0,1,1,2,2,3,3,5,5,6,6,8,8,11,11,12,12,13,13,15,15,16,16,17,17],"right_children":[2,4,6,8,-1,10,12,-1,14,-1,-1,16,18,20,-1,22,24,26,-1,-1,-1,-1,-1,-1,-1,-1,-1],"split_conditions":[8.89E-1,9.86E-1,8.74E-1,1.699E3,-7.235961E-2,1.729E3,9.1206E1,-3.229374E-3,8.6E-1,-7.761888E-3,-3.4656692E-2,2.208E3,2.5227E2,2.8377E2,-5.791645E-3,1.74E3,2.8792E2,9.55E0,-4.0174513E-3,-3.249231E-2,-1.4621468E-2,-1.9181351E-3,2.6987873E-3,-1.722644E-2,3.5155823E-3,-3.5521302E-2,-1.3456683E-2],"split_indices":[1,14,14,0,0,0,13,0,1,0,0,0,11,11,0,0,11,12,0,0,0,0,0,0,0,0,0],"split_type":[0,0,0,0,0,0,0,0,0,0,0,0,0,0,0,0,0,0,0,0,0,0,0,0,0,0,0],"sum_hessian":[1.132E3,3.3E1,1.099E3,2.9E1,4E0,9E0,1.09E3,4E0,2.5E1,3E0,6E0,1.078E3,1.2E1,2.2E1,3E0,1.059E3,1.9E1,7E0,5E0,1.7E1,5E0,3.29E2,7.3E2,1.6E1,3E0,4E0,3E0],"tree_param":{"num_deleted":"0","num_feature":"21","num_nodes":"27","size_leaf_vector":"1"}},{"base_weights":[-5.948125E-3,-4.3276662E-1,1.3287344E-2,-4.730892E-1,4.698663E-3,4.7083594E-2,-5.1585674E-2,-3.7261385E-1,-6.193826E-1,-1.7237121E-2,9.3877755E-2,-7.869285E-2,1.1334199E-1,-1.3900456E-1,-4.657878E-1,-4.872483E-2,-3.602857E-1,2.1520698E-2,-1.7644022E-1,1.1429646E-1,-7.45529E-2,-1.1807282E-2,-1.6147771E-1,-2.0632518E-2,1.7022502E-1,-1.1585087E-2,-1.0961405E-3,-2.6397044E-2,-3.0095149E-3,-2.3845887E-2,-1.0561101E-2,-2.3835486E-2,1.8649934E-3,-1.44169545E-2,6.1035883E-3,7.3314144E-4,8.4308E-3,-1.6881894E-2,4.5075356E-3,-7.6082884E-3,4.539927E-3,-2.613596E-2,-6.0748463E-3,1.950423E-2,1.2221178E-3],"categories":[],"categories_nodes":[],"categories_segments":[],"categories_sizes":[],"default_left":[0,0,0,0,0,0,0,0,0,0,0,0,0,0,0,0,0,0,0,0,0,0,0,0,0,0,0,0,0,0,0,0,0,0,0,0,0,0,0,0,0,0,0,0,0],"id":39,"left_children":[1,3,5,7,-1,9,11,13,15,17,19,21,23,25,27,-1,29,31,33,35,37,39,41,-1,43,-1,-1,-1,-1,-1,-1,-1,-1,-1,-1,-1,-1,-1,-1,-1,-1,-1,-1,-1,-1],"loss_changes":[8.947397E0,1.0806265E0,2.277757E0,3.1676006E-1,0E0,2.0680087E0,1.5925612E0,5.059967E-1,9.8756695E-1,1.7963543E0,1.3778324E0,1.6751212E0,1.5420029E0,7.8089446E-2,4.1359282E-1,0E0,2.1692038E-2,1.7977456E0,1.9558043E0,1.9004784E0,1.9184217E0,2.4826264E0,1.8362792E0,0E0,1.4233916E0,0E0,0E0,0E0,0E0,0E0,0E0,0E0,0E0,0E0,0E0,0E0,0E0,0E0,0E0,0E0,0E0,0E0,0E0,0E0,0E0],"parents":[2147483647,0,0,1,1,2,2,3,3,5,5,6,6,7,7,8,8,9,9,10,10,11,11,12,12,13,13,14,14,16,16,17,17,18,18,19,19,20,20,21,21,22,22,24,24],"right_children":[2,4,6,8,-1,10,12,14,16,18,20,22,24,26,28,-1,30,32,34,36,38,40,42,-1,44,-1,-1,-1,-1,-1,-1,-1,-1,-1,-1,-1,-1,-1,-1,-1,-1,-1,-1,-1,-1],"split_conditions":[9.97E-1,1.041E0,1.073E0,9.0759E1,4.698663E-3,9.46E0,7.28793E2,1.729E3,5E0,7.28348E2,9.95E0,9.0259E1,1.607E3,8.84E1,1.8783E1,-4.872483E-2,9.3E0,1.013E0,2.0245E1,7.23687E2,8.983E1,1.742E3,8.9621E1,-2.0632518E-2,1.9142E1,-1.1585087E-2,-1.0961405E-3,-2.6397044E-2,-3.0095149E-3,-2.3845887E-2,-1.0561101E-2,-2.3835486E-2,1.8649934E-3,-1.44169545E-2,6.1035883E-3,7.3314144E-4,8.4308E-3,-1.6881894E-2,4.5075356E-3,-7.6082884E-3,4.539927E-3,-2.613596E-2,-6.0748463E-3,1.950423E-2,1.2221178E-3],"split_indices":[14,10,10,13,0,8,4,0,19,4,8,16,0,9,2,0,8,14,2,4,16,0,13,0,2,0,0,0,0,0,0,0,0,0,0,0,0,0,0,0,0,0,0,0,0],"split_type":[0,0,0,0,0,0,0,0,0,0,0,0,0,0,0,0,0,0,0,0,0,0,0,0,0,0,0,0,0,0,0,0,0,0,0,0,0,0,0,0,0,0,0,0,0],"sum_hessian":[1.083E3,4.6E1,1.037E3,4.3E1,3E0,6.83E2,3.54E2,2.8E1,1.5E1,2.87E2,3.96E2,3.05E2,4.9E1,9E0,1.9E1,5E0,1E1,2.31E2,5.6E1,3.54E2,4.2E1,1.7E2,1.35E2,4E0,4.5E1,4E0,5E0,1.6E1,3E0,4E0,6E0,6E0,2.25E2,4.1E1,1.5E1,1.26E2,2.28E2,1.6E1,2.6E1,7.2E1,9.8E1,1.2E1,1.23E2,1.7E1,2.8E1],"tree_param":{"num_deleted":"0","num_feature":"21","num_nodes":"45","size_leaf_vector":"1"}},{"base_weights":[-1.069932E-2,-5.790271E-1,5.9341267E-3,-4.1297027E-1,-6.8657E-2,-4.672982E-1,1.1294251E-2,-4.781785E-1,-1.7767744E-1,-1.820434E-1,-3.527729E-2,1.6391495E-2,-3.6976013E-1,-5.4826736E-1,-1.2269555E-2,-1.1760602E-2,-1.8169929E-3,-2.3382714E-3,-1.2340526E-2,9.624371E-2,-6.2400056E-3,-3.378081E-2,-4.341607E-2,-1.0862908E-2,-3.1989638E-2,-2.1022584E-3,8.336665E-3,-4.729396E-3,1.3735215E-3,1.6747894E-3,-7.6850937E-3],"categories":[],"categories_nodes":[],"categories_segments":[],"categories_sizes":[],"default_left":[0,0,0,0,0,0,0,0,0,0,0,0,0,0,0,0,0,0,0,0,0,0,0,0,0,0,0,0,0,0,0],"id":40,"left_children":[1,3,5,7,-1,9,11,13,15,17,-1,19,21,23,-1,-1,-1,-1,-1,25,27,-1,29,-1,-1,-1,-1,-1,-1,-1,-1],"loss_changes":[1.0638931E1,3.4740963E0,2.7194812E0,2.790575E-1,0E0,5.9833646E-1,2.0626101E0,1.2872648E-1,2.9351622E-2,2.0431146E-2,0E0,1.9324353E0,1.2961644E0,2.297306E-1,0E0,0E0,0E0,0E0,0E0,2.3199902E0,2.4782767E0,0E0,8.502727E-2,0E0,0E0,0E0,0E0,0E0,0E0,0E0,0E0],"parents":[2147483647,0,0,1,1,2,2,3,3,5,5,6,6,7,7,8,8,9,9,11,11,12,12,13,13,19,19,20,20,22,22],"right_children":[2,4,6,8,-1,10,12,14,16,18,-1,20,22,24,-1,-1,-1,-1,-1,26,28,-1,30,-1,-1,-1,-1,-1,-1,-1,-1],"split_conditions":[8.89E-1,9.86E-1,9.87E-1,8.4E-1,-6.8657E-2,9.46E-1,9.1083E1,2.56533E2,9.51E0,2.5227E2,-3.527729E-2,1.012E0,1.142E0,7.2E-1,-1.2269555E-2,-1.1760602E-2,-1.8169929E-3,-2.3382714E-3,-1.2340526E-2,1.033E0,1.74E3,-3.378081E-2,1.243E0,-1.0862908E-2,-3.1989638E-2,-2.1022584E-3,8.336665E-3,-4.729396E-3,1.3735215E-3,1.6747894E-3,-7.6850937E-3],"split_indices":[1,14,14,1,0,1,13,15,12,11,0,1,10,10,0,0,0,0,0,14,0,0,14,0,0,0,0,0,0,0,0],"split_type":[0,0,0,0,0,0,0,0,0,0,0,0,0,0,0,0,0,0,0,0,0,0,0,0,0,0,0,0,0,0,0],"sum_hessian":[1.118E3,3.1E1,1.087E3,2.7E1,4E0,1.1E1,1.076E3,2E1,7E0,6E0,5E0,1.063E3,1.3E1,1.4E1,6E0,4E0,3E0,3E0,3E0,2.35E2,8.28E2,6E0,7E0,4E0,1E1,7.9E1,1.56E2,2.29E2,5.99E2,4E0,3E0],"tree_param":{"num_deleted":"0","num_feature":"21","num_nodes":"31","size_leaf_vector":"1"}},{"base_weights":[-3.5458405E-3,1.1385789E0,-1.3783797E-2,-1.8577442E-2,1.7608288E-1,-5.086145E-1,-2.903833E-3,-3.7368327E-1,-4.633082E-2,-3.782152E-2,1.1290412E-3,-2.2297684E-2,-1.6147347E-1,1.3797287E-2,-1.4494826E-1,-1.2372236E-2,-5.066919E-4,-1.1576143E-3,2.925084E-3,-1.2567651E-2,4.855623E-3],"categories":[],"categories_nodes":[],"categories_segments":[],"categories_sizes":[],"default_left":[0,0,0,0,0,0,0,0,0,0,0,0,0,0,0,0,0,0,0,0,0],"id":41,"left_children":[1,3,5,-1,-1,7,9,11,-1,-1,13,-1,15,17,19,-1,-1,-1,-1,-1,-1],"loss_changes":[1.3163102E1,3.7611008E1,6.0040784E0,0E0,0E0,8.773451E-1,3.4252274E0,1.7397714E-1,0E0,0E0,2.0189307E0,0E0,6.2810585E-2,1.6748675E0,2.280642E0,0E0,0E0,0E0,0E0,0E0,0E0],"parents":[2147483647,0,0,1,1,2,2,5,5,6,6,7,7,10,10,12,12,13,13,14,14],"right_children":[2,4,6,-1,-1,8,10,12,-1,-1,14,-1,16,18,20,-1,-1,-1,-1,-1,-1],"split_conditions":[7.4E-1,2.59296E2,8.74E-1,-1.8577442E-2,1.7608288E-1,9.46E-1,8.89E-1,7.26468E2,-4.633082E-2,-3.782152E-2,9.158E1,-2.2297684E-2,8.947E1,9.54E0,9.85E0,-1.2372236E-2,-5.066919E-4,-1.1576143E-3,2.925084E-3,-1.2567651E-2,4.855623E-3],"split_indices":[1,15,14,0,0,1,1,4,0,0,9,0,9,12,12,0,0,0,0,0,0],"split_type":[0,0,0,0,0,0,0,0,0,0,0,0,0,0,0,0,0,0,0,0,0],"sum_hessian":[1.133E3,9E0,1.124E3,6E0,3E0,2.3E1,1.101E3,1.9E1,4E0,5E0,1.096E3,1.3E1,6E0,1.01E3,8.6E1,3E0,3E0,5.52E2,4.58E2,6E1,2.6E1],"tree_param":{"num_deleted":"0","num_feature":"21","num_nodes":"21","size_leaf_vector":"1"}},{"base_weights":[-6.6042547E-3,-4.8855257E-1,1.0694697E-2,-1.6392426E-1,-5.494154E-1,4.8695305E-1,-1.0963189E-3,-1.27976835E-2,-0E0,-6.005543E-1,-1.0126579E-2,-1.5738502E-2,1.703182E-1,-9.405004E-3,2.5258648E-1,-6.4395714E-1,-1.2605481E-2,-3.6457594E-2,1.16137296E-1,-5.517795E-3,-4.0312293E-1,4.3986112E-1,-7.2854613E-3,-2.377514E-2,-4.111215E-2,-2.005404E-2,1.3365551E-2,1.2301253E-3,-2.6467019E-3,-0E0,-2.8231515E-2,2.8533638E-2,5.0557437E-3,2.0547794E-2,-1.0291188E-2],"categories":[],"categories_nodes":[],"categories_segments":[],"categories_sizes":[],"default_left":[0,0,0,0,0,0,0,0,0,0,0,0,0,0,0,0,0,0,0,0,0,0,0,0,0,0,0,0,0,0,0,0,0,0,0],"id":42,"left_children":[1,3,5,7,9,11,13,-1,-1,15,-1,17,-1,19,21,23,-1,-1,25,27,29,31,33,-1,-1,-1,-1,-1,-1,-1,-1,-1,-1,-1,-1],"loss_changes":[9.624117E0,6.289158E-1,6.2767863E0,1.12592116E-1,3.8345432E-1,4.001688E1,2.260773E0,0E0,0E0,1.7150497E-1,0E0,2.4039502E0,0E0,1.5638987E0,1.7011542E0,2.0003891E-1,0E0,0E0,1.7358215E0,1.4908829E0,6.065705E-1,7.6135683E-1,1.309625E0,0E0,0E0,0E0,0E0,0E0,0E0,0E0,0E0,0E0,0E0,0E0,0E0],"parents":[2147483647,0,0,1,1,2,2,3,3,4,4,5,5,6,6,9,9,11,11,13,13,14,14,15,15,18,18,19,19,20,20,21,21,22,22],"right_children":[2,4,6,8,10,12,14,-1,-1,16,-1,18,-1,20,22,24,-1,-1,26,28,30,32,34,-1,-1,-1,-1,-1,-1,-1,-1,-1,-1,-1,-1],"split_conditions":[9.87E-1,2.1311E2,1.3506E1,1.6296E1,6E0,2.46374E2,7.29747E2,-1.27976835E-2,-0E0,9.76E0,-1.0126579E-2,9.07E0,1.703182E-1,9.1206E1,1.061E0,1.2E1,-1.2605481E-2,-3.6457594E-2,2.18854E2,1.066E0,9.0769E1,9.58E0,1E0,-2.377514E-2,-4.111215E-2,-2.005404E-2,1.3365551E-2,1.2301253E-3,-2.6467019E-3,-0E0,-2.8231515E-2,2.8533638E-2,5.0557437E-3,2.0547794E-2,-1.0291188E-2],"split_indices":[14,11,2,2,20,15,4,0,0,12,0,12,0,13,14,6,0,0,15,10,16,12,20,0,0,0,0,0,0,0,0,0,0,0,0],"split_type":[0,0,0,0,0,0,0,0,0,0,0,0,0,0,0,0,0,0,0,0,0,0,0,0,0,0,0,0,0,0,0,0,0,0,0],"sum_hessian":[1.147E3,3.9E1,1.108E3,7E0,3.2E1,2.6E1,1.082E3,4E0,3E0,2.7E1,5E0,2.3E1,3E0,1.049E3,3.3E1,2.3E1,4E0,3E0,2E1,1.04E3,9E0,1.9E1,1.4E1,1.4E1,9E0,4E0,1.6E1,6.35E2,4.05E2,3E0,6E0,1.3E1,6E0,4E0,1E1],"tree_param":{"num_deleted":"0","num_feature":"21","num_nodes":"35","size_leaf_vector":"1"}},{"base_weights":[-1.2997525E-2,-4.7014967E-1,4.4245567E-4,-6.950413E-1,-3.5268858E-1,1.1379418E-2,-2.2164038E-1,-9.802179E-3,-4.333028E-2,-1.7680846E-1,-5.0550133E-1,2.942029E-3,2.307081E-1,-3.7721E-1,-4.771652E-2,-1.1866667E-2,-6.250992E-4,-1.0334067E-2,-5.710322E-1,5.9507843E-3,-2.9661888E-2,-2.222386E-1,3.2282686E-1,-3.672525E-2,-2.3538737E-1,-2.0304924E-1,1.4209242E-1,-3.5201516E-2,-1.5191386E-2,-3.9269595E-4,7.176488E-3,1.6782809E-3,-2.2374159E-2,1.9781232E-2,-7.19828E-3,1.1664581E-3,-1.6197218E-2,-1.3999688E-2,-0E0,1.6246004E-2,-1.3989644E-2],"categories":[],"categories_nodes":[],"categories_segments":[],"categories_sizes":[],"default_left":[0,0,0,0,0,0,0,0,0,0,0,0,0,0,0,0,0,0,0,0,0,0,0,0,0,0,0,0,0,0,0,0,0,0,0,0,0,0,0,0,0],"id":43,"left_children":[1,3,5,7,9,11,13,-1,-1,15,17,19,21,23,25,-1,-1,-1,27,29,-1,31,33,-1,35,37,39,-1,-1,-1,-1,-1,-1,-1,-1,-1,-1,-1,-1,-1,-1],"loss_changes":[7.100623E0,5.218229E-1,2.6921613E0,5.7994366E-1,4.8743367E-1,1.9468042E0,1.3464861E0,0E0,0E0,1.01329446E-1,3.9190292E-2,1.7869923E0,1.709074E0,1.0982757E0,8.015194E-1,0E0,0E0,0E0,5.1493645E-3,1.9576141E0,0E0,4.5974132E-1,1.2035103E0,0E0,5.187532E-1,2.4392682E-1,1.0210105E0,0E0,0E0,0E0,0E0,0E0,0E0,0E0,0E0,0E0,0E0,0E0,0E0,0E0,0E0],"parents":[2147483647,0,0,1,1,2,2,3,3,4,4,5,5,6,6,9,9,10,10,11,11,12,12,13,13,14,14,18,18,19,19,21,21,22,22,24,24,25,25,26,26],"right_children":[2,4,6,8,10,12,14,-1,-1,16,18,20,22,24,26,-1,-1,-1,28,30,-1,32,34,-1,36,38,40,-1,-1,-1,-1,-1,-1,-1,-1,-1,-1,-1,-1,-1,-1],"split_conditions":[8.89E-1,1.4354E1,9.083E1,9.18E0,1.2E1,2.9525E2,2.41707E2,-9.802179E-3,-4.333028E-2,8E-1,7.8E-1,2.9376E2,9.77E-1,9.81E-1,9.1031E1,-1.1866667E-2,-6.250992E-4,-1.0334067E-2,4E0,9.91E0,-2.9661888E-2,9.6E0,2.0868E1,-3.672525E-2,9.032E1,9.68E0,2.096E3,-3.5201516E-2,-1.5191386E-2,-3.9269595E-4,7.176488E-3,1.6782809E-3,-2.2374159E-2,1.9781232E-2,-7.19828E-3,1.1664581E-3,-1.6197218E-2,-1.3999688E-2,-0E0,1.6246004E-2,-1.3989644E-2],"split_indices":[1,2,13,12,6,11,15,0,0,10,10,11,1,10,16,0,0,0,20,12,0,8,2,0,9,12,0,0,0,0,0,0,0,0,0,0,0,0,0,0,0],"split_type":[0,0,0,0,0,0,0,0,0,0,0,0,0,0,0,0,0,0,0,0,0,0,0,0,0,0,0,0,0,0,0,0,0,0,0,0,0,0,0,0,0],"sum_hessian":[1.147E3,3.2E1,1.115E3,9E0,2.3E1,1.064E3,5.1E1,3E0,6E0,1.2E1,1.1E1,1.026E3,3.8E1,2.6E1,2.5E1,8E0,4E0,3E0,8E0,1.022E3,4E0,6E0,3.2E1,6E0,2E1,1.4E1,1.1E1,4E0,4E0,9.29E2,9.3E1,3E0,3E0,2.8E1,4E0,5E0,1.5E1,1E1,4E0,8E0,3E0],"tree_param":{"num_deleted":"0","num_feature":"21","num_nodes":"41","size_leaf_vector":"1"}},{"base_weights":[7.20299E-3,5.9378123E-1,-6.116625E-3,5.9802245E-2,1.6786101E-1,-4.0972832E-1,1.1492768E-2,-2.7164776E-2,1.8888585E-1,-2.581999E-1,-5.0309277E-1,1.7379941E-2,-3.634341E-1,3.6006305E-1,-1.1267093E-2,-9.043856E-2,-2.2104086E-2,-5.416404E-1,-6.0516885E-3,5.1850725E-2,-3.8720876E-2,-5.2303493E-1,-0E0,2.6518837E-2,7.676532E-3,2.2649337E-3,-7.59143E-3,-3.6198195E-2,-1.9949045E-2,1.2901E-3,9.934621E-3,-5.4077175E-3,3.122129E-3,-3.1188E-2,-1.287064E-2],"categories":[],"categories_nodes":[],"categories_segments":[],"categories_sizes":[],"default_left":[0,0,0,0,0,0,0,0,0,0,0,0,0,0,0,0,0,0,0,0,0,0,0,0,0,0,0,0,0,0,0,0,0,0,0],"id":44,"left_children":[1,3,5,7,-1,9,11,-1,13,15,17,19,21,23,-1,25,-1,27,-1,29,31,33,-1,-1,-1,-1,-1,-1,-1,-1,-1,-1,-1,-1,-1],"loss_changes":[8.797328E0,3.634799E1,7.819981E0,1.7798805E0,0E0,4.447508E-1,2.2871263E0,0E0,1.4418297E0,5.237318E-1,2.6581764E-1,2.0029101E0,8.958714E-1,3.4263432E-1,0E0,1.17525585E-1,0E0,2.231021E-1,0E0,2.4280987E0,2.7718074E0,4.5621634E-2,0E0,0E0,0E0,0E0,0E0,0E0,0E0,0E0,0E0,0E0,0E0,0E0,0E0],"parents":[2147483647,0,0,1,1,2,2,3,3,5,5,6,6,8,8,9,9,10,10,11,11,12,12,13,13,15,15,17,17,19,19,20,20,21,21],"right_children":[2,4,6,8,-1,10,12,-1,14,16,18,20,22,24,-1,26,-1,28,-1,30,32,34,-1,-1,-1,-1,-1,-1,-1,-1,-1,-1,-1,-1,-1],"split_conditions":[9.03E0,1.084E0,9.97E-1,2.1598E2,1.6786101E-1,1.1E1,9.1083E1,-2.7164776E-2,2.541E2,2E0,6E0,1.067E0,2.6178E2,1.025E0,-1.1267093E-2,8.9799E1,-2.2104086E-2,9.19E0,-6.0516885E-3,9.86E0,2.52E2,1.078E0,-0E0,2.6518837E-2,7.676532E-3,2.2649337E-3,-7.59143E-3,-3.6198195E-2,-1.9949045E-2,1.2901E-3,9.934621E-3,-5.4077175E-3,3.122129E-3,-3.1188E-2,-1.287064E-2],"split_indices":[12,14,14,3,0,7,13,0,15,18,20,10,11,1,0,13,0,12,0,12,11,14,0,0,0,0,0,0,0,0,0,0,0,0,0],"split_type":[0,0,0,0,0,0,0,0,0,0,0,0,0,0,0,0,0,0,0,0,0,0,0,0,0,0,0,0,0,0,0,0,0,0,0],"sum_hessian":[1.117E3,2.4E1,1.093E3,2.1E1,3E0,4.5E1,1.048E3,3E0,1.8E1,1.9E1,2.6E1,1.033E3,1.5E1,1.3E1,5E0,1.1E1,8E0,2.3E1,3E0,6.41E2,3.92E2,1E1,5E0,6E0,7E0,3E0,8E0,8E0,1.5E1,5.46E2,9.5E1,2.33E2,1.59E2,6E0,4E0],"tree_param":{"num_deleted":"0","num_feature":"21","num_nodes":"35","size_leaf_vector":"1"}},{"base_weights":[1.7251052E-3,9.788916E-1,-6.8964544E-3,-2.5775028E-2,1.6871774E-1,-4.277231E-1,1.8180087E-3,-2.3330757E-1,-6.33935E-2,2.0914055E-2,-9.665092E-2,-8.857553E-2,-4.751563E-1,-4.523499E-2,5.7450924E-2,4.2465616E-2,-1.9933254E-1,6.7519234E-3,-8.546415E-3,-8.565025E-3,-3.176115E-2,5.688194E-3,-5.0865784E-3,1.9155577E-3,1.1152435E-2,-4.2874087E-3,1.6400084E-2,-1.71784E-2,-5.587626E-3],"categories":[],"categories_nodes":[],"categories_segments":[],"categories_sizes":[],"default_left":[0,0,0,0,0,0,0,0,0,0,0,0,0,0,0,0,0,0,0,0,0,0,0,0,0,0,0,0,0],"id":45,"left_children":[1,3,5,-1,-1,7,9,11,-1,13,15,17,19,21,23,25,27,-1,-1,-1,-1,-1,-1,-1,-1,-1,-1,-1,-1],"loss_changes":[9.632286E0,3.7822987E1,4.1580553E0,0E0,0E0,3.3108435E0,2.0628517E0,6.016048E-1,0E0,2.2345996E0,2.5668297E0,2.8448415E-1,1.5099406E-1,2.9567585E0,1.8543423E0,2.834685E0,1.2171845E0,0E0,0E0,0E0,0E0,0E0,0E0,0E0,0E0,0E0,0E0,0E0,0E0],"parents":[2147483647,0,0,1,1,2,2,5,5,6,6,7,7,9,9,10,10,11,11,12,12,13,13,14,14,15,15,16,16],"right_children":[2,4,6,-1,-1,8,10,12,-1,14,16,18,20,22,24,26,28,-1,-1,-1,-1,-1,-1,-1,-1,-1,-1,-1,-1],"split_conditions":[7.4E-1,2.44803E2,8.89E-1,-2.5775028E-2,1.6871774E-1,9.14E-1,1.069E0,9.099E1,-6.33935E-2,9.37E0,9.0115E1,2E0,2.1311E2,8.952E1,2.8239E2,8.9673E1,8.992E1,6.7519234E-3,-8.546415E-3,-8.565025E-3,-3.176115E-2,5.688194E-3,-5.0865784E-3,1.9155577E-3,1.1152435E-2,-4.2874087E-3,1.6400084E-2,-1.71784E-2,-5.587626E-3],"split_indices":[1,15,1,0,0,14,14,9,0,12,16,20,11,16,11,16,9,0,0,0,0,0,0,0,0,0,0,0,0],"split_type":[0,0,0,0,0,0,0,0,0,0,0,0,0,0,0,0,0,0,0,0,0,0,0,0,0,0,0,0,0],"sum_hessian":[1.13E3,9E0,1.121E3,6E0,3E0,2.2E1,1.099E3,1.9E1,3E0,9.22E2,1.77E2,1.3E1,6E0,3.27E2,5.95E2,7.5E1,1.02E2,3E0,1E1,3E0,3E0,8.5E1,2.42E2,5.35E2,6E1,5.2E1,2.3E1,3.7E1,6.5E1],"tree_param":{"num_deleted":"0","num_feature":"21","num_nodes":"29","size_leaf_vector":"1"}},{"base_weights":[-2.6576035E-3,5.7673013E-1,-1.4115117E-2,1.7147844E-1,-4.8958547E-2,-3.4534505E-1,2.226606E-3,5.6923192E-2,-1.8840604E-2,-3.7666E-1,5.3051376E-4,-5.1509095E-3,2.1684118E-1,2.4678474E-2,-8.503583E-2,-4.4045258E-1,-1.3492842E-1,2.0702055E-1,-1.2452287E-2,3.237454E-1,-1.8529181E-1,-1.0306242E-2,5.285687E-3,-2.999081E-2,-1.5304649E-2,-1.2677575E-2,7.035284E-3,-1.7342167E-2,1.3751729E-2,-1.103755E-2,-6.97053E-5,-2.1980177E-3,2.129639E-2,-0E0,-1.8829875E-2],"categories":[],"categories_nodes":[],"categories_segments":[],"categories_sizes":[],"default_left":[0,0,0,0,0,0,0,0,0,0,0,0,0,0,0,0,0,0,0,0,0,0,0,0,0,0,0,0,0,0,0,0,0,0,0],"id":46,"left_children":[1,3,5,-1,7,9,11,13,-1,15,-1,17,19,-1,21,23,25,27,29,31,33,-1,-1,-1,-1,-1,-1,-1,-1,-1,-1,-1,-1,-1,-1],"loss_changes":[7.532867E0,3.9775726E1,6.1029058E0,0E0,7.1299857E-1,6.3137674E-1,1.7148577E0,1.0126126E0,0E0,6.386466E-1,0E0,1.5849358E0,1.6214626E0,0E0,3.090034E-1,5.3946686E-1,4.393196E-1,1.3690104E0,2.283186E0,1.1465392E0,2.9263824E-1,0E0,0E0,0E0,0E0,0E0,0E0,0E0,0E0,0E0,0E0,0E0,0E0,0E0,0E0],"parents":[2147483647,0,0,1,1,2,2,4,4,5,5,6,6,7,7,9,9,11,11,12,12,14,14,15,15,16,16,17,17,18,18,19,19,20,20],"right_children":[2,4,6,-1,8,10,12,14,-1,16,-1,18,20,-1,22,24,26,28,30,32,34,-1,-1,-1,-1,-1,-1,-1,-1,-1,-1,-1,-1,-1,-1],"split_conditions":[9.03E0,9.26E-1,9.26E-1,1.7147844E-1,2.5532E2,2.8591E2,2.9525E2,1.025E0,-1.8840604E-2,9.77E0,5.3051376E-4,9.6E-1,2.028E1,2.4678474E-2,2.5401E2,1.4065E1,9.24E-1,2.20166E2,9.77E-1,1.023E0,4E0,-1.0306242E-2,5.285687E-3,-2.999081E-2,-1.5304649E-2,-1.2677575E-2,7.035284E-3,-1.7342167E-2,1.3751729E-2,-1.103755E-2,-6.97053E-5,-2.1980177E-3,2.129639E-2,-0E0,-1.8829875E-2],"split_indices":[12,1,1,0,15,11,11,1,0,8,0,1,2,0,11,2,10,15,1,10,19,0,0,0,0,0,0,0,0,0,0,0,0,0,0],"split_type":[0,0,0,0,0,0,0,0,0,0,0,0,0,0,0,0,0,0,0,0,0,0,0,0,0,0,0,0,0,0,0,0,0,0,0],"sum_hessian":[1.141E3,2.1E1,1.12E3,3E0,1.8E1,5.2E1,1.068E3,1.4E1,4E0,4.8E1,4E0,1.033E3,3.5E1,3E0,1.1E1,3.7E1,1.1E1,3.3E1,1E3,2.8E1,7E0,7E0,4E0,1.5E1,2.2E1,8E0,3E0,3E0,3E1,4.9E1,9.51E2,6E0,2.2E1,4E0,3E0],"tree_param":{"num_deleted":"0","num_feature":"21","num_nodes":"35","size_leaf_vector":"1"}},{"base_weights":[-1.6507995E-3,-5.525647E-1,1.3339226E-2,-3.9768675E-1,-6.1370857E-2,-4.32557E-1,1.8350668E-2,-4.4011855E-1,-1.4641094E-3,-5.1629352E-3,-2.598694E-2,3.652363E-2,-8.479851E-2,-6.8731345E-3,-4.9133754E-1,4.1325644E-2,-3.235399E-1,1.3552123E-1,-1.4084277E-1,-2.7051086E-2,-7.238321E-3,4.5160647E-3,2.1306168E-4,-2.2409972E-2,6.414461E-4,-1.6567795E-2,1.5108808E-2,6.0807597E-3,-8.850175E-3],"categories":[],"categories_nodes":[],"categories_segments":[],"categories_sizes":[],"default_left":[0,0,0,0,0,0,0,0,0,0,0,0,0,0,0,0,0,0,0,0,0,0,0,0,0,0,0,0,0],"id":47,"left_children":[1,3,5,7,-1,9,11,13,-1,-1,-1,15,17,-1,19,21,23,25,27,-1,-1,-1,-1,-1,-1,-1,-1,-1,-1],"loss_changes":[9.351784E0,2.4849539E0,2.4156203E0,3.4660625E-1,0E0,2.2853851E-1,2.0321302E0,2.2611952E-1,0E0,0E0,0E0,1.5827732E0,2.0199397E0,0E0,1.8026257E-1,1.6481603E0,5.524657E-1,2.664853E0,1.2608526E0,0E0,0E0,0E0,0E0,0E0,0E0,0E0,0E0,0E0,0E0],"parents":[2147483647,0,0,1,1,2,2,3,3,5,5,6,6,7,7,11,11,12,12,14,14,15,15,16,16,17,17,18,18],"right_children":[2,4,6,8,-1,10,12,14,-1,-1,-1,16,18,-1,20,22,24,26,28,-1,-1,-1,-1,-1,-1,-1,-1,-1,-1],"split_conditions":[8.89E-1,9.86E-1,9.87E-1,6E0,-6.1370857E-2,2.1622E2,2.7588E2,8.946E1,-1.4641094E-3,-5.1629352E-3,-2.598694E-2,9.1083E1,1E0,-6.8731345E-3,8.94E-1,3E0,2.5586E2,1.044E0,2.1859E2,-2.7051086E-2,-7.238321E-3,4.5160647E-3,2.1306168E-4,-2.2409972E-2,6.414461E-4,-1.6567795E-2,1.5108808E-2,6.0807597E-3,-8.850175E-3],"split_indices":[1,14,14,20,0,3,3,9,0,0,0,13,17,0,14,20,3,14,11,0,0,0,0,0,0,0,0,0,0],"split_type":[0,0,0,0,0,0,0,0,0,0,0,0,0,0,0,0,0,0,0,0,0,0,0,0,0,0,0,0,0],"sum_hessian":[1.124E3,2.9E1,1.095E3,2.5E1,4E0,1.1E1,1.084E3,2.2E1,3E0,3E0,8E0,9.23E2,1.61E2,4E0,1.8E1,9.12E2,1.1E1,3.2E1,1.29E2,1.5E1,3E0,3.91E2,5.21E2,8E0,3E0,8E0,2.4E1,1.5E1,1.14E2],"tree_param":{"num_deleted":"0","num_feature":"21","num_nodes":"29","size_leaf_vector":"1"}},{"base_weights":[1.7931839E-3,4.0272006E-1,-1.1627661E-2,1.8290094E-1,4.9578836E-3,-3.879073E-1,1.3986796E-3,2.7458137E-1,-2.444064E-1,-4.5368917E-2,-3.1244284E-1,1.46354735E-2,-1.2370225E-1,-1.2818913E-2,4.1381404E-1,7.869533E-3,-3.7759063E-1,-1.07637286E-1,-4.147169E-1,-1.9083734E-1,2.3632523E-2,-4.3670404E-1,-4.935603E-2,2.5252813E-2,1.7222215E-3,-2.457997E-2,2.6655672E-4,4.086034E-3,-1.4795211E-2,-2.3747817E-2,-0E0,-1.6697064E-3,-2.968941E-2,5.323654E-3,3.4519247E-4,2.4692002E-3,-2.8814325E-2,-3.1723507E-2,-9.116688E-4],"categories":[],"categories_nodes":[],"categories_segments":[],"categories_sizes":[],"default_left":[0,0,0,0,0,0,0,0,0,0,0,0,0,0,0,0,0,0,0,0,0,0,0,0,0,0,0,0,0,0,0,0,0,0,0,0,0,0,0],"id":48,"left_children":[1,3,5,-1,7,9,11,13,15,-1,17,19,21,-1,23,-1,25,27,29,31,33,35,37,-1,-1,-1,-1,-1,-1,-1,-1,-1,-1,-1,-1,-1,-1,-1,-1],"loss_changes":[6.145594E0,4.752445E1,5.421092E0,0E0,2.356099E0,1.0449724E0,1.749507E0,1.378594E0,1.0446837E0,0E0,6.1529994E-1,1.7661902E0,2.2801607E0,0E0,4.1325688E-1,0E0,6.624377E-1,5.0904775E-1,5.0230384E-1,2.4551277E0,1.2670323E0,1.3702867E0,1.4346161E0,0E0,0E0,0E0,0E0,0E0,0E0,0E0,0E0,0E0,0E0,0E0,0E0,0E0,0E0,0E0,0E0],"parents":[2147483647,0,0,1,1,2,2,4,4,5,5,6,6,7,7,8,8,10,10,11,11,12,12,14,14,16,16,17,17,18,18,19,19,20,20,21,21,22,22],"right_children":[2,4,6,-1,8,10,12,14,16,-1,18,20,22,-1,24,-1,26,28,30,32,34,36,38,-1,-1,-1,-1,-1,-1,-1,-1,-1,-1,-1,-1,-1,-1,-1,-1],"split_conditions":[7.20314E2,1.4457E1,9.09E-1,1.8290094E-1,9.48E0,9.07E0,2.8196E2,2.30619E2,2.2386E2,-4.5368917E-2,2.4062E2,1.4181E1,1.992E3,-1.2818913E-2,2.7352E2,7.869533E-3,2.01E3,1.1E1,7.28848E2,1.477E3,2.29347E2,1.9987E1,9.06E0,2.5252813E-2,1.7222215E-3,-2.457997E-2,2.6655672E-4,4.086034E-3,-1.4795211E-2,-2.3747817E-2,-0E0,-1.6697064E-3,-2.968941E-2,5.323654E-3,3.4519247E-4,2.4692002E-3,-2.8814325E-2,-3.1723507E-2,-9.116688E-4],"split_indices":[4,2,10,0,8,12,3,15,3,0,3,2,0,0,3,0,0,7,4,0,15,2,12,0,0,0,0,0,0,0,0,0,0,0,0,0,0,0,0],"split_type":[0,0,0,0,0,0,0,0,0,0,0,0,0,0,0,0,0,0,0,0,0,0,0,0,0,0,0,0,0,0,0,0,0,0,0,0,0,0,0],"sum_hessian":[1.133E3,3.6E1,1.097E3,3E0,3.3E1,3.6E1,1.061E3,1.6E1,1.7E1,3E0,3.3E1,9.61E2,1E2,3E0,1.3E1,4E0,1.3E1,1.2E1,2.1E1,3.9E1,9.22E2,1.8E1,8.2E1,1E1,3E0,1E1,3E0,6E0,6E0,1.8E1,3E0,2.9E1,1E1,1.53E2,7.69E2,4E0,1.4E1,3E0,7.9E1],"tree_param":{"num_deleted":"0","num_feature":"21","num_nodes":"39","size_leaf_vector":"1"}},{"base_weights":[-1.3892135E-2,-3.212527E-1,2.1165374E-3,-3.913096E-1,-4.6344053E-2,7.118254E-3,-3.078222E-1,-3.2103845E-1,-3.8894944E-2,1.6158272E-1,-1.3096799E-2,-3.7801573E-1,1.1191024E-2,3.224664E-3,-3.993536E-1,-2.1591702E-1,-4.751797E-1,-9.921072E-5,1.54877E-2,-2.2696783E-3,-2.4228742E-2,-1.6956365E-2,6.741901E-2,-4.862524E-1,-1.777177E-3,-1.3391795E-3,-1.3315894E-2,-6.5040635E-3,-2.7114043E-2,8.1215164E-4,-5.3073866E-3,4.870612E-3,-5.8043925E-3,-8.761935E-3,-2.8423885E-2],"categories":[],"categories_nodes":[],"categories_segments":[],"categories_sizes":[],"default_left":[0,0,0,0,0,0,0,0,0,0,0,0,0,0,0,0,0,0,0,0,0,0,0,0,0,0,0,0,0,0,0,0,0,0,0],"id":49,"left_children":[1,3,5,7,9,11,13,15,-1,17,-1,19,21,-1,23,25,27,-1,-1,-1,-1,29,31,33,-1,-1,-1,-1,-1,-1,-1,-1,-1,-1,-1],"loss_changes":[5.6664906E0,1.0358772E0,1.6603166E0,8.62844E-1,6.35115E-1,1.6506156E0,6.385771E-1,4.764328E-1,0E0,2.0104302E-1,0E0,3.1488967E-1,1.6885686E0,0E0,3.7314224E-1,2.1140146E-1,2.0957112E-1,0E0,0E0,0E0,0E0,2.107173E0,1.968852E0,1.0731435E-1,0E0,0E0,0E0,0E0,0E0,0E0,0E0,0E0,0E0,0E0,0E0],"parents":[2147483647,0,0,1,1,2,2,3,3,4,4,5,5,6,6,7,7,9,9,11,11,12,12,14,14,15,15,16,16,21,21,22,22,23,23],"right_children":[2,4,6,8,10,12,14,16,-1,18,-1,20,22,-1,24,26,28,-1,-1,-1,-1,30,32,34,-1,-1,-1,-1,-1,-1,-1,-1,-1,-1,-1],"split_conditions":[1.004E0,7E0,9.99E0,9.46E-1,7.25829E2,7.2011334E2,9.16E0,2E0,-3.8894944E-2,8.922E1,-1.3096799E-2,1.042E0,2.5535E2,3.224664E-3,9.77E0,9.18E0,2.0735E2,-9.921072E-5,1.54877E-2,-2.2696783E-3,-2.4228742E-2,1.083E0,9.1309E1,8.9699E1,-1.777177E-3,-1.3391795E-3,-1.3315894E-2,-6.5040635E-3,-2.7114043E-2,8.1215164E-4,-5.3073866E-3,4.870612E-3,-5.8043925E-3,-8.761935E-3,-2.8423885E-2],"split_indices":[14,19,8,1,4,4,12,18,0,16,0,1,11,0,12,8,11,0,0,0,0,10,16,16,0,0,0,0,0,0,0,0,0,0,0],"split_type":[0,0,0,0,0,0,0,0,0,0,0,0,0,0,0,0,0,0,0,0,0,0,0,0,0,0,0,0,0,0,0,0,0,0,0],"sum_hessian":[1.144E3,5.6E1,1.088E3,4.4E1,1.2E1,1.072E3,1.6E1,3.9E1,5E0,6E0,6E0,1E1,1.062E3,3E0,1.3E1,2.5E1,1.4E1,3E0,3E0,3E0,7E0,7.07E2,3.55E2,1E1,3E0,6E0,1.9E1,3E0,1.1E1,5.15E2,1.92E2,3.06E2,4.9E1,3E0,7E0],"tree_param":{"num_deleted":"0","num_feature":"21","num_nodes":"35","size_leaf_vector":"1"}},{"base_weights":[-6.968406E-3,8.3454204E-1,-1.5353739E-2,1.6359173E-1,-2.3796096E-2,-3.594136E-1,-5.417141E-3,-2.4258417E-1,-3.9455276E-2,7.624875E-3,-1.16359584E-1,5.5611547E-2,-3.837607E-1,-2.0877589E-2,6.438857E-2,8.846605E-2,-1.8134546E-1,-8.953504E-3,1.0973203E-2,-7.352546E-3,-2.40764E-2,-9.3340855E-3,-5.980711E-5,7.9256045E-3,-2.899317E-3,1.1076261E-2,-4.9536643E-3,1.6155705E-2,-1.0520222E-2],"categories":[],"categories_nodes":[],"categories_segments":[],"categories_sizes":[],"default_left":[0,0,0,0,0,0,0,0,0,0,0,0,0,0,0,0,0,0,0,0,0,0,0,0,0,0,0,0,0],"id":50,"left_children":[1,3,5,-1,-1,7,9,11,-1,13,15,17,19,21,23,25,27,-1,-1,-1,-1,-1,-1,-1,-1,-1,-1,-1,-1],"loss_changes":[7.869283E0,3.697055E1,3.7735145E0,0E0,0E0,1.2616267E0,1.5816615E0,1.1487105E0,0E0,1.5766813E0,1.55607E0,3.8941738E-1,2.828977E-1,2.0890577E0,3.7742286E0,7.3289955E-1,1.3467119E0,0E0,0E0,0E0,0E0,0E0,0E0,0E0,0E0,0E0,0E0,0E0,0E0],"parents":[2147483647,0,0,1,1,2,2,5,5,6,6,7,7,9,9,10,10,11,11,12,12,13,13,14,14,15,15,16,16],"right_children":[2,4,6,-1,-1,8,10,12,-1,14,16,18,20,22,24,26,28,-1,-1,-1,-1,-1,-1,-1,-1,-1,-1,-1,-1],"split_conditions":[7.4E-1,7.2126E2,9.07E-1,1.6359173E-1,-2.3796096E-2,1.024E0,9.137E1,1.699E3,-3.9455276E-2,9.0569E1,1.016E0,9.55E0,1E0,9.75E-1,2.47657E2,2.45784E2,9.93E-1,-8.953504E-3,1.0973203E-2,-7.352546E-3,-2.40764E-2,-9.3340855E-3,-5.980711E-5,7.9256045E-3,-2.899317E-3,1.1076261E-2,-4.9536643E-3,1.6155705E-2,-1.0520222E-2],"split_indices":[1,4,1,0,0,10,9,0,0,16,1,8,18,10,15,15,10,0,0,0,0,0,0,0,0,0,0,0,0],"split_type":[0,0,0,0,0,0,0,0,0,0,0,0,0,0,0,0,0,0,0,0,0,0,0,0,0,0,0,0,0],"sum_hessian":[1.124E3,1E1,1.114E3,3E0,7E0,3E1,1.084E3,2.5E1,5E0,9.7E2,1.14E2,8E0,1.7E1,6.45E2,3.25E2,2.7E1,8.7E1,3E0,5E0,6E0,1.1E1,6.7E1,5.78E2,1.84E2,1.41E2,1.6E1,1.1E1,4E0,8.3E1],"tree_param":{"num_deleted":"0","num_feature":"21","num_nodes":"29","size_leaf_vector":"1"}},{"base_weights":[-4.902358E-4,-3.3428586E-1,1.3772239E-2,-4.4479605E-2,-2.5961572E-1,1.939472E-2,-1.8973516E-1,-3.315805E-1,8.417778E-2,2.2486646E-2,-3.3477873E-1,-2.7900774E-2,-1.21933E-1,-2.3081863E-1,-4.3685666E-1,-8.79086E-3,2.0656353E-2,-2.7238293E-2,4.5533113E-2,-2.1830037E-2,-3.6675502E-3,8.0942206E-2,-1.9184268E-1,-2.225931E-3,-1.6717399E-2,-1.0613985E-2,-2.55274E-2,4.331276E-3,-4.1238433E-3,8.568956E-3,1.187382E-3,7.558398E-3,-0E0,-1.7661946E-2,-9.293834E-4],"categories":[],"categories_nodes":[],"categories_segments":[],"categories_sizes":[],"default_left":[0,0,0,0,0,0,0,0,0,0,0,0,0,0,0,0,0,0,0,0,0,0,0,0,0,0,0,0,0,0,0,0,0,0,0],"id":51,"left_children":[1,3,5,-1,7,9,11,13,15,17,19,-1,21,23,25,-1,-1,27,29,-1,-1,31,33,-1,-1,-1,-1,-1,-1,-1,-1,-1,-1,-1,-1],"loss_changes":[5.4591517E0,1.602973E0,1.2372746E0,0E0,1.1165164E0,1.1425571E0,5.881003E-1,2.1427917E-1,7.8056705E-1,1.2143751E0,1.5655148E-1,0E0,3.9537463E-1,3.5226655E-1,8.412838E-2,0E0,0E0,2.107481E0,1.9613466E0,0E0,0E0,4.554553E-2,5.1550555E-1,0E0,0E0,0E0,0E0,0E0,0E0,0E0,0E0,0E0,0E0,0E0,0E0],"parents":[2147483647,0,0,1,1,2,2,4,4,5,5,6,6,7,7,8,8,9,9,10,10,12,12,13,13,14,14,17,17,18,18,21,21,22,22],"right_children":[2,4,6,-1,8,10,12,14,16,18,20,-1,22,24,26,-1,-1,28,30,-1,-1,32,34,-1,-1,-1,-1,-1,-1,-1,-1,-1,-1,-1,-1],"split_conditions":[1.004E0,9.07E0,2.167E3,-4.4479605E-2,1.1E1,9.1206E1,2.184E3,1.2E1,8.79E1,1.74E3,2.33259E2,-2.7900774E-2,2.48124E2,1.1E1,2.38956E2,-8.79086E-3,2.0656353E-2,2.29347E2,1.8548E1,-2.1830037E-2,-3.6675502E-3,1.15E0,1.28E0,-2.225931E-3,-1.6717399E-2,-1.0613985E-2,-2.55274E-2,4.331276E-3,-4.1238433E-3,8.568956E-3,1.187382E-3,7.558398E-3,-0E0,-1.7661946E-2,-9.293834E-4],"split_indices":[14,12,0,0,19,13,0,6,9,0,15,0,15,7,15,0,0,15,2,0,0,14,1,0,0,0,0,0,0,0,0,0,0,0,0],"split_type":[0,0,0,0,0,0,0,0,0,0,0,0,0,0,0,0,0,0,0,0,0,0,0,0,0,0,0,0,0,0,0,0,0,0,0],"sum_hessian":[1.138E3,4.6E1,1.092E3,4E0,4.2E1,1.064E3,2.8E1,3.5E1,7E0,1.056E3,8E0,3E0,2.5E1,2E1,1.5E1,4E0,3E0,3.33E2,7.23E2,5E0,3E0,6E0,1.9E1,8E0,1.2E1,5E0,1E1,1.08E2,2.25E2,1.05E2,6.18E2,3E0,3E0,9E0,1E1],"tree_param":{"num_deleted":"0","num_feature":"21","num_nodes":"35","size_leaf_vector":"1"}},{"base_weights":[-1.668593E-2,-4.0932396E-1,-6.00745E-3,-2.7239352E-1,-5.0974872E-2,2.8098136E-4,-2.730111E-1,1.5398444E-3,-3.3346438E-1,6.7168274E-3,-2.2379495E-1,-3.314898E-2,-1.6742682E-1,-3.6126901E-3,-3.6564216E-1,2.6172216E-3,3.0568615E-1,-3.3784375E-1,6.874597E-2,1.4360714E-2,-2.5988504E-1,-1.4497264E-2,-2.7600963E-2,-2.4315484E-3,1.1892783E-3,1.5172714E-3,2.4794927E-2,-2.201158E-2,-4.556801E-3,1.2234168E-2,-2.1668307E-3,-7.7251666E-3,1.2342529E-2,-2.1242036E-2,-4.579949E-3],"categories":[],"categories_nodes":[],"categories_segments":[],"categories_sizes":[],"default_left":[0,0,0,0,0,0,0,0,0,0,0,0,0,0,0,0,0,0,0,0,0,0,0,0,0,0,0,0,0,0,0,0,0,0,0],"id":52,"left_children":[1,3,5,7,-1,9,11,-1,13,15,17,-1,19,-1,21,23,25,27,29,31,33,-1,-1,-1,-1,-1,-1,-1,-1,-1,-1,-1,-1,-1,-1],"loss_changes":[4.748352E0,2.099646E0,1.8977935E0,5.21955E-1,0E0,1.5502621E0,8.7649655E-1,0E0,1.14705086E-1,1.2675654E0,1.0510533E0,0E0,3.980552E-1,0E0,2.3803234E-2,1.1344991E0,6.655524E-1,4.624598E-1,2.0821407E-1,3.6144742E-1,3.2583725E-1,0E0,0E0,0E0,0E0,0E0,0E0,0E0,0E0,0E0,0E0,0E0,0E0,0E0,0E0],"parents":[2147483647,0,0,1,1,2,2,3,3,5,5,6,6,8,8,9,9,10,10,12,12,14,14,15,15,16,16,17,17,18,18,19,19,20,20],"right_children":[2,4,6,8,-1,10,12,-1,14,16,18,-1,20,-1,22,24,26,28,30,32,34,-1,-1,-1,-1,-1,-1,-1,-1,-1,-1,-1,-1,-1,-1],"split_conditions":[8.89E-1,9.61E-1,9.0963E1,1.699E3,-5.0974872E-2,2.167E3,9.81E-1,1.5398444E-3,9.08E0,7.29903E2,9.83E0,-3.314898E-2,2.2759E2,-3.6126901E-3,9.63E0,2.2501E2,2.3277E2,1.28E0,2.208E3,9.11E1,2.468E2,-1.4497264E-2,-2.7600963E-2,-2.4315484E-3,1.1892783E-3,1.5172714E-3,2.4794927E-2,-2.201158E-2,-4.556801E-3,1.2234168E-2,-2.1668307E-3,-7.7251666E-3,1.2342529E-2,-2.1242036E-2,-4.579949E-3],"split_indices":[1,10,13,0,0,0,10,0,8,4,8,0,11,0,8,11,11,1,0,9,11,0,0,0,0,0,0,0,0,0,0,0,0,0,0],"split_type":[0,0,0,0,0,0,0,0,0,0,0,0,0,0,0,0,0,0,0,0,0,0,0,0,0,0,0,0,0,0,0,0,0,0,0],"sum_hessian":[1.142E3,2.9E1,1.113E3,2.5E1,4E0,1.088E3,2.5E1,4E0,2.1E1,1.059E3,2.9E1,4E0,2.1E1,3E0,1.8E1,1.046E3,1.3E1,2.1E1,8E0,7E0,1.4E1,1.5E1,3E0,3.04E2,7.42E2,6E0,7E0,1.4E1,7E0,3E0,5E0,4E0,3E0,6E0,8E0],"tree_param":{"num_deleted":"0","num_feature":"21","num_nodes":"35","size_leaf_vector":"1"}},{"base_weights":[-7.715262E-4,8.807349E-1,-9.471171E-3,1.5875016E-1,-3.6399108E-1,-1.7176785E-1,1.2153507E-2,-2.2667317E-2,-6.8149613E-3,-6.0570705E-1,-1.268577E-1,-8.003721E-2,2.7729938E-2,-3.9585255E-2,-5.3923606E-4,-7.374903E-2,-3.8902447E-1,-4.901711E-2,-2.6266724E-2,-1.2245021E-2,8.267417E-2,-1.0295321E-2,1.5306427E-3,-9.053113E-3,-3.059857E-2,-1.0048479E-2,1.4040504E-3,2.7062243E-3,-4.3787523E-3,5.8797854E-3,-4.1117626E-3],"categories":[],"categories_nodes":[],"categories_segments":[],"categories_sizes":[],"default_left":[0,0,0,0,0,0,0,0,0,0,0,0,0,0,0,0,0,0,0,0,0,0,0,0,0,0,0,0,0,0,0],"id":53,"left_children":[1,3,5,-1,7,9,11,-1,-1,13,15,17,19,-1,-1,21,23,25,-1,27,29,-1,-1,-1,-1,-1,-1,-1,-1,-1,-1],"loss_changes":[8.632963E0,3.284986E1,3.9698734E0,0E0,4.20084E-2,2.4418454E0,1.4243749E0,0E0,0E0,1.2390656E0,1.6236786E0,1.8920969E0,1.8793826E0,0E0,0E0,1.4444288E0,7.371826E-1,1.6044909E0,0E0,2.4728959E0,2.086407E0,0E0,0E0,0E0,0E0,0E0,0E0,0E0,0E0,0E0,0E0],"parents":[2147483647,0,0,1,1,2,2,4,4,5,5,6,6,9,9,10,10,11,11,12,12,15,15,16,16,17,17,19,19,20,20],"right_children":[2,4,6,-1,8,10,12,-1,-1,14,16,18,20,-1,-1,22,24,26,-1,28,30,-1,-1,-1,-1,-1,-1,-1,-1,-1,-1],"split_conditions":[7.4E-1,7.2126E2,1.022E0,1.5875016E-1,9.0209E1,9.07E0,8.906E1,-2.2667317E-2,-6.8149613E-3,2.5401E2,9.1031E1,8.902E1,7.25957E2,-3.9585255E-2,-5.3923606E-4,2.2533E2,1.037E0,8.9658E1,-2.6266724E-2,9.0259E1,1.069E0,-1.0295321E-2,1.5306427E-3,-9.053113E-3,-3.059857E-2,-1.0048479E-2,1.4040504E-3,2.7062243E-3,-4.3787523E-3,5.8797854E-3,-4.1117626E-3],"split_indices":[1,4,14,0,16,12,9,0,0,11,16,9,4,0,0,11,1,16,0,16,14,0,0,0,0,0,0,0,0,0,0],"split_type":[0,0,0,0,0,0,0,0,0,0,0,0,0,0,0,0,0,0,0,0,0,0,0,0,0,0,0,0,0,0,0],"sum_hessian":[1.135E3,1E1,1.125E3,3E0,7E0,1.32E2,9.93E2,4E0,3E0,1.1E1,1.21E2,1.42E2,8.51E2,8E0,3E0,1.02E2,1.9E1,1.34E2,8E0,4.92E2,3.59E2,4.5E1,5.7E1,1.1E1,8E0,4.5E1,8.9E1,2.61E2,2.31E2,2.97E2,6.2E1],"tree_param":{"num_deleted":"0","num_feature":"21","num_nodes":"31","size_leaf_vector":"1"}},{"base_weights":[1.382999E-2,1.1438478E0,4.63143E-3,-1.942619E-2,1.5907216E-1,-2.2428967E-1,1.4980245E-2,-3.0063614E-1,2.1469466E-2,2.5369707E-2,-1.28137E-1,-1.9610567E-1,-4.9373248E-1,-1.903997E-2,2.0898125E-1,1.2753064E-2,1.3905498E-1,1.7502731E-1,-1.7581171E-1,-2.1226821E-2,-5.836974E-3,-2.916545E-2,-7.1876096E-3,-0E0,2.2290306E-2,8.485731E-4,-2.241371E-2,2.985758E-4,2.0100534E-2,-1.4368725E-3,2.0226978E-2,-1.3074919E-2,8.2447624E-4],"categories":[],"categories_nodes":[],"categories_segments":[],"categories_sizes":[],"default_left":[0,0,0,0,0,0,0,0,0,0,0,0,0,0,0,0,0,0,0,0,0,0,0,0,0,0,0,0,0,0,0,0,0],"id":54,"left_children":[1,3,5,-1,-1,7,9,11,13,15,17,19,21,-1,23,25,27,29,31,-1,-1,-1,-1,-1,-1,-1,-1,-1,-1,-1,-1,-1,-1],"loss_changes":[1.1584104E1,2.9616539E1,2.6310403E0,0E0,0E0,9.349878E-1,1.5854561E0,5.8101726E-1,9.675599E-1,1.4173723E0,1.0714856E0,3.67684E-1,2.1964216E-1,0E0,4.01914E-1,1.7186835E0,3.4213111E0,5.1687074E-1,1.0669048E0,0E0,0E0,0E0,0E0,0E0,0E0,0E0,0E0,0E0,0E0,0E0,0E0,0E0,0E0],"parents":[2147483647,0,0,1,1,2,2,5,5,6,6,7,7,8,8,9,9,10,10,11,11,12,12,14,14,15,15,16,16,17,17,18,18],"right_children":[2,4,6,-1,-1,8,10,12,14,16,18,20,22,-1,24,26,28,30,32,-1,-1,-1,-1,-1,-1,-1,-1,-1,-1,-1,-1,-1,-1],"split_conditions":[7.4E-1,5E0,1.004E0,-1.942619E-2,1.5907216E-1,9.34E-1,1.134E0,1.2E1,1.563E3,9.141E1,2.1899E2,5E0,9.66E0,-1.903997E-2,9.59E0,2.155E3,2.1555E1,2.32941E2,2.68664E2,-2.1226821E-2,-5.836974E-3,-2.916545E-2,-7.1876096E-3,-0E0,2.2290306E-2,8.485731E-4,-2.241371E-2,2.985758E-4,2.0100534E-2,-1.4368725E-3,2.0226978E-2,-1.3074919E-2,8.2447624E-4],"split_indices":[1,20,14,0,0,10,1,6,0,16,3,19,12,0,8,0,2,15,15,0,0,0,0,0,0,0,0,0,0,0,0,0,0],"split_type":[0,0,0,0,0,0,0,0,0,0,0,0,0,0,0,0,0,0,0,0,0,0,0,0,0,0,0,0,0,0,0,0,0],"sum_hessian":[1.125E3,8E0,1.117E3,5E0,3E0,4.7E1,1.07E3,3.6E1,1.1E1,9.99E2,7.1E1,2.5E1,1.1E1,3E0,8E0,9.01E2,9.8E1,9E0,6.2E1,5E0,2E1,8E0,3E0,5E0,3E0,8.94E2,7E0,6.6E1,3.2E1,5E0,4E0,4.3E1,1.9E1],"tree_param":{"num_deleted":"0","num_feature":"21","num_nodes":"33","size_leaf_vector":"1"}},{"base_weights":[4.557051E-4,-3.2434666E-1,1.2566379E-2,-4.264303E-2,-2.5574118E-1,4.689175E-1,1.6663374E-3,