{"learner":{"attributes":{"scikit_learn":"{\"_estimator_type\": \"regressor\"}"},"feature_names":["Ore Milled (MT)","Head Grade (%Cu)","COPPER IN HEAD (MT)","Feed Rate (MT/h)","Grinding kWh","Lime Bags","T Reagent (cc)","Pine Oil (cc)","Flotation pH","Milling Running Hours","SIPX Dose (g/t)","Frother Dose (g/t)","Depressant Dose (g/t)","Prev_Recovery (%)","Prev_Feed Rate (MT/h)","Prev_Head Grade (%Cu)","Prev_Flotation pH","Roll7_Recovery (%)","Roll7_Head Grade (%Cu)","Roll7_Feed Rate (MT/h)","Feed_Condition_Num","Shift_Num","Month","Day_of_Week"],"feature_types":["float","float","float","float","float","int","int","int","float","int","float","float","float","float","float","float","float","float","float","float","int","int","int","int"],"gradient_booster":{"model":{"cats":{"enc":[],"feature_segments":[],"sorted_idx":[]},"gbtree_model_param":{"num_parallel_tree":"1","num_trees":"260"},"iteration_indptr":[0,1,2,3,4,5,6,7,8,9,10,11,12,13,14,15,16,17,18,19,20,21,22,23,24,25,26,27,28,29,30,31,32,33,34,35,36,37,38,39,40,41,42,43,44,45,46,47,48,49,50,51,52,53,54,55,56,57,58,59,60,61,62,63,64,65,66,67,68,69,70,71,72,73,74,75,76,77,78,79,80,81,82,83,84,85,86,87,88,89,90,91,92,93,94,95,96,97,98,99,100,101,102,103,104,105,106,107,108,109,110,111,112,113,114,115,116,117,118,119,120,121,122,123,124,125,126,127,128,129,130,131,132,133,134,135,136,137,138,139,140,141,142,143,144,145,146,147,148,149,150,151,152,153,154,155,156,157,158,159,160,161,162,163,164,165,166,167,168,169,170,171,172,173,174,175,176,177,178,179,180,181,182,183,184,185,186,187,188,189,190,191,192,193,194,195,196,197,198,199,200,201,202,203,204,205,206,207,208,209,210,211,212,213,214,215,216,217,218,219,220,221,222,223,224,225,226,227,228,229,230,231,232,233,234,235,236,237,238,239,240,241,242,243,244,245,246,247,248,249,250,251,252,253,254,255,256,257,258,259,260],"tree_info":[0,0,0,0,0,0,0,0,0,0,0,0,0,0,0,0,0,0,0,0,0,0,0,0,0,0,0,0,0,0,0,0,0,0,0,0,0,0,0,0,0,0,0,0,0,0,0,0,0,0,0,0,0,0,0,0,0,0,0,0,0,0,0,0,0,0,0,0,0,0,0,0,0,0,0,0,0,0,0,0,0,0,0,0,0,0,0,0,0,0,0,0,0,0,0,0,0,0,0,0,0,0,0,0,0,0,0,0,0,0,0,0,0,0,0,0,0,0,0,0,0,0,0,0,0,0,0,0,0,0,0,0,0,0,0,0,0,0,0,0,0,0,0,0,0,0,0,0,0,0,0,0,0,0,0,0,0,0,0,0,0,0,0,0,0,0,0,0,0,0,0,0,0,0,0,0,0,0,0,0,0,0,0,0,0,0,0,0,0,0,0,0,0,0,0,0,0,0,0,0,0,0,0,0,0,0,0,0,0,0,0,0,0,0,0,0,0,0,0,0,0,0,0,0,0,0,0,0,0,0,0,0,0,0,0,0,0,0,0,0,0,0,0,0,0,0,0,0,0,0,0,0,0,0,0,0,0,0,0,0],"trees":[{"base_weights":[3.9469884E-3,1.9087541E-1,-6.944358E-1,-1.882239E-3,2.1970531E-2,-3.8287748E-2,-1.2210163E-2],"categories":[],"categories_nodes":[],"categories_segments":[],"categories_sizes":[],"default_left":[0,0,0,0,0,0,0],"id":0,"left_children":[1,3,5,-1,-1,-1,-1],"loss_changes":[1.5771014E2,1.0217257E2,3.4080505E1,0E0,0E0,0E0,0E0],"parents":[2147483647,0,0,1,1,2,2],"right_children":[2,4,6,-1,-1,-1,-1],"split_conditions":[2.67E1,9.069E1,9.021E1,-1.882239E-3,2.1970531E-2,-3.8287748E-2,-1.2210163E-2],"split_indices":[11,13,13,0,0,0,0],"split_type":[0,0,0,0,0,0,0],"sum_hessian":[1.205E3,9.52E2,2.53E2,6.11E2,3.41E2,1.15E2,1.38E2],"tree_param":{"num_deleted":"0","num_feature":"24","num_nodes":"7","size_leaf_vector":"1"}},{"base_weights":[1.2179232E-2,-9.06861E-1,2.9064894E-1,-4.1349154E-2,-1.2966201E-2,-1.8237706E-4,2.346855E-2],"categories":[],"categories_nodes":[],"categories_segments":[],"categories_sizes":[],"default_left":[0,0,0,0,0,0,0],"id":1,"left_children":[1,3,5,-1,-1,-1,-1],"loss_changes":[3.049237E2,3.9529007E1,1.0301155E2,0E0,0E0,0E0,0E0],"parents":[2147483647,0,0,1,1,2,2],"right_children":[2,4,6,-1,-1,-1,-1],"split_conditions":[1E0,9.075E1,9.048E1,-4.1349154E-2,-1.2966201E-2,-1.8237706E-4,2.346855E-2],"split_indices":[20,13,13,0,0,0,0],"split_type":[0,0,0,0,0,0,0],"sum_hessian":[1.188E3,2.75E2,9.13E2,1.8E2,9.5E1,5.14E2,3.99E2],"tree_param":{"num_deleted":"0","num_feature":"24","num_nodes":"7","size_leaf_vector":"1"}},{"base_weights":[1.8335065E-3,-9.008828E-1,2.845722E-1,-3.922342E-2,-1.3231845E-2,1.9166323E-3,2.49955E-2],"categories":[],"categories_nodes":[],"categories_segments":[],"categories_sizes":[],"default_left":[0,0,0,0,0,0,0],"id":2,"left_children":[1,3,5,-1,-1,-1,-1],"loss_changes":[3.061276E2,3.1642502E1,8.996281E1,0E0,0E0,0E0,0E0],"parents":[2147483647,0,0,1,1,2,2],"right_children":[2,4,6,-1,-1,-1,-1],"split_conditions":[1E0,9.0614E1,2E0,-3.922342E-2,-1.3231845E-2,1.9166323E-3,2.49955E-2],"split_indices":[20,17,20,0,0,0,0],"split_type":[0,0,0,0,0,0,0],"sum_hessian":[1.196E3,2.84E2,9.12E2,1.98E2,8.6E1,5.96E2,3.16E2],"tree_param":{"num_deleted":"0","num_feature":"24","num_nodes":"7","size_leaf_vector":"1"}},{"base_weights":[-3.17204E-3,-9.109243E-1,2.700571E-1,-4.0539276E-2,-1.2725202E-2,-7.7340525E-4,2.2652697E-2],"categories":[],"categories_nodes":[],"categories_segments":[],"categories_sizes":[],"default_left":[0,0,0,0,0,0,0],"id":3,"left_children":[1,3,5,-1,-1,-1,-1],"loss_changes":[3.0224988E2,3.6954803E1,1.033225E2,0E0,0E0,0E0,0E0],"parents":[2147483647,0,0,1,1,2,2],"right_children":[2,4,6,-1,-1,-1,-1],"split_conditions":[1E0,9.075E1,9.048E1,-4.0539276E-2,-1.2725202E-2,-7.7340525E-4,2.2652697E-2],"split_indices":[20,13,13,0,0,0,0],"split_type":[0,0,0,0,0,0,0],"sum_hessian":[1.214E3,2.8E2,9.34E2,1.91E2,8.9E1,5.27E2,4.07E2],"tree_param":{"num_deleted":"0","num_feature":"24","num_nodes":"7","size_leaf_vector":"1"}},{"base_weights":[1.7871862E-2,-8.1120455E-1,2.8049633E-1,-3.5170782E-2,-7.344273E-3,-6.538444E-4,2.2442678E-2],"categories":[],"categories_nodes":[],"categories_segments":[],"categories_sizes":[],"default_left":[0,0,0,0,0,0,0],"id":4,"left_children":[1,3,5,-1,-1,-1,-1],"loss_changes":[2.6073434E2,3.2817947E1,9.838704E1,0E0,0E0,0E0,0E0],"parents":[2147483647,0,0,1,1,2,2],"right_children":[2,4,6,-1,-1,-1,-1],"split_conditions":[1E0,9.103E1,9.048E1,-3.5170782E-2,-7.344273E-3,-6.538444E-4,2.2442678E-2],"split_indices":[20,13,13,0,0,0,0],"split_type":[0,0,0,0,0,0,0],"sum_hessian":[1.194E3,2.86E2,9.08E2,2.15E2,7.1E1,4.97E2,4.11E2],"tree_param":{"num_deleted":"0","num_feature":"24","num_nodes":"7","size_leaf_vector":"1"}},{"base_weights":[1.2876531E-2,-8.3056456E-1,2.4994323E-1,-4.061227E-2,-1.7791484E-2,1.1879433E-3,2.330238E-2],"categories":[],"categories_nodes":[],"categories_segments":[],"categories_sizes":[],"default_left":[0,0,0,0,0,0,0],"id":5,"left_children":[1,3,5,-1,-1,-1,-1],"loss_changes":[2.4521097E2,2.6989548E1,8.582941E1,0E0,0E0,0E0,0E0],"parents":[2147483647,0,0,1,1,2,2],"right_children":[2,4,6,-1,-1,-1,-1],"split_conditions":[1E0,9.0227E1,2E0,-4.061227E-2,-1.7791484E-2,1.1879433E-3,2.330238E-2],"split_indices":[20,17,20,0,0,0,0],"split_type":[0,0,0,0,0,0,0],"sum_hessian":[1.223E3,2.67E2,9.56E2,1.29E2,1.38E2,6.31E2,3.25E2],"tree_param":{"num_deleted":"0","num_feature":"24","num_nodes":"7","size_leaf_vector":"1"}},{"base_weights":[2.1329166E-3,-7.750372E-1,2.4658045E-1,-4.0701978E-2,-1.5995843E-2,-6.946439E-4,2.0374004E-2],"categories":[],"categories_nodes":[],"categories_segments":[],"categories_sizes":[],"default_left":[0,0,0,0,0,0,0],"id":6,"left_children":[1,3,5,-1,-1,-1,-1],"loss_changes":[2.3031264E2,3.4303513E1,8.267567E1,0E0,0E0,0E0,0E0],"parents":[2147483647,0,0,1,1,2,2],"right_children":[2,4,6,-1,-1,-1,-1],"split_conditions":[1E0,9.021E1,9.048E1,-4.0701978E-2,-1.5995843E-2,-6.946439E-4,2.0374004E-2],"split_indices":[20,13,13,0,0,0,0],"split_type":[0,0,0,0,0,0,0],"sum_hessian":[1.209E3,2.88E2,9.21E2,1.27E2,1.61E2,5.14E2,4.07E2],"tree_param":{"num_deleted":"0","num_feature":"24","num_nodes":"7","size_leaf_vector":"1"}},{"base_weights":[7.1729887E-3,-7.523429E-1,2.3186468E-1,-3.9079074E-2,-1.6261986E-2,-6.572749E-3,1.5272242E-2],"categories":[],"categories_nodes":[],"categories_segments":[],"categories_sizes":[],"default_left":[0,0,0,0,0,0,0],"id":7,"left_children":[1,3,5,-1,-1,-1,-1],"loss_changes":[2.063723E2,2.748816E1,8.037604E1,0E0,0E0,0E0,0E0],"parents":[2147483647,0,0,1,1,2,2],"right_children":[2,4,6,-1,-1,-1,-1],"split_conditions":[1E0,9.024E1,8.999E1,-3.9079074E-2,-1.6261986E-2,-6.572749E-3,1.5272242E-2],"split_indices":[20,13,13,0,0,0,0],"split_type":[0,0,0,0,0,0,0],"sum_hessian":[1.206E3,2.74E2,9.32E2,1.18E2,1.56E2,3.05E2,6.27E2],"tree_param":{"num_deleted":"0","num_feature":"24","num_nodes":"7","size_leaf_vector":"1"}},{"base_weights":[-2.355191E-2,2.3434284E-1,-6.336803E-1,4.1567517E-4,2.2004947E-2,-3.8818188E-2,-1.4213848E-2],"categories":[],"categories_nodes":[],"categories_segments":[],"categories_sizes":[],"default_left":[0,0,0,0,0,0,0],"id":8,"left_children":[1,3,5,-1,-1,-1,-1],"loss_changes":[1.9220514E2,7.510074E1,3.7993103E1,0E0,0E0,0E0,0E0],"parents":[2147483647,0,0,1,1,2,2],"right_children":[2,4,6,-1,-1,-1,-1],"split_conditions":[7.30961E2,9.0544E1,9.44E0,4.1567517E-4,2.2004947E-2,-3.8818188E-2,-1.4213848E-2],"split_indices":[4,17,8,0,0,0,0],"split_type":[0,0,0,0,0,0,0],"sum_hessian":[1.217E3,8.56E2,3.61E2,5.49E2,3.07E2,1.14E2,2.47E2],"tree_param":{"num_deleted":"0","num_feature":"24","num_nodes":"7","size_leaf_vector":"1"}},{"base_weights":[-2.0821404E-3,-7.2495115E-1,2.1885501E-1,-3.793548E-2,-1.5562597E-2,9.357635E-5,2.2183903E-2],"categories":[],"categories_nodes":[],"categories_segments":[],"categories_sizes":[],"default_left":[0,0,0,0,0,0,0],"id":9,"left_children":[1,3,5,-1,-1,-1,-1],"loss_changes":[1.9097624E2,2.6824005E1,8.192119E1,0E0,0E0,0E0,0E0],"parents":[2147483647,0,0,1,1,2,2],"right_children":[2,4,6,-1,-1,-1,-1],"split_conditions":[1E0,9.021E1,2E0,-3.793548E-2,-1.5562597E-2,9.357635E-5,2.2183903E-2],"split_indices":[20,13,20,0,0,0,0],"split_type":[0,0,0,0,0,0,0],"sum_hessian":[1.191E3,2.78E2,9.13E2,1.19E2,1.59E2,6.02E2,3.11E2],"tree_param":{"num_deleted":"0","num_feature":"24","num_nodes":"7","size_leaf_vector":"1"}},{"base_weights":[-8.696283E-3,-7.0519274E-1,2.0884809E-1,-3.23851E-2,-6.917476E-3,-4.895555E-4,1.9435177E-2],"categories":[],"categories_nodes":[],"categories_segments":[],"categories_sizes":[],"default_left":[0,0,0,0,0,0,0],"id":10,"left_children":[1,3,5,-1,-1,-1,-1],"loss_changes":[1.8330194E2,3.1525925E1,7.125177E1,0E0,0E0,0E0,0E0],"parents":[2147483647,0,0,1,1,2,2],"right_children":[2,4,6,-1,-1,-1,-1],"split_conditions":[1E0,9.075E1,9.0458E1,-3.23851E-2,-6.917476E-3,-4.895555E-4,1.9435177E-2],"split_indices":[20,13,17,0,0,0,0],"split_type":[0,0,0,0,0,0,0],"sum_hessian":[1.205E3,2.86E2,9.19E2,1.98E2,8.8E1,5.6E2,3.59E2],"tree_param":{"num_deleted":"0","num_feature":"24","num_nodes":"7","size_leaf_vector":"1"}},{"base_weights":[5.3985124E-3,-6.5134156E-1,2.185416E-1,-2.8853381E-2,-4.550139E-3,-6.592846E-3,1.441243E-2],"categories":[],"categories_nodes":[],"categories_segments":[],"categories_sizes":[],"default_left":[0,0,0,0,0,0,0],"id":11,"left_children":[1,3,5,-1,-1,-1,-1],"loss_changes":[1.6801202E2,2.6069588E1,7.15301E1,0E0,0E0,0E0,0E0],"parents":[2147483647,0,0,1,1,2,2],"right_children":[2,4,6,-1,-1,-1,-1],"split_conditions":[1E0,9.103E1,8.999E1,-2.8853381E-2,-4.550139E-3,-6.592846E-3,1.441243E-2],"split_indices":[20,13,13,0,0,0,0],"split_type":[0,0,0,0,0,0,0],"sum_hessian":[1.197E3,2.92E2,9.05E2,2.18E2,7.4E1,2.91E2,6.14E2],"tree_param":{"num_deleted":"0","num_feature":"24","num_nodes":"7","size_leaf_vector":"1"}},{"base_weights":[-2.1604614E-2,2.0075266E-1,-5.544621E-1,-1.3567226E-3,1.7614277E-2,-3.3313602E-2,-1.2191992E-2],"categories":[],"categories_nodes":[],"categories_segments":[],"categories_sizes":[],"default_left":[0,0,0,0,0,0,0],"id":12,"left_children":[1,3,5,-1,-1,-1,-1],"loss_changes":[1.4201878E2,6.1380974E1,2.7923462E1,0E0,0E0,0E0,0E0],"parents":[2147483647,0,0,1,1,2,2],"right_children":[2,4,6,-1,-1,-1,-1],"split_conditions":[7.30961E2,9.048E1,9.45E0,-1.3567226E-3,1.7614277E-2,-3.3313602E-2,-1.2191992E-2],"split_indices":[4,13,8,0,0,0,0],"split_type":[0,0,0,0,0,0,0],"sum_hessian":[1.194E3,8.43E2,3.51E2,4.71E2,3.72E2,1.17E2,2.34E2],"tree_param":{"num_deleted":"0","num_feature":"24","num_nodes":"7","size_leaf_vector":"1"}},{"base_weights":[-5.2542267E-3,-6.502755E-1,1.8593882E-1,-3.327975E-2,-1.2227869E-2,-6.985489E-3,1.3215573E-2],"categories":[],"categories_nodes":[],"categories_segments":[],"categories_sizes":[],"default_left":[0,0,0,0,0,0,0],"id":13,"left_children":[1,3,5,-1,-1,-1,-1],"loss_changes":[1.504427E2,2.4244774E1,6.964742E1,0E0,0E0,0E0,0E0],"parents":[2147483647,0,0,1,1,2,2],"right_children":[2,4,6,-1,-1,-1,-1],"split_conditions":[1E0,9.0281E1,8.999E1,-3.327975E-2,-1.2227869E-2,-6.985489E-3,1.3215573E-2],"split_indices":[20,17,13,0,0,0,0],"split_type":[0,0,0,0,0,0,0],"sum_hessian":[1.215E3,2.77E2,9.38E2,1.36E2,1.41E2,3.11E2,6.27E2],"tree_param":{"num_deleted":"0","num_feature":"24","num_nodes":"7","size_leaf_vector":"1"}},{"base_weights":[1.3692355E-2,-1.953312E-1,5.7500124E-1,-1.885823E-2,1.6022578E-3,1.1054593E-2,2.9937495E-2],"categories":[],"categories_nodes":[],"categories_segments":[],"categories_sizes":[],"default_left":[0,0,0,0,0,0,0],"id":14,"left_children":[1,3,5,-1,-1,-1,-1],"loss_changes":[1.4005577E2,7.213912E1,2.2707344E1,0E0,0E0,0E0,0E0],"parents":[2147483647,0,0,1,1,2,2],"right_children":[2,4,6,-1,-1,-1,-1],"split_conditions":[2E0,9.021E1,9.029E1,-1.885823E-2,1.6022578E-3,1.1054593E-2,2.9937495E-2],"split_indices":[20,13,13,0,0,0,0],"split_type":[0,0,0,0,0,0,0],"sum_hessian":[1.189E3,8.67E2,3.22E2,3.57E2,5.1E2,1.7E2,1.52E2],"tree_param":{"num_deleted":"0","num_feature":"24","num_nodes":"7","size_leaf_vector":"1"}},{"base_weights":[-7.264404E-4,-6.170543E-1,1.9486523E-1,-2.9644415E-2,-1.1125632E-2,-2.4182767E-5,1.954051E-2],"categories":[],"categories_nodes":[],"categories_segments":[],"categories_sizes":[],"default_left":[0,0,0,0,0,0,0],"id":15,"left_children":[1,3,5,-1,-1,-1,-1],"loss_changes":[1.4657147E2,1.932576E1,6.566852E1,0E0,0E0,0E0,0E0],"parents":[2147483647,0,0,1,1,2,2],"right_children":[2,4,6,-1,-1,-1,-1],"split_conditions":[1E0,9.053E1,2E0,-2.9644415E-2,-1.1125632E-2,-2.4182767E-5,1.954051E-2],"split_indices":[20,13,20,0,0,0,0],"split_type":[0,0,0,0,0,0,0],"sum_hessian":[1.211E3,2.91E2,9.2E2,1.62E2,1.29E2,5.99E2,3.21E2],"tree_param":{"num_deleted":"0","num_feature":"24","num_nodes":"7","size_leaf_vector":"1"}},{"base_weights":[-1.190593E-2,-5.939147E-1,1.7989832E-1,-3.097962E-2,-1.2266163E-2,-4.6891655E-4,1.9394528E-2],"categories":[],"categories_nodes":[],"categories_segments":[],"categories_sizes":[],"default_left":[0,0,0,0,0,0,0],"id":16,"left_children":[1,3,5,-1,-1,-1,-1],"loss_changes":[1.3327061E2,2.005642E1,6.503661E1,0E0,0E0,0E0,0E0],"parents":[2147483647,0,0,1,1,2,2],"right_children":[2,4,6,-1,-1,-1,-1],"split_conditions":[1E0,9.024E1,2E0,-3.097962E-2,-1.2266163E-2,-4.6891655E-4,1.9394528E-2],"split_indices":[20,13,20,0,0,0,0],"split_type":[0,0,0,0,0,0,0],"sum_hessian":[1.189E3,2.94E2,8.95E2,1.31E2,1.63E2,5.91E2,3.04E2],"tree_param":{"num_deleted":"0","num_feature":"24","num_nodes":"7","size_leaf_vector":"1"}},{"base_weights":[-1.2800323E-2,-5.6887513E-1,1.5680034E-1,-2.5563957E-2,-3.5844487E-3,-3.6694445E-3,1.4290021E-2],"categories":[],"categories_nodes":[],"categories_segments":[],"categories_sizes":[],"default_left":[0,0,0,0,0,0,0],"id":17,"left_children":[1,3,5,-1,-1,-1,-1],"loss_changes":[1.1335989E2,2.0814041E1,6.069674E1,0E0,0E0,0E0,0E0],"parents":[2147483647,0,0,1,1,2,2],"right_children":[2,4,6,-1,-1,-1,-1],"split_conditions":[1E0,9.092E1,9.0286E1,-2.5563957E-2,-3.5844487E-3,-3.6694445E-3,1.4290021E-2],"split_indices":[20,13,17,0,0,0,0],"split_type":[0,0,0,0,0,0,0],"sum_hessian":[1.197E3,2.79E2,9.18E2,2.06E2,7.3E1,4.5E2,4.68E2],"tree_param":{"num_deleted":"0","num_feature":"24","num_nodes":"7","size_leaf_vector":"1"}},{"base_weights":[-3.9981874E-3,-5.663314E-1,1.7181145E-1,-2.5922384E-2,-4.466833E-3,-3.8250146E-4,1.8329313E-2],"categories":[],"categories_nodes":[],"categories_segments":[],"categories_sizes":[],"default_left":[0,0,0,0,0,0,0],"id":18,"left_children":[1,3,5,-1,-1,-1,-1],"loss_changes":[1.1991819E2,2.1693817E1,5.9491447E1,0E0,0E0,0E0,0E0],"parents":[2147483647,0,0,1,1,2,2],"right_children":[2,4,6,-1,-1,-1,-1],"split_conditions":[1E0,9.0625E1,2E0,-2.5922384E-2,-4.466833E-3,-3.8250146E-4,1.8329313E-2],"split_indices":[20,17,20,0,0,0,0],"split_type":[0,0,0,0,0,0,0],"sum_hessian":[1.208E3,2.87E2,9.21E2,2.04E2,8.3E1,6.07E2,3.14E2],"tree_param":{"num_deleted":"0","num_feature":"24","num_nodes":"7","size_leaf_vector":"1"}},{"base_weights":[-1.016834E-2,-6.0265607E-1,1.2000769E-1,-3.468121E-2,-1.4321619E-2,-8.130609E-3,1.0468839E-2],"categories":[],"categories_nodes":[],"categories_segments":[],"categories_sizes":[],"default_left":[0,0,0,0,0,0,0],"id":19,"left_children":[1,3,5,-1,-1,-1,-1],"loss_changes":[9.374407E1,1.5288315E1,6.2939743E1,0E0,0E0,0E0,0E0],"parents":[2147483647,0,0,1,1,2,2],"right_children":[2,4,6,-1,-1,-1,-1],"split_conditions":[9.44E0,1.8693E1,8.999E1,-3.468121E-2,-1.4321619E-2,-8.130609E-3,1.0468839E-2],"split_indices":[8,2,13,0,0,0,0],"split_type":[0,0,0,0,0,0,0],"sum_hessian":[1.21E3,2.17E2,9.93E2,6.9E1,1.48E2,3.34E2,6.59E2],"tree_param":{"num_deleted":"0","num_feature":"24","num_nodes":"7","size_leaf_vector":"1"}},{"base_weights":[-1.3437931E-3,-5.25775E-1,1.6625363E-1,-2.3522498E-2,-2.7111012E-3,-2.2080436E-3,1.508117E-2],"categories":[],"categories_nodes":[],"categories_segments":[],"categories_sizes":[],"default_left":[0,0,0,0,0,0,0],"id":20,"left_children":[1,3,5,-1,-1,-1,-1],"loss_changes":[1.0810982E2,1.9253387E1,5.665055E1,0E0,0E0,0E0,0E0],"parents":[2147483647,0,0,1,1,2,2],"right_children":[2,4,6,-1,-1,-1,-1],"split_conditions":[1E0,9.092E1,9.0354E1,-2.3522498E-2,-2.7111012E-3,-2.2080436E-3,1.508117E-2],"split_indices":[20,13,17,0,0,0,0],"split_type":[0,0,0,0,0,0,0],"sum_hessian":[1.225E3,2.96E2,9.29E2,2.22E2,7.4E1,4.98E2,4.31E2],"tree_param":{"num_deleted":"0","num_feature":"24","num_nodes":"7","size_leaf_vector":"1"}},{"base_weights":[-3.8025102E-3,-1.8208587E-1,4.9419144E-1,-2.302213E-2,-1.4622041E-3,9.317688E-3,2.5987936E-2],"categories":[],"categories_nodes":[],"categories_segments":[],"categories_sizes":[],"default_left":[0,0,0,0,0,0,0],"id":21,"left_children":[1,3,5,-1,-1,-1,-1],"loss_changes":[1.08152115E2,5.970564E1,1.7524338E1,0E0,0E0,0E0,0E0],"parents":[2147483647,0,0,1,1,2,2],"right_children":[2,4,6,-1,-1,-1,-1],"split_conditions":[2E0,9.44E0,9.0354E1,-2.302213E-2,-1.4622041E-3,9.317688E-3,2.5987936E-2],"split_indices":[20,8,17,0,0,0,0],"split_type":[0,0,0,0,0,0,0],"sum_hessian":[1.215E3,8.96E2,3.19E2,2.02E2,6.94E2,1.69E2,1.5E2],"tree_param":{"num_deleted":"0","num_feature":"24","num_nodes":"7","size_leaf_vector":"1"}},{"base_weights":[7.7611225E-4,-4.7305545E-1,1.4827788E-1,-2.6644018E-2,-7.882685E-3,-2.342982E-3,1.4042602E-2],"categories":[],"categories_nodes":[],"categories_segments":[],"categories_sizes":[],"default_left":[0,0,0,0,0,0,0],"id":22,"left_children":[1,3,5,-1,-1,-1,-1],"loss_changes":[8.364872E1,1.969571E1,4.9893303E1,0E0,0E0,0E0,0E0],"parents":[2147483647,0,0,1,1,2,2],"right_children":[2,4,6,-1,-1,-1,-1],"split_conditions":[1E0,9.024E1,9.0354E1,-2.6644018E-2,-7.882685E-3,-2.342982E-3,1.4042602E-2],"split_indices":[20,13,17,0,0,0,0],"split_type":[0,0,0,0,0,0,0],"sum_hessian":[1.194E3,2.82E2,9.12E2,1.28E2,1.54E2,4.93E2,4.19E2],"tree_param":{"num_deleted":"0","num_feature":"24","num_nodes":"7","size_leaf_vector":"1"}},{"base_weights":[-2.2857517E-3,1.600137E-1,-4.0188533E-1,-3.2418962E-3,1.29424725E-2,-2.2530785E-2,-5.6776004E-3],"categories":[],"categories_nodes":[],"categories_segments":[],"categories_sizes":[],"default_left":[0,0,0,0,0,0,0],"id":23,"left_children":[1,3,5,-1,-1,-1,-1],"loss_changes":[7.989562E1,4.6509697E1,2.022488E1,0E0,0E0,0E0,0E0],"parents":[2147483647,0,0,1,1,2,2],"right_children":[2,4,6,-1,-1,-1,-1],"split_conditions":[7.30609E2,1.062E0,9.0286E1,-3.2418962E-3,1.29424725E-2,-2.2530785E-2,-5.6776004E-3],"split_indices":[4,18,17,0,0,0,0],"split_type":[0,0,0,0,0,0,0],"sum_hessian":[1.227E3,8.73E2,3.54E2,3.96E2,4.77E2,1.74E2,1.8E2],"tree_param":{"num_deleted":"0","num_feature":"24","num_nodes":"7","size_leaf_vector":"1"}},{"base_weights":[1.273264E-3,-1.5831509E-1,4.4689912E-1,-2.0842774E-2,-1.7973858E-4,3.838885E-3,2.1410843E-2],"categories":[],"categories_nodes":[],"categories_segments":[],"categories_sizes":[],"default_left":[0,0,0,0,0,0,0],"id":24,"left_children":[1,3,5,-1,-1,-1,-1],"loss_changes":[8.6264854E1,5.9580116E1,1.747314E1,0E0,0E0,0E0,0E0],"parents":[2147483647,0,0,1,1,2,2],"right_children":[2,4,6,-1,-1,-1,-1],"split_conditions":[2E0,9.45E0,1.028E0,-2.0842774E-2,-1.7973858E-4,3.838885E-3,2.1410843E-2],"split_indices":[20,8,18,0,0,0,0],"split_type":[0,0,0,0,0,0,0],"sum_hessian":[1.208E3,8.9E2,3.18E2,2.29E2,6.61E2,1.06E2,2.12E2],"tree_param":{"num_deleted":"0","num_feature":"24","num_nodes":"7","size_leaf_vector":"1"}},{"base_weights":[-3.1743438E-3,-1.6284057E-1,4.388337E-1,-1.5616395E-2,1.6008992E-3,7.5103063E-3,2.5237314E-2],"categories":[],"categories_nodes":[],"categories_segments":[],"categories_sizes":[],"default_left":[0,0,0,0,0,0,0],"id":25,"left_children":[1,3,5,-1,-1,-1,-1],"loss_changes":[8.67385E1,5.3567017E1,2.0089699E1,0E0,0E0,0E0,0E0],"parents":[2147483647,0,0,1,1,2,2],"right_children":[2,4,6,-1,-1,-1,-1],"split_conditions":[2E0,9.021E1,9.048E1,-1.5616395E-2,1.6008992E-3,7.5103063E-3,2.5237314E-2],"split_indices":[20,13,13,0,0,0,0],"split_type":[0,0,0,0,0,0,0],"sum_hessian":[1.226E3,9.02E2,3.24E2,3.82E2,5.2E2,1.83E2,1.41E2],"tree_param":{"num_deleted":"0","num_feature":"24","num_nodes":"7","size_leaf_vector":"1"}},{"base_weights":[-3.3799426E-3,-1.5587553E-1,4.161759E-1,-2.0166138E-2,-1.2362855E-3,-5.8097526E-4,1.9003678E-2],"categories":[],"categories_nodes":[],"categories_segments":[],"categories_sizes":[],"default_left":[0,0,0,0,0,0,0],"id":26,"left_children":[1,3,5,-1,-1,-1,-1],"loss_changes":[7.684117E1,4.4495995E1,1.7708015E1,0E0,0E0,0E0,0E0],"parents":[2147483647,0,0,1,1,2,2],"right_children":[2,4,6,-1,-1,-1,-1],"split_conditions":[2E0,9.44E0,8.957E1,-2.0166138E-2,-1.2362855E-3,-5.8097526E-4,1.9003678E-2],"split_indices":[20,8,13,0,0,0,0],"split_type":[0,0,0,0,0,0,0],"sum_hessian":[1.198E3,8.8E2,3.18E2,1.94E2,6.86E2,7.2E1,2.46E2],"tree_param":{"num_deleted":"0","num_feature":"24","num_nodes":"7","size_leaf_vector":"1"}},{"base_weights":[4.6817592E-4,-1.4553875E-1,4.1631508E-1,-1.6499192E-2,4.707126E-4,5.747848E-3,2.0804742E-2],"categories":[],"categories_nodes":[],"categories_segments":[],"categories_sizes":[],"default_left":[0,0,0,0,0,0,0],"id":27,"left_children":[1,3,5,-1,-1,-1,-1],"loss_changes":[7.426304E1,4.696231E1,1.389296E1,0E0,0E0,0E0,0E0],"parents":[2147483647,0,0,1,1,2,2],"right_children":[2,4,6,-1,-1,-1,-1],"split_conditions":[2E0,1.006E0,1.057E0,-1.6499192E-2,4.707126E-4,5.747848E-3,2.0804742E-2],"split_indices":[20,1,18,0,0,0,0],"split_type":[0,0,0,0,0,0,0],"sum_hessian":[1.218E3,9.02E2,3.16E2,2.95E2,6.07E2,1.33E2,1.83E2],"tree_param":{"num_deleted":"0","num_feature":"24","num_nodes":"7","size_leaf_vector":"1"}},{"base_weights":[-4.233268E-3,-4.843565E-1,1.1731216E-1,-2.6867433E-2,-9.599902E-3,-1.67378E-2,7.027188E-3],"categories":[],"categories_nodes":[],"categories_segments":[],"categories_sizes":[],"default_left":[0,0,0,0,0,0,0],"id":28,"left_children":[1,3,5,-1,-1,-1,-1],"loss_changes":[6.959161E1,1.3660469E1,4.7343475E1,0E0,0E0,0E0,0E0],"parents":[2147483647,0,0,1,1,2,2],"right_children":[2,4,6,-1,-1,-1,-1],"split_conditions":[9.45E0,9.38E0,8.925E1,-2.6867433E-2,-9.599902E-3,-1.67378E-2,7.027188E-3],"split_indices":[8,8,13,0,0,0,0],"split_type":[0,0,0,0,0,0,0],"sum_hessian":[1.187E3,2.39E2,9.48E2,9.9E1,1.4E2,1.15E2,8.33E2],"tree_param":{"num_deleted":"0","num_feature":"24","num_nodes":"7","size_leaf_vector":"1"}},{"base_weights":[2.5770287E-3,-4.2572427E-1,1.343418E-1,-2.1423165E-2,-4.269329E-3,-1.9523108E-4,1.6492434E-2],"categories":[],"categories_nodes":[],"categories_segments":[],"categories_sizes":[],"default_left":[0,0,0,0,0,0,0],"id":29,"left_children":[1,3,5,-1,-1,-1,-1],"loss_changes":[6.815861E1,1.5743683E1,4.3721428E1,0E0,0E0,0E0,0E0],"parents":[2147483647,0,0,1,1,2,2],"right_children":[2,4,6,-1,-1,-1,-1],"split_conditions":[1E0,9.0436E1,9.0665E1,-2.1423165E-2,-4.269329E-3,-1.9523108E-4,1.6492434E-2],"split_indices":[20,17,17,0,0,0,0],"split_type":[0,0,0,0,0,0,0],"sum_hessian":[1.205E3,2.82E2,9.23E2,1.73E2,1.09E2,6.53E2,2.7E2],"tree_param":{"num_deleted":"0","num_feature":"24","num_nodes":"7","size_leaf_vector":"1"}},{"base_weights":[-3.9324388E-4,-1.4823571E-1,3.9369452E-1,-1.4195386E-2,1.0159445E-3,9.750243E-3,2.9646907E-2],"categories":[],"categories_nodes":[],"categories_segments":[],"categories_sizes":[],"default_left":[0,0,0,0,0,0,0],"id":30,"left_children":[1,3,5,-1,-1,-1,-1],"loss_changes":[7.008737E1,4.007903E1,1.6364662E1,0E0,0E0,0E0,0E0],"parents":[2147483647,0,0,1,1,2,2],"right_children":[2,4,6,-1,-1,-1,-1],"split_conditions":[2E0,9.021E1,9.106E1,-1.4195386E-2,1.0159445E-3,9.750243E-3,2.9646907E-2],"split_indices":[20,13,13,0,0,0,0],"split_type":[0,0,0,0,0,0,0],"sum_hessian":[1.2E3,8.74E2,3.26E2,3.56E2,5.18E2,2.63E2,6.3E1],"tree_param":{"num_deleted":"0","num_feature":"24","num_nodes":"7","size_leaf_vector":"1"}},{"base_weights":[2.150789E-3,-3.948578E-1,1.3102539E-1,-2.7089892E-2,-8.768889E-3,-5.3096157E-3,9.844226E-3],"categories":[],"categories_nodes":[],"categories_segments":[],"categories_sizes":[],"default_left":[0,0,0,0,0,0,0],"id":31,"left_children":[1,3,5,-1,-1,-1,-1],"loss_changes":[6.245799E1,1.5716309E1,3.9323673E1,0E0,0E0,0E0,0E0],"parents":[2147483647,0,0,1,1,2,2],"right_children":[2,4,6,-1,-1,-1,-1],"split_conditions":[1E0,9.8E-1,1.026E0,-2.7089892E-2,-8.768889E-3,-5.3096157E-3,9.844226E-3],"split_indices":[20,18,1,0,0,0,0],"split_type":[0,0,0,0,0,0,0],"sum_hessian":[1.218E3,2.97E2,9.21E2,7.9E1,2.18E2,3.19E2,6.02E2],"tree_param":{"num_deleted":"0","num_feature":"24","num_nodes":"7","size_leaf_vector":"1"}},{"base_weights":[8.698636E-3,-4.359701E-1,1.2615588E-1,-2.5346406E-2,-8.984892E-3,-1.3717616E-2,7.492887E-3],"categories":[],"categories_nodes":[],"categories_segments":[],"categories_sizes":[],"default_left":[0,0,0,0,0,0,0],"id":32,"left_children":[1,3,5,-1,-1,-1,-1],"loss_changes":[6.3021397E1,1.2402477E1,4.367268E1,0E0,0E0,0E0,0E0],"parents":[2147483647,0,0,1,1,2,2],"right_children":[2,4,6,-1,-1,-1,-1],"split_conditions":[9.45E0,9.38E0,8.934E1,-2.5346406E-2,-8.984892E-3,-1.3717616E-2,7.492887E-3],"split_indices":[8,8,13,0,0,0,0],"split_type":[0,0,0,0,0,0,0],"sum_hessian":[1.204E3,2.5E2,9.54E2,9.3E1,1.57E2,1.37E2,8.17E2],"tree_param":{"num_deleted":"0","num_feature":"24","num_nodes":"7","size_leaf_vector":"1"}},{"base_weights":[-3.7880694E-3,-3.9548E-1,1.1538194E-1,-1.784284E-2,-1.0055827E-4,-1.003372E-5,1.6981801E-2],"categories":[],"categories_nodes":[],"categories_segments":[],"categories_sizes":[],"default_left":[0,0,0,0,0,0,0],"id":33,"left_children":[1,3,5,-1,-1,-1,-1],"loss_changes":[5.720172E1,1.2704876E1,4.02451E1,0E0,0E0,0E0,0E0],"parents":[2147483647,0,0,1,1,2,2],"right_children":[2,4,6,-1,-1,-1,-1],"split_conditions":[1E0,9.104E1,9.096E1,-1.784284E-2,-1.0055827E-4,-1.003372E-5,1.6981801E-2],"split_indices":[20,13,13,0,0,0,0],"split_type":[0,0,0,0,0,0,0],"sum_hessian":[1.22E3,2.84E2,9.36E2,2.19E2,6.5E1,7.14E2,2.22E2],"tree_param":{"num_deleted":"0","num_feature":"24","num_nodes":"7","size_leaf_vector":"1"}},{"base_weights":[-1.1369906E-2,-1.3706689E-1,3.4795374E-1,-1.4369494E-2,8.0734206E-4,3.2116084E-3,1.7139165E-2],"categories":[],"categories_nodes":[],"categories_segments":[],"categories_sizes":[],"default_left":[0,0,0,0,0,0,0],"id":34,"left_children":[1,3,5,-1,-1,-1,-1],"loss_changes":[5.5280556E1,3.9881683E1,1.1275677E1,0E0,0E0,0E0,0E0],"parents":[2147483647,0,0,1,1,2,2],"right_children":[2,4,6,-1,-1,-1,-1],"split_conditions":[2E0,1.015E0,1.028E0,-1.4369494E-2,8.0734206E-4,3.2116084E-3,1.7139165E-2],"split_indices":[20,1,18,0,0,0,0],"split_type":[0,0,0,0,0,0,0],"sum_hessian":[1.221E3,9.06E2,3.15E2,3.34E2,5.72E2,1.14E2,2.01E2],"tree_param":{"num_deleted":"0","num_feature":"24","num_nodes":"7","size_leaf_vector":"1"}},{"base_weights":[-1.485246E-4,-1.2994494E-1,3.4741256E-1,-1.7706778E-2,-5.6928286E-4,6.014224E-3,2.2079103E-2],"categories":[],"categories_nodes":[],"categories_segments":[],"categories_sizes":[],"default_left":[0,0,0,0,0,0,0],"id":35,"left_children":[1,3,5,-1,-1,-1,-1],"loss_changes":[5.6110367E1,3.8617607E1,1.6402096E1,0E0,0E0,0E0,0E0],"parents":[2147483647,0,0,1,1,2,2],"right_children":[2,4,6,-1,-1,-1,-1],"split_conditions":[2E0,8.97E1,9.061E1,-1.7706778E-2,-5.6928286E-4,6.014224E-3,2.2079103E-2],"split_indices":[20,13,13,0,0,0,0],"split_type":[0,0,0,0,0,0,0],"sum_hessian":[1.241E3,9.05E2,3.36E2,2.08E2,6.97E2,2.1E2,1.26E2],"tree_param":{"num_deleted":"0","num_feature":"24","num_nodes":"7","size_leaf_vector":"1"}},{"base_weights":[1.5378761E-3,-4.404565E-1,9.64366E-2,-2.132555E-2,-6.9933496E-3,-4.5203716E-3,9.248498E-3],"categories":[],"categories_nodes":[],"categories_segments":[],"categories_sizes":[],"default_left":[0,0,0,0,0,0,0],"id":36,"left_children":[1,3,5,-1,-1,-1,-1],"loss_changes":[5.033259E1,8.168198E0,3.7578888E1,0E0,0E0,0E0,0E0],"parents":[2147483647,0,0,1,1,2,2],"right_children":[2,4,6,-1,-1,-1,-1],"split_conditions":[9.44E0,9.053E1,1.057E0,-2.132555E-2,-6.9933496E-3,-4.5203716E-3,9.248498E-3],"split_indices":[8,13,18,0,0,0,0],"split_type":[0,0,0,0,0,0,0],"sum_hessian":[1.198E3,2.1E2,9.88E2,1.21E2,8.9E1,4.21E2,5.67E2],"tree_param":{"num_deleted":"0","num_feature":"24","num_nodes":"7","size_leaf_vector":"1"}},{"base_weights":[-4.39349E-3,-1.3084704E-1,3.310685E-1,-1.3176777E-2,1.3780767E-3,4.7855712E-3,1.9772705E-2],"categories":[],"categories_nodes":[],"categories_segments":[],"categories_sizes":[],"default_left":[0,0,0,0,0,0,0],"id":37,"left_children":[1,3,5,-1,-1,-1,-1],"loss_changes":[5.132279E1,3.6908215E1,1.4713722E1,0E0,0E0,0E0,0E0],"parents":[2147483647,0,0,1,1,2,2],"right_children":[2,4,6,-1,-1,-1,-1],"split_conditions":[2E0,9.021E1,9.037E1,-1.3176777E-2,1.3780767E-3,4.7855712E-3,1.9772705E-2],"split_indices":[20,13,13,0,0,0,0],"split_type":[0,0,0,0,0,0,0],"sum_hessian":[1.207E3,8.78E2,3.29E2,3.59E2,5.19E2,1.82E2,1.47E2],"tree_param":{"num_deleted":"0","num_feature":"24","num_nodes":"7","size_leaf_vector":"1"}},{"base_weights":[9.864515E-4,-1.198685E-1,3.2048616E-1,-1.198421E-2,1.5911917E-3,-1.1702933E-3,1.4521653E-2],"categories":[],"categories_nodes":[],"categories_segments":[],"categories_sizes":[],"default_left":[0,0,0,0,0,0,0],"id":38,"left_children":[1,3,5,-1,-1,-1,-1],"loss_changes":[4.653996E1,3.2225113E1,1.1184063E1,0E0,0E0,0E0,0E0],"parents":[2147483647,0,0,1,1,2,2],"right_children":[2,4,6,-1,-1,-1,-1],"split_conditions":[2E0,9.021E1,8.957E1,-1.198421E-2,1.5911917E-3,-1.1702933E-3,1.4521653E-2],"split_indices":[20,13,13,0,0,0,0],"split_type":[0,0,0,0,0,0,0],"sum_hessian":[1.2E3,8.71E2,3.29E2,3.71E2,5E2,6.9E1,2.6E2],"tree_param":{"num_deleted":"0","num_feature":"24","num_nodes":"7","size_leaf_vector":"1"}},{"base_weights":[-2.697007E-3,-3.567503E-1,1.08878665E-1,-2.6447404E-2,-8.471468E-3,-1.3979873E-2,6.235112E-3],"categories":[],"categories_nodes":[],"categories_segments":[],"categories_sizes":[],"default_left":[0,0,0,0,0,0,0],"id":39,"left_children":[1,3,5,-1,-1,-1,-1],"loss_changes":[4.679356E1,1.237949E1,3.1739758E1,0E0,0E0,0E0,0E0],"parents":[2147483647,0,0,1,1,2,2],"right_children":[2,4,6,-1,-1,-1,-1],"split_conditions":[1E0,9.38E0,8.919E1,-2.6447404E-2,-8.471468E-3,-1.3979873E-2,6.235112E-3],"split_indices":[20,8,13,0,0,0,0],"split_type":[0,0,0,0,0,0,0],"sum_hessian":[1.179E3,2.82E2,8.97E2,6E1,2.22E2,1.06E2,7.91E2],"tree_param":{"num_deleted":"0","num_feature":"24","num_nodes":"7","size_leaf_vector":"1"}},{"base_weights":[-2.7362364E-3,-4.260328E-1,9.1657735E-2,-2.1407543E-2,-8.418348E-3,-5.682504E-3,7.787848E-3],"categories":[],"categories_nodes":[],"categories_segments":[],"categories_sizes":[],"default_left":[0,0,0,0,0,0,0],"id":40,"left_children":[1,3,5,-1,-1,-1,-1],"loss_changes":[4.7750057E1,6.999008E0,3.2494747E1,0E0,0E0,0E0,0E0],"parents":[2147483647,0,0,1,1,2,2],"right_children":[2,4,6,-1,-1,-1,-1],"split_conditions":[9.44E0,9.38E0,1.015E0,-2.1407543E-2,-8.418348E-3,-5.682504E-3,7.787848E-3],"split_indices":[8,8,1,0,0,0,0],"split_type":[0,0,0,0,0,0,0],"sum_hessian":[1.189E3,2.16E2,9.73E2,1.05E2,1.11E2,3.3E2,6.43E2],"tree_param":{"num_deleted":"0","num_feature":"24","num_nodes":"7","size_leaf_vector":"1"}},{"base_weights":[-7.573909E-3,-3.643455E-1,9.997788E-2,-2.4809271E-2,-8.413769E-3,-5.3393E-3,8.022786E-3],"categories":[],"categories_nodes":[],"categories_segments":[],"categories_sizes":[],"default_left":[0,0,0,0,0,0,0],"id":41,"left_children":[1,3,5,-1,-1,-1,-1],"loss_changes":[4.6031166E1,1.1292591E1,3.0116104E1,0E0,0E0,0E0,0E0],"parents":[2147483647,0,0,1,1,2,2],"right_children":[2,4,6,-1,-1,-1,-1],"split_conditions":[1E0,9.76E-1,9.0065E1,-2.4809271E-2,-8.413769E-3,-5.3393E-3,8.022786E-3],"split_indices":[20,18,17,0,0,0,0],"split_type":[0,0,0,0,0,0,0],"sum_hessian":[1.194E3,2.76E2,9.18E2,7E1,2.06E2,3.1E2,6.08E2],"tree_param":{"num_deleted":"0","num_feature":"24","num_nodes":"7","size_leaf_vector":"1"}},{"base_weights":[9.6039735E-3,-9.38781E-2,3.3311006E-1,-7.2614304E-3,6.937848E-3,-3.6515828E-4,1.5583557E-2],"categories":[],"categories_nodes":[],"categories_segments":[],"categories_sizes":[],"default_left":[0,0,0,0,0,0,0],"id":42,"left_children":[1,3,5,-1,-1,-1,-1],"loss_changes":[4.0730053E1,3.0610434E1,1.1482285E1,0E0,0E0,0E0,0E0],"parents":[2147483647,0,0,1,1,2,2],"right_children":[2,4,6,-1,-1,-1,-1],"split_conditions":[9.096E1,2E0,1E0,-7.2614304E-3,6.937848E-3,-3.6515828E-4,1.5583557E-2],"split_indices":[13,20,20,0,0,0,0],"split_type":[0,0,0,0,0,0,0],"sum_hessian":[1.211E3,9.18E2,2.93E2,6.62E2,2.56E2,7.2E1,2.21E2],"tree_param":{"num_deleted":"0","num_feature":"24","num_nodes":"7","size_leaf_vector":"1"}},{"base_weights":[2.4762405E-3,-3.8346133E-1,8.732646E-2,-2.2734465E-2,-8.393124E-3,-1.2236319E-2,5.629113E-3],"categories":[],"categories_nodes":[],"categories_segments":[],"categories_sizes":[],"default_left":[0,0,0,0,0,0,0],"id":43,"left_children":[1,3,5,-1,-1,-1,-1],"loss_changes":[3.9813152E1,7.8377533E0,3.2150238E1,0E0,0E0,0E0,0E0],"parents":[2147483647,0,0,1,1,2,2],"right_children":[2,4,6,-1,-1,-1,-1],"split_conditions":[9.44E0,1.8693E1,8.934E1,-2.2734465E-2,-8.393124E-3,-1.2236319E-2,5.629113E-3],"split_indices":[8,2,13,0,0,0,0],"split_type":[0,0,0,0,0,0,0],"sum_hessian":[1.214E3,2.17E2,9.97E2,7.3E1,1.44E2,1.42E2,8.55E2],"tree_param":{"num_deleted":"0","num_feature":"24","num_nodes":"7","size_leaf_vector":"1"}},{"base_weights":[4.5332336E-3,-1.084739E-1,3.1956553E-1,-2.1908864E-2,-1.6299813E-3,-5.386288E-3,1.37356585E-2],"categories":[],"categories_nodes":[],"categories_segments":[],"categories_sizes":[],"default_left":[0,0,0,0,0,0,0],"id":44,"left_children":[1,3,5,-1,-1,-1,-1],"loss_changes":[4.245157E1,2.7835705E1,1.1050011E1,0E0,0E0,0E0,0E0],"parents":[2147483647,0,0,1,1,2,2],"right_children":[2,4,6,-1,-1,-1,-1],"split_conditions":[2E0,9.38E0,8.932E1,-2.1908864E-2,-1.6299813E-3,-5.386288E-3,1.37356585E-2],"split_indices":[20,8,13,0,0,0,0],"split_type":[0,0,0,0,0,0,0],"sum_hessian":[1.187E3,8.74E2,3.13E2,9.1E1,7.83E2,4.1E1,2.72E2],"tree_param":{"num_deleted":"0","num_feature":"24","num_nodes":"7","size_leaf_vector":"1"}},{"base_weights":[4.970348E-3,-1.2807801E-1,2.4563451E-1,-1.571013E-2,-7.9934235E-4,-8.90951E-3,1.0362065E-2],"categories":[],"categories_nodes":[],"categories_segments":[],"categories_sizes":[],"default_left":[0,0,0,0,0,0,0],"id":45,"left_children":[1,3,5,-1,-1,-1,-1],"loss_changes":[3.864436E1,2.605862E1,1.1006535E1,0E0,0E0,0E0,0E0],"parents":[2147483647,0,0,1,1,2,2],"right_children":[2,4,6,-1,-1,-1,-1],"split_conditions":[9.0544E1,1E0,9.39E0,-1.571013E-2,-7.9934235E-4,-8.90951E-3,1.0362065E-2],"split_indices":[17,20,8,0,0,0,0],"split_type":[0,0,0,0,0,0,0],"sum_hessian":[1.202E3,7.74E2,4.28E2,1.89E2,5.85E2,3.8E1,3.9E2],"tree_param":{"num_deleted":"0","num_feature":"24","num_nodes":"7","size_leaf_vector":"1"}},{"base_weights":[-4.042597E-3,-2.3641697E-1,1.2769432E-1,-2.7011087E-2,-6.1234427E-3,-7.156334E-3,7.3706936E-3],"categories":[],"categories_nodes":[],"categories_segments":[],"categories_sizes":[],"default_left":[0,0,0,0,0,0,0],"id":46,"left_children":[1,3,5,-1,-1,-1,-1],"loss_changes":[3.6944748E1,1.3871489E1,2.1262165E1,0E0,0E0,0E0,0E0],"parents":[2147483647,0,0,1,1,2,2],"right_children":[2,4,6,-1,-1,-1,-1],"split_conditions":[1.026E0,9.38E0,9.45E0,-2.7011087E-2,-6.1234427E-3,-7.156334E-3,7.3706936E-3],"split_indices":[1,8,8,0,0,0,0],"split_type":[0,0,0,0,0,0,0],"sum_hessian":[1.202E3,4.35E2,7.67E2,4.2E1,3.93E2,1.52E2,6.15E2],"tree_param":{"num_deleted":"0","num_feature":"24","num_nodes":"7","size_leaf_vector":"1"}},{"base_weights":[-6.0656033E-3,-1.0446019E-1,2.7724177E-1,-1.3649735E-2,-3.059805E-4,-1.5815621E-3,1.2923688E-2],"categories":[],"categories_nodes":[],"categories_segments":[],"categories_sizes":[],"default_left":[0,0,0,0,0,0,0],"id":47,"left_children":[1,3,5,-1,-1,-1,-1],"loss_changes":[3.3549442E1,2.4354332E1,9.310713E0,0E0,0E0,0E0,0E0],"parents":[2147483647,0,0,1,1,2,2],"right_children":[2,4,6,-1,-1,-1,-1],"split_conditions":[2E0,8.979E1,8.957E1,-1.3649735E-2,-3.059805E-4,-1.5815621E-3,1.2923688E-2],"split_indices":[20,13,13,0,0,0,0],"split_type":[0,0,0,0,0,0,0],"sum_hessian":[1.201E3,8.93E2,3.08E2,2.22E2,6.71E2,6.8E1,2.4E2],"tree_param":{"num_deleted":"0","num_feature":"24","num_nodes":"7","size_leaf_vector":"1"}},{"base_weights":[1.0940501E-3,-2.2221568E-1,1.3095063E-1,-2.5078066E-2,-5.765448E-3,-7.2380872E-3,6.9617587E-3],"categories":[],"categories_nodes":[],"categories_segments":[],"categories_sizes":[],"default_left":[0,0,0,0,0,0,0],"id":48,"left_children":[1,3,5,-1,-1,-1,-1],"loss_changes":[3.4891266E1,1.2103785E1,1.7570183E1,0E0,0E0,0E0,0E0],"parents":[2147483647,0,0,1,1,2,2],"right_children":[2,4,6,-1,-1,-1,-1],"split_conditions":[1.026E0,9.38E0,9.44E0,-2.5078066E-2,-5.765448E-3,-7.2380872E-3,6.9617587E-3],"split_indices":[1,8,8,0,0,0,0],"split_type":[0,0,0,0,0,0,0],"sum_hessian":[1.2E3,4.4E2,7.6E2,4.3E1,3.97E2,1.26E2,6.34E2],"tree_param":{"num_deleted":"0","num_feature":"24","num_nodes":"7","size_leaf_vector":"1"}},{"base_weights":[7.6637142E-3,-2.842585E-1,9.831778E-2,-1.8236673E-2,-5.700286E-3,3.2200076E-4,1.3960628E-2],"categories":[],"categories_nodes":[],"categories_segments":[],"categories_sizes":[],"default_left":[0,0,0,0,0,0,0],"id":49,"left_children":[1,3,5,-1,-1,-1,-1],"loss_changes":[3.2189556E1,7.937746E0,2.4800682E1,0E0,0E0,0E0,0E0],"parents":[2147483647,0,0,1,1,2,2],"right_children":[2,4,6,-1,-1,-1,-1],"split_conditions":[1E0,1.008E0,9.099E1,-1.8236673E-2,-5.700286E-3,3.2200076E-4,1.3960628E-2],"split_indices":[20,15,13,0,0,0,0],"split_type":[0,0,0,0,0,0,0],"sum_hessian":[1.214E3,2.86E2,9.28E2,9.4E1,1.92E2,7.18E2,2.1E2],"tree_param":{"num_deleted":"0","num_feature":"24","num_nodes":"7","size_leaf_vector":"1"}},{"base_weights":[2.2513685E-3,-3.1119296E-1,8.6418755E-2,-2.1790808E-2,-7.08262E-3,-5.05086E-3,6.6706296E-3],"categories":[],"categories_nodes":[],"categories_segments":[],"categories_sizes":[],"default_left":[0,0,0,0,0,0,0],"id":50,"left_children":[1,3,5,-1,-1,-1,-1],"loss_changes":[3.2051468E1,8.251663E0,2.3140364E1,0E0,0E0,0E0,0E0],"parents":[2147483647,0,0,1,1,2,2],"right_children":[2,4,6,-1,-1,-1,-1],"split_conditions":[9.45E0,8.968E1,1.006E0,-2.1790808E-2,-7.08262E-3,-5.05086E-3,6.6706296E-3],"split_indices":[8,13,1,0,0,0,0],"split_type":[0,0,0,0,0,0,0],"sum_hessian":[1.213E3,2.55E2,9.58E2,6.3E1,1.92E2,2.97E2,6.61E2],"tree_param":{"num_deleted":"0","num_feature":"24","num_nodes":"7","size_leaf_vector":"1"}},{"base_weights":[3.0081081E-3,-8.695689E-2,2.8956586E-1,-6.395005E-3,5.9681325E-3,1.2354752E-2,-3.7365733E-3],"categories":[],"categories_nodes":[],"categories_segments":[],"categories_sizes":[],"default_left":[0,0,0,0,0,0,0],"id":51,"left_children":[1,3,5,-1,-1,-1,-1],"loss_changes":[3.1269232E1,2.2772772E1,7.426874E0,0E0,0E0,0E0,0E0],"parents":[2147483647,0,0,1,1,2,2],"right_children":[2,4,6,-1,-1,-1,-1],"split_conditions":[9.096E1,2E0,7.40603E2,-6.395005E-3,5.9681325E-3,1.2354752E-2,-3.7365733E-3],"split_indices":[13,20,4,0,0,0,0],"split_type":[0,0,0,0,0,0,0],"sum_hessian":[1.207E3,9.19E2,2.88E2,6.71E2,2.48E2,2.49E2,3.9E1],"tree_param":{"num_deleted":"0","num_feature":"24","num_nodes":"7","size_leaf_vector":"1"}},{"base_weights":[-0E0,-2.900682E-1,9.141255E-2,-1.6339429E-2,-4.1812374E-3,-9.724114E-3,5.618376E-3],"categories":[],"categories_nodes":[],"categories_segments":[],"categories_sizes":[],"default_left":[0,0,0,0,0,0,0],"id":52,"left_children":[1,3,5,-1,-1,-1,-1],"loss_changes":[3.2298286E1,8.548067E0,2.3665316E1,0E0,0E0,0E0,0E0],"parents":[2147483647,0,0,1,1,2,2],"right_children":[2,4,6,-1,-1,-1,-1],"split_conditions":[1E0,9.0281E1,8.936E1,-1.6339429E-2,-4.1812374E-3,-9.724114E-3,5.618376E-3],"split_indices":[20,17,13,0,0,0,0],"split_type":[0,0,0,0,0,0,0],"sum_hessian":[1.213E3,2.9E2,9.23E2,1.4E2,1.5E2,1.44E2,7.79E2],"tree_param":{"num_deleted":"0","num_feature":"24","num_nodes":"7","size_leaf_vector":"1"}},{"base_weights":[5.0154324E-3,-8.312619E-2,2.5168005E-1,-6.2408387E-3,4.919678E-3,1.1308259E-2,-5.591606E-3],"categories":[],"categories_nodes":[],"categories_segments":[],"categories_sizes":[],"default_left":[0,0,0,0,0,0,0],"id":53,"left_children":[1,3,5,-1,-1,-1,-1],"loss_changes":[2.6325874E1,1.9008945E1,9.516993E0,0E0,0E0,0E0,0E0],"parents":[2147483647,0,0,1,1,2,2],"right_children":[2,4,6,-1,-1,-1,-1],"split_conditions":[2E0,9.0645E1,9.76E0,-6.2408387E-3,4.919678E-3,1.1308259E-2,-5.591606E-3],"split_indices":[20,17,8,0,0,0,0],"split_type":[0,0,0,0,0,0,0],"sum_hessian":[1.205E3,8.88E2,3.17E2,6.24E2,2.64E2,2.71E2,4.6E1],"tree_param":{"num_deleted":"0","num_feature":"24","num_nodes":"7","size_leaf_vector":"1"}},{"base_weights":[3.9550182E-3,-2.8261662E-1,7.976549E-2,-1.5046894E-2,-4.6341806E-3,-4.3413783E-3,6.246819E-3],"categories":[],"categories_nodes":[],"categories_segments":[],"categories_sizes":[],"default_left":[0,0,0,0,0,0,0],"id":54,"left_children":[1,3,5,-1,-1,-1,-1],"loss_changes":[2.6086254E1,5.299036E0,1.9210806E1,0E0,0E0,0E0,0E0],"parents":[2147483647,0,0,1,1,2,2],"right_children":[2,4,6,-1,-1,-1,-1],"split_conditions":[9.45E0,1.9902E1,1.012E0,-1.5046894E-2,-4.6341806E-3,-4.3413783E-3,6.246819E-3],"split_indices":[8,2,1,0,0,0,0],"split_type":[0,0,0,0,0,0,0],"sum_hessian":[1.199E3,2.49E2,9.5E2,1.23E2,1.26E2,3.09E2,6.41E2],"tree_param":{"num_deleted":"0","num_feature":"24","num_nodes":"7","size_leaf_vector":"1"}},{"base_weights":[4.755694E-3,-8.6018346E-2,2.459923E-1,-5.948126E-3,5.829589E-3,2.2909564E-3,1.34639805E-2],"categories":[],"categories_nodes":[],"categories_segments":[],"categories_sizes":[],"default_left":[0,0,0,0,0,0,0],"id":55,"left_children":[1,3,5,-1,-1,-1,-1],"loss_changes":[2.6491327E1,1.864845E1,8.1250515E0,0E0,0E0,0E0,0E0],"parents":[2147483647,0,0,1,1,2,2],"right_children":[2,4,6,-1,-1,-1,-1],"split_conditions":[2E0,9.0724E1,1.069E0,-5.948126E-3,5.829589E-3,2.2909564E-3,1.34639805E-2],"split_indices":[20,17,1,0,0,0,0],"split_type":[0,0,0,0,0,0,0],"sum_hessian":[1.204E3,8.75E2,3.29E2,6.58E2,2.17E2,1.45E2,1.84E2],"tree_param":{"num_deleted":"0","num_feature":"24","num_nodes":"7","size_leaf_vector":"1"}},{"base_weights":[-9.494483E-3,-2.7723083E-1,7.4800536E-2,-1.3043125E-2,-1.8434649E-3,-1.338592E-4,1.1860095E-2],"categories":[],"categories_nodes":[],"categories_segments":[],"categories_sizes":[],"default_left":[0,0,0,0,0,0,0],"id":56,"left_children":[1,3,5,-1,-1,-1,-1],"loss_changes":[2.7129549E1,6.026188E0,1.902101E1,0E0,0E0,0E0,0E0],"parents":[2147483647,0,0,1,1,2,2],"right_children":[2,4,6,-1,-1,-1,-1],"split_conditions":[1E0,9.0625E1,9.099E1,-1.3043125E-2,-1.8434649E-3,-1.338592E-4,1.1860095E-2],"split_indices":[20,17,13,0,0,0,0],"split_type":[0,0,0,0,0,0,0],"sum_hessian":[1.196E3,2.86E2,9.1E2,1.99E2,8.7E1,7.02E2,2.08E2],"tree_param":{"num_deleted":"0","num_feature":"24","num_nodes":"7","size_leaf_vector":"1"}},{"base_weights":[5.2828477E-3,-2.773513E-1,8.8187E-2,-2.0615129E-2,-6.281513E-3,-5.8832285E-3,5.75378E-3],"categories":[],"categories_nodes":[],"categories_segments":[],"categories_sizes":[],"default_left":[0,0,0,0,0,0,0],"id":57,"left_children":[1,3,5,-1,-1,-1,-1],"loss_changes":[2.8330364E1,7.9546623E0,1.8354137E1,0E0,0E0,0E0,0E0],"parents":[2147483647,0,0,1,1,2,2],"right_children":[2,4,6,-1,-1,-1,-1],"split_conditions":[8.968E1,8.879E1,9.46E0,-2.0615129E-2,-6.281513E-3,-5.8832285E-3,5.75378E-3],"split_indices":[13,13,8,0,0,0,0],"split_type":[0,0,0,0,0,0,0],"sum_hessian":[1.207E3,2.72E2,9.35E2,6.2E1,2.1E2,2.13E2,7.22E2],"tree_param":{"num_deleted":"0","num_feature":"24","num_nodes":"7","size_leaf_vector":"1"}},{"base_weights":[-8.290095E-3,-1.23383716E-1,1.8045625E-1,-1.9668499E-2,-2.540664E-3,3.3791857E-3,1.4937098E-2],"categories":[],"categories_nodes":[],"categories_segments":[],"categories_sizes":[],"default_left":[0,0,0,0,0,0,0],"id":58,"left_children":[1,3,5,-1,-1,-1,-1],"loss_changes":[2.5837782E1,1.6244457E1,9.087391E0,0E0,0E0,0E0,0E0],"parents":[2147483647,0,0,1,1,2,2],"right_children":[2,4,6,-1,-1,-1,-1],"split_conditions":[9.066E1,9.38E0,2E0,-1.9668499E-2,-2.540664E-3,3.3791857E-3,1.4937098E-2],"split_indices":[13,8,20,0,0,0,0],"split_type":[0,0,0,0,0,0,0],"sum_hessian":[1.186E3,7.38E2,4.48E2,7.4E1,6.64E2,3.37E2,1.11E2],"tree_param":{"num_deleted":"0","num_feature":"24","num_nodes":"7","size_leaf_vector":"1"}},{"base_weights":[-1.3563515E-3,-2.599544E-1,7.554372E-2,-1.784834E-2,-5.294406E-3,-1.1483054E-2,3.984866E-3],"categories":[],"categories_nodes":[],"categories_segments":[],"categories_sizes":[],"default_left":[0,0,0,0,0,0,0],"id":59,"left_children":[1,3,5,-1,-1,-1,-1],"loss_changes":[2.418746E1,7.2611847E0,1.4478999E1,0E0,0E0,0E0,0E0],"parents":[2147483647,0,0,1,1,2,2],"right_children":[2,4,6,-1,-1,-1,-1],"split_conditions":[8.97E1,9.48E0,9.38E0,-1.784834E-2,-5.294406E-3,-1.1483054E-2,3.984866E-3],"split_indices":[13,8,8,0,0,0,0],"split_type":[0,0,0,0,0,0,0],"sum_hessian":[1.21E3,2.77E2,9.33E2,8.1E1,1.96E2,7.9E1,8.54E2],"tree_param":{"num_deleted":"0","num_feature":"24","num_nodes":"7","size_leaf_vector":"1"}},{"base_weights":[1.3003844E-2,-2.302908E-1,8.479638E-2,-1.3034329E-2,-3.1889428E-3,4.589485E-3,-1.1167696E-2],"categories":[],"categories_nodes":[],"categories_segments":[],"categories_sizes":[],"default_left":[0,0,0,0,0,0,0],"id":60,"left_children":[1,3,5,-1,-1,-1,-1],"loss_changes":[2.148677E1,5.354602E0,1.785068E1,0E0,0E0,0E0,0E0],"parents":[2147483647,0,0,1,1,2,2],"right_children":[2,4,6,-1,-1,-1,-1],"split_conditions":[9.46E0,1.9902E1,9.75E0,-1.3034329E-2,-3.1889428E-3,4.589485E-3,-1.1167696E-2],"split_indices":[8,2,8,0,0,0,0],"split_type":[0,0,0,0,0,0,0],"sum_hessian":[1.228E3,2.78E2,9.5E2,1.35E2,1.43E2,8.54E2,9.6E1],"tree_param":{"num_deleted":"0","num_feature":"24","num_nodes":"7","size_leaf_vector":"1"}},{"base_weights":[1.2969534E-3,-7.3685996E-2,2.549802E-1,-1.7343098E-2,-9.7221346E-4,5.569874E-3,1.8338645E-2],"categories":[],"categories_nodes":[],"categories_segments":[],"categories_sizes":[],"default_left":[0,0,0,0,0,0,0],"id":61,"left_children":[1,3,5,-1,-1,-1,-1],"loss_changes":[2.3327682E1,1.8122791E1,6.8806915E0,0E0,0E0,0E0,0E0],"parents":[2147483647,0,0,1,1,2,2],"right_children":[2,4,6,-1,-1,-1,-1],"split_conditions":[9.099E1,9.38E0,2E0,-1.7343098E-2,-9.7221346E-4,5.569874E-3,1.8338645E-2],"split_indices":[13,8,20,0,0,0,0],"split_type":[0,0,0,0,0,0,0],"sum_hessian":[1.22E3,9.42E2,2.78E2,9E1,8.52E2,2.08E2,7E1],"tree_param":{"num_deleted":"0","num_feature":"24","num_nodes":"7","size_leaf_vector":"1"}},{"base_weights":[-8.199473E-4,-8.501434E-2,2.269528E-1,-1.4636606E-2,-9.924949E-4,9.24723E-3,-1.0694674E-2],"categories":[],"categories_nodes":[],"categories_segments":[],"categories_sizes":[],"default_left":[0,0,0,0,0,0,0],"id":62,"left_children":[1,3,5,-1,-1,-1,-1],"loss_changes":[2.3399273E1,1.6721611E1,6.6778927E0,0E0,0E0,0E0,0E0],"parents":[2147483647,0,0,1,1,2,2],"right_children":[2,4,6,-1,-1,-1,-1],"split_conditions":[2E0,8.933E1,9.8E0,-1.4636606E-2,-9.924949E-4,9.24723E-3,-1.0694674E-2],"split_indices":[20,13,8,0,0,0,0],"split_type":[0,0,0,0,0,0,0],"sum_hessian":[1.218E3,8.91E2,3.27E2,1.27E2,7.64E2,3.07E2,2E1],"tree_param":{"num_deleted":"0","num_feature":"24","num_nodes":"7","size_leaf_vector":"1"}},{"base_weights":[6.927153E-3,-1.8227328E-1,1.0265171E-1,-1.7551143E-2,-3.94037E-3,8.777034E-4,1.0646322E-2],"categories":[],"categories_nodes":[],"categories_segments":[],"categories_sizes":[],"default_left":[0,0,0,0,0,0,0],"id":63,"left_children":[1,3,5,-1,-1,-1,-1],"loss_changes":[2.1750868E1,8.698156E0,1.2393595E1,0E0,0E0,0E0,0E0],"parents":[2147483647,0,0,1,1,2,2],"right_children":[2,4,6,-1,-1,-1,-1],"split_conditions":[9.0051E1,8.889E1,2E0,-1.7551143E-2,-3.94037E-3,8.777034E-4,1.0646322E-2],"split_indices":[17,13,20,0,0,0,0],"split_type":[0,0,0,0,0,0,0],"sum_hessian":[1.198E3,4.01E2,7.97E2,6.9E1,3.32E2,5.78E2,2.19E2],"tree_param":{"num_deleted":"0","num_feature":"24","num_nodes":"7","size_leaf_vector":"1"}},{"base_weights":[-6.93488E-3,-4.5805636E-1,3.1728975E-2,-6.496843E-3,-1.8738333E-2,-7.2650807E-3,3.3040636E-3],"categories":[],"categories_nodes":[],"categories_segments":[],"categories_sizes":[],"default_left":[0,0,0,0,0,0,0],"id":64,"left_children":[1,3,5,-1,-1,-1,-1],"loss_changes":[2.12057E1,1.6432972E0,1.6718426E1,0E0,0E0,0E0,0E0],"parents":[2147483647,0,0,1,1,2,2],"right_children":[2,4,6,-1,-1,-1,-1],"split_conditions":[8.901E1,7.17067E2,9.45E0,-6.496843E-3,-1.8738333E-2,-7.2650807E-3,3.3040636E-3],"split_indices":[13,4,8,0,0,0,0],"split_type":[0,0,0,0,0,0,0],"sum_hessian":[1.206E3,9.4E1,1.112E3,2.3E1,7.1E1,2.29E2,8.83E2],"tree_param":{"num_deleted":"0","num_feature":"24","num_nodes":"7","size_leaf_vector":"1"}},{"base_weights":[1.4751853E-3,-2.4460089E-1,7.8592576E-2,-1.34041095E-2,-3.772206E-3,-9.518574E-5,1.0749221E-2],"categories":[],"categories_nodes":[],"categories_segments":[],"categories_sizes":[],"default_left":[0,0,0,0,0,0,0],"id":65,"left_children":[1,3,5,-1,-1,-1,-1],"loss_changes":[2.2844948E1,5.228466E0,1.7154726E1,0E0,0E0,0E0,0E0],"parents":[2147483647,0,0,1,1,2,2],"right_children":[2,4,6,-1,-1,-1,-1],"split_conditions":[1E0,9.0281E1,9.0698E1,-1.34041095E-2,-3.772206E-3,-9.518574E-5,1.0749221E-2],"split_indices":[20,17,17,0,0,0,0],"split_type":[0,0,0,0,0,0,0],"sum_hessian":[1.202E3,2.85E2,9.17E2,1.39E2,1.46E2,6.77E2,2.4E2],"tree_param":{"num_deleted":"0","num_feature":"24","num_nodes":"7","size_leaf_vector":"1"}},{"base_weights":[4.7959376E-4,-1.4869116E-1,1.08596034E-1,-1.7784612E-2,-3.4593332E-3,1.0741076E-3,9.563995E-3],"categories":[],"categories_nodes":[],"categories_segments":[],"categories_sizes":[],"default_left":[0,0,0,0,0,0,0],"id":66,"left_children":[1,3,5,-1,-1,-1,-1],"loss_changes":[1.9907862E1,9.029969E0,9.10512E0,0E0,0E0,0E0,0E0],"parents":[2147483647,0,0,1,1,2,2],"right_children":[2,4,6,-1,-1,-1,-1],"split_conditions":[1.956E1,9.4E0,2E0,-1.7784612E-2,-3.4593332E-3,1.0741076E-3,9.563995E-3],"split_indices":[2,8,20,0,0,0,0],"split_type":[0,0,0,0,0,0,0],"sum_hessian":[1.231E3,5.16E2,7.15E2,6E1,4.56E2,4.88E2,2.27E2],"tree_param":{"num_deleted":"0","num_feature":"24","num_nodes":"7","size_leaf_vector":"1"}},{"base_weights":[-7.924965E-3,-4.4208437E-1,3.140549E-2,-2.7780475E-2,-1.3117383E-2,-1.2465336E-2,2.4182927E-3],"categories":[],"categories_nodes":[],"categories_segments":[],"categories_sizes":[],"default_left":[0,0,0,0,0,0,0],"id":67,"left_children":[1,3,5,-1,-1,-1,-1],"loss_changes":[2.0962776E1,1.5268841E0,1.6336744E1,0E0,0E0,0E0,0E0],"parents":[2147483647,0,0,1,1,2,2],"right_children":[2,4,6,-1,-1,-1,-1],"split_conditions":[8.901E1,8.804E1,9.38E0,-2.7780475E-2,-1.3117383E-2,-1.2465336E-2,2.4182927E-3],"split_indices":[13,13,8,0,0,0,0],"split_type":[0,0,0,0,0,0,0],"sum_hessian":[1.218E3,1E2,1.118E3,1.2E1,8.8E1,9.7E1,1.021E3],"tree_param":{"num_deleted":"0","num_feature":"24","num_nodes":"7","size_leaf_vector":"1"}},{"base_weights":[4.902505E-3,-1.8485071E-1,8.800846E-2,-1.7852765E-2,-4.166936E-3,4.3663564E-3,-1.0127659E-2],"categories":[],"categories_nodes":[],"categories_segments":[],"categories_sizes":[],"default_left":[0,0,0,0,0,0,0],"id":68,"left_children":[1,3,5,-1,-1,-1,-1],"loss_changes":[1.8868793E1,7.5103245E0,1.1595549E1,0E0,0E0,0E0,0E0],"parents":[2147483647,0,0,1,1,2,2],"right_children":[2,4,6,-1,-1,-1,-1],"split_conditions":[8.9993E1,8.884E1,9.75E0,-1.7852765E-2,-4.166936E-3,4.3663564E-3,-1.0127659E-2],"split_indices":[17,13,8,0,0,0,0],"split_type":[0,0,0,0,0,0,0],"sum_hessian":[1.194E3,3.62E2,8.32E2,5.8E1,3.04E2,7.6E2,7.2E1],"tree_param":{"num_deleted":"0","num_feature":"24","num_nodes":"7","size_leaf_vector":"1"}},{"base_weights":[-2.2545299E-3,-1.6506383E-1,9.076277E-2,-2.2719562E-2,-4.6424423E-3,-4.9449173E-3,4.910846E-3],"categories":[],"categories_nodes":[],"categories_segments":[],"categories_sizes":[],"default_left":[0,0,0,0,0,0,0],"id":69,"left_children":[1,3,5,-1,-1,-1,-1],"loss_changes":[1.8554605E1,6.6321926E0,8.984238E0,0E0,0E0,0E0,0E0],"parents":[2147483647,0,0,1,1,2,2],"right_children":[2,4,6,-1,-1,-1,-1],"split_conditions":[1.026E0,9.35E0,9.44E0,-2.2719562E-2,-4.6424423E-3,-4.9449173E-3,4.910846E-3],"split_indices":[1,8,8,0,0,0,0],"split_type":[0,0,0,0,0,0,0],"sum_hessian":[1.22E3,4.44E2,7.76E2,2.5E1,4.19E2,1.35E2,6.41E2],"tree_param":{"num_deleted":"0","num_feature":"24","num_nodes":"7","size_leaf_vector":"1"}},{"base_weights":[-3.947119E-3,-1.7115985E-1,9.126155E-2,-1.929209E-2,-4.3384563E-3,5.735632E-4,9.181798E-3],"categories":[],"categories_nodes":[],"categories_segments":[],"categories_sizes":[],"default_left":[0,0,0,0,0,0,0],"id":70,"left_children":[1,3,5,-1,-1,-1,-1],"loss_changes":[1.9505579E1,7.6776466E0,9.900021E0,0E0,0E0,0E0,0E0],"parents":[2147483647,0,0,1,1,2,2],"right_children":[2,4,6,-1,-1,-1,-1],"split_conditions":[1.026E0,8.877E1,9.099E1,-1.929209E-2,-4.3384563E-3,5.735632E-4,9.181798E-3],"split_indices":[1,13,13,0,0,0,0],"split_type":[0,0,0,0,0,0,0],"sum_hessian":[1.22E3,4.43E2,7.77E2,4.6E1,3.97E2,5.43E2,2.34E2],"tree_param":{"num_deleted":"0","num_feature":"24","num_nodes":"7","size_leaf_vector":"1"}},{"base_weights":[-8.007339E-4,-1.7768563E-1,8.6139545E-2,-1.8858055E-2,-4.610901E-3,-4.5434874E-3,5.070854E-3],"categories":[],"categories_nodes":[],"categories_segments":[],"categories_sizes":[],"default_left":[0,0,0,0,0,0,0],"id":71,"left_children":[1,3,5,-1,-1,-1,-1],"loss_changes":[1.8692146E1,6.343668E0,1.0354727E1,0E0,0E0,0E0,0E0],"parents":[2147483647,0,0,1,1,2,2],"right_children":[2,4,6,-1,-1,-1,-1],"split_conditions":[1.006E0,8.877E1,1E0,-1.8858055E-2,-4.610901E-3,-4.5434874E-3,5.070854E-3],"split_indices":[1,13,20,0,0,0,0],"split_type":[0,0,0,0,0,0,0],"sum_hessian":[1.21E3,3.99E2,8.11E2,4.2E1,3.57E2,1.72E2,6.39E2],"tree_param":{"num_deleted":"0","num_feature":"24","num_nodes":"7","size_leaf_vector":"1"}},{"base_weights":[-0E0,-3.5982051E-1,3.47056E-2,-1.5746523E-2,-5.345405E-3,-8.791089E-3,2.562194E-3],"categories":[],"categories_nodes":[],"categories_segments":[],"categories_sizes":[],"default_left":[0,0,0,0,0,0,0],"id":72,"left_children":[1,3,5,-1,-1,-1,-1],"loss_changes":[1.5046423E1,1.6893616E0,1.207725E1,0E0,0E0,0E0,0E0],"parents":[2147483647,0,0,1,1,2,2],"right_children":[2,4,6,-1,-1,-1,-1],"split_conditions":[9.38E0,1.111E0,8.922E1,-1.5746523E-2,-5.345405E-3,-8.791089E-3,2.562194E-3],"split_indices":[8,1,13,0,0,0,0],"split_type":[0,0,0,0,0,0,0],"sum_hessian":[1.2E3,1.04E2,1.096E3,7E1,3.4E1,1.28E2,9.68E2],"tree_param":{"num_deleted":"0","num_feature":"24","num_nodes":"7","size_leaf_vector":"1"}},{"base_weights":[5.414061E-4,-1.1520222E-1,1.1535265E-1,-1.7896732E-2,-2.7062325E-3,-4.326295E-3,5.9218034E-3],"categories":[],"categories_nodes":[],"categories_segments":[],"categories_sizes":[],"default_left":[0,0,0,0,0,0,0],"id":73,"left_children":[1,3,5,-1,-1,-1,-1],"loss_changes":[1.5906577E1,8.70235E0,7.798602E0,0E0,0E0,0E0,0E0],"parents":[2147483647,0,0,1,1,2,2],"right_children":[2,4,6,-1,-1,-1,-1],"split_conditions":[1.077E0,8.879E1,8.969E1,-1.7896732E-2,-2.7062325E-3,-4.326295E-3,5.9218034E-3],"split_indices":[1,13,13,0,0,0,0],"split_type":[0,0,0,0,0,0,0],"sum_hessian":[1.193E3,5.93E2,6E2,4.9E1,5.44E2,1.09E2,4.91E2],"tree_param":{"num_deleted":"0","num_feature":"24","num_nodes":"7","size_leaf_vector":"1"}},{"base_weights":[-9.101683E-3,-2.1908209E-1,5.5466402E-2,-1.1968255E-2,-3.2599564E-3,3.1909565E-3,-9.6999835E-3],"categories":[],"categories_nodes":[],"categories_segments":[],"categories_sizes":[],"default_left":[0,0,0,0,0,0,0],"id":74,"left_children":[1,3,5,-1,-1,-1,-1],"loss_changes":[1.6361963E1,4.2221622E0,1.0929401E1,0E0,0E0,0E0,0E0],"parents":[2147483647,0,0,1,1,2,2],"right_children":[2,4,6,-1,-1,-1,-1],"split_conditions":[1E0,9.0281E1,9.75E0,-1.1968255E-2,-3.2599564E-3,3.1909565E-3,-9.6999835E-3],"split_indices":[20,17,8,0,0,0,0],"split_type":[0,0,0,0,0,0,0],"sum_hessian":[1.2E3,2.82E2,9.18E2,1.4E2,1.42E2,8.31E2,8.7E1],"tree_param":{"num_deleted":"0","num_feature":"24","num_nodes":"7","size_leaf_vector":"1"}},{"base_weights":[-8.077488E-3,-6.462884E-2,2.1879739E-1,-4.5881667E-3,4.136563E-3,-5.07065E-3,8.765075E-3],"categories":[],"categories_nodes":[],"categories_segments":[],"categories_sizes":[],"default_left":[0,0,0,0,0,0,0],"id":75,"left_children":[1,3,5,-1,-1,-1,-1],"loss_changes":[1.5578286E1,1.1880729E1,2.882966E0,0E0,0E0,0E0,0E0],"parents":[2147483647,0,0,1,1,2,2],"right_children":[2,4,6,-1,-1,-1,-1],"split_conditions":[9.0819E1,2E0,9.38E0,-4.5881667E-3,4.136563E-3,-5.07065E-3,8.765075E-3],"split_indices":[17,20,8,0,0,0,0],"split_type":[0,0,0,0,0,0,0],"sum_hessian":[1.213E3,9.73E2,2.4E2,7.15E2,2.58E2,1.8E1,2.22E2],"tree_param":{"num_deleted":"0","num_feature":"24","num_nodes":"7","size_leaf_vector":"1"}},{"base_weights":[-3.4649805E-3,-1.5453653E-1,7.233413E-2,-3.647953E-3,-1.42911235E-2,3.6406252E-3,-9.3514E-3],"categories":[],"categories_nodes":[],"categories_segments":[],"categories_sizes":[],"default_left":[0,0,0,0,0,0,0],"id":76,"left_children":[1,3,5,-1,-1,-1,-1],"loss_changes":[1.37613125E1,4.9193077E0,8.599009E0,0E0,0E0,0E0,0E0],"parents":[2147483647,0,0,1,1,2,2],"right_children":[2,4,6,-1,-1,-1,-1],"split_conditions":[9.0044E1,2.7E1,9.75E0,-3.647953E-3,-1.42911235E-2,3.6406252E-3,-9.3514E-3],"split_indices":[17,11,8,0,0,0,0],"split_type":[0,0,0,0,0,0,0],"sum_hessian":[1.196E3,4E2,7.96E2,3.37E2,6.3E1,7.3E2,6.6E1],"tree_param":{"num_deleted":"0","num_feature":"24","num_nodes":"7","size_leaf_vector":"1"}},{"base_weights":[2.4208724E-3,-2.0018376E-1,6.1738774E-2,-9.276002E-3,-1.1614484E-3,3.5311019E-3,-1.0761591E-2],"categories":[],"categories_nodes":[],"categories_segments":[],"categories_sizes":[],"default_left":[0,0,0,0,0,0,0],"id":77,"left_children":[1,3,5,-1,-1,-1,-1],"loss_changes":[1.4556022E1,2.87502E0,1.3597742E1,0E0,0E0,0E0,0E0],"parents":[2147483647,0,0,1,1,2,2],"right_children":[2,4,6,-1,-1,-1,-1],"split_conditions":[1E0,9.0625E1,9.75E0,-9.276002E-3,-1.1614484E-3,3.5311019E-3,-1.0761591E-2],"split_indices":[20,17,8,0,0,0,0],"split_type":[0,0,0,0,0,0,0],"sum_hessian":[1.21E3,2.72E2,9.38E2,1.94E2,7.8E1,8.5E2,8.8E1],"tree_param":{"num_deleted":"0","num_feature":"24","num_nodes":"7","size_leaf_vector":"1"}},{"base_weights":[-8.008329E-5,-6.7154035E-2,1.840651E-1,-1.1192298E-2,-7.867058E-4,1.2097958E-3,1.0377144E-2],"categories":[],"categories_nodes":[],"categories_segments":[],"categories_sizes":[],"default_left":[0,0,0,0,0,0,0],"id":78,"left_children":[1,3,5,-1,-1,-1,-1],"loss_changes":[1.4866513E1,9.888611E0,5.29193E0,0E0,0E0,0E0,0E0],"parents":[2147483647,0,0,1,1,2,2],"right_children":[2,4,6,-1,-1,-1,-1],"split_conditions":[2E0,8.933E1,9.018E1,-1.1192298E-2,-7.867058E-4,1.2097958E-3,1.0377144E-2],"split_indices":[20,13,13,0,0,0,0],"split_type":[0,0,0,0,0,0,0],"sum_hessian":[1.202E3,8.83E2,3.19E2,1.3E2,7.53E2,1.39E2,1.8E2],"tree_param":{"num_deleted":"0","num_feature":"24","num_nodes":"7","size_leaf_vector":"1"}},{"base_weights":[1.4269718E-3,-2.4148577E-1,5.3191565E-2,-1.4679308E-2,-5.160196E-3,2.9841948E-3,-1.0793985E-2],"categories":[],"categories_nodes":[],"categories_segments":[],"categories_sizes":[],"default_left":[0,0,0,0,0,0,0],"id":79,"left_children":[1,3,5,-1,-1,-1,-1],"loss_changes":[1.5331811E1,3.3156834E0,1.1697815E1,0E0,0E0,0E0,0E0],"parents":[2147483647,0,0,1,1,2,2],"right_children":[2,4,6,-1,-1,-1,-1],"split_conditions":[9.44E0,1.8693E1,9.76E0,-1.4679308E-2,-5.160196E-3,2.9841948E-3,-1.0793985E-2],"split_indices":[8,2,8,0,0,0,0],"split_type":[0,0,0,0,0,0,0],"sum_hessian":[1.219E3,2.12E2,1.007E3,7E1,1.42E2,9.27E2,8E1],"tree_param":{"num_deleted":"0","num_feature":"24","num_nodes":"7","size_leaf_vector":"1"}},{"base_weights":[-1.5635685E-3,-4.6605665E-2,2.6882574E-1,-1.2809596E-2,-5.005793E-4,1.3025342E-2,-0E0],"categories":[],"categories_nodes":[],"categories_segments":[],"categories_sizes":[],"default_left":[0,0,0,0,0,0,0],"id":80,"left_children":[1,3,5,-1,-1,-1,-1],"loss_changes":[1.4596362E1,1.0541758E1,4.677498E0,0E0,0E0,0E0,0E0],"parents":[2147483647,0,0,1,1,2,2],"right_children":[2,4,6,-1,-1,-1,-1],"split_conditions":[9.125E1,9.38E0,8.22E1,-1.2809596E-2,-5.005793E-4,1.3025342E-2,-0E0],"split_indices":[13,8,10,0,0,0,0],"split_type":[0,0,0,0,0,0,0],"sum_hessian":[1.199E3,1.03E3,1.69E2,9.2E1,9.38E2,1.21E2,4.8E1],"tree_param":{"num_deleted":"0","num_feature":"24","num_nodes":"7","size_leaf_vector":"1"}},{"base_weights":[-5.48478E-3,-6.992317E-2,1.7122707E-1,-7.873897E-3,-3.869405E-4,7.50841E-3,-1.2200803E-2],"categories":[],"categories_nodes":[],"categories_segments":[],"categories_sizes":[],"default_left":[0,0,0,0,0,0,0],"id":81,"left_children":[1,3,5,-1,-1,-1,-1],"loss_changes":[1.3697213E1,8.004434E0,7.3410244E0,0E0,0E0,0E0,0E0],"parents":[2147483647,0,0,1,1,2,2],"right_children":[2,4,6,-1,-1,-1,-1],"split_conditions":[2E0,9.46E0,9.8E0,-7.873897E-3,-3.869405E-4,7.50841E-3,-1.2200803E-2],"split_indices":[20,8,8,0,0,0,0],"split_type":[0,0,0,0,0,0,0],"sum_hessian":[1.201E3,8.82E2,3.19E2,2.4E2,6.42E2,2.96E2,2.3E1],"tree_param":{"num_deleted":"0","num_feature":"24","num_nodes":"7","size_leaf_vector":"1"}},{"base_weights":[-0E0,-2.0444725E-1,6.0717992E-2,-8.72138E-3,2.4951638E-3,3.3211214E-3,-9.213372E-3],"categories":[],"categories_nodes":[],"categories_segments":[],"categories_sizes":[],"default_left":[0,0,0,0,0,0,0],"id":82,"left_children":[1,3,5,-1,-1,-1,-1],"loss_changes":[1.5229336E1,3.546173E0,1.0469023E1,0E0,0E0,0E0,0E0],"parents":[2147483647,0,0,1,1,2,2],"right_children":[2,4,6,-1,-1,-1,-1],"split_conditions":[1E0,9.128E1,9.75E0,-8.72138E-3,2.4951638E-3,3.3211214E-3,-9.213372E-3],"split_indices":[20,13,8,0,0,0,0],"split_type":[0,0,0,0,0,0,0],"sum_hessian":[1.222E3,2.79E2,9.43E2,2.41E2,3.8E1,8.55E2,8.8E1],"tree_param":{"num_deleted":"0","num_feature":"24","num_nodes":"7","size_leaf_vector":"1"}},{"base_weights":[5.4727257E-3,-4.2879334E-1,3.1907305E-2,-1.6415298E-2,-3.6782247E-3,-1.0796174E-3,6.9850693E-3],"categories":[],"categories_nodes":[],"categories_segments":[],"categories_sizes":[],"default_left":[0,0,0,0,0,0,0],"id":83,"left_children":[1,3,5,-1,-1,-1,-1],"loss_changes":[1.4013661E1,6.6913605E-1,1.2249073E1,0E0,0E0,0E0,0E0],"parents":[2147483647,0,0,1,1,2,2],"right_children":[2,4,6,-1,-1,-1,-1],"split_conditions":[8.879E1,1.1E1,2E0,-1.6415298E-2,-3.6782247E-3,-1.0796174E-3,6.9850693E-3],"split_indices":[13,22,20,0,0,0,0],"split_type":[0,0,0,0,0,0,0],"sum_hessian":[1.225E3,6.8E1,1.157E3,5.9E1,9E0,8.42E2,3.15E2],"tree_param":{"num_deleted":"0","num_feature":"24","num_nodes":"7","size_leaf_vector":"1"}},{"base_weights":[-8.1464055E-4,-4.2179547E-2,2.546001E-1,-1.3261966E-2,-4.880542E-4,5.8884807E-3,1.6825115E-2],"categories":[],"categories_nodes":[],"categories_segments":[],"categories_sizes":[],"default_left":[0,0,0,0,0,0,0],"id":84,"left_children":[1,3,5,-1,-1,-1,-1],"loss_changes":[1.2593796E1,9.693684E0,2.917488E0,0E0,0E0,0E0,0E0],"parents":[2147483647,0,0,1,1,2,2],"right_children":[2,4,6,-1,-1,-1,-1],"split_conditions":[9.124E1,8.893E1,2E0,-1.3261966E-2,-4.880542E-4,5.8884807E-3,1.6825115E-2],"split_indices":[13,13,20,0,0,0,0],"split_type":[0,0,0,0,0,0,0],"sum_hessian":[1.193E3,1.029E3,1.64E2,7.7E1,9.52E2,1.22E2,4.2E1],"tree_param":{"num_deleted":"0","num_feature":"24","num_nodes":"7","size_leaf_vector":"1"}},{"base_weights":[-1.507622E-3,-1.9150254E-1,5.456556E-2,-5.192233E-3,-1.6156206E-2,-2.8832958E-3,4.6733916E-3],"categories":[],"categories_nodes":[],"categories_segments":[],"categories_sizes":[],"default_left":[0,0,0,0,0,0,0],"id":85,"left_children":[1,3,5,-1,-1,-1,-1],"loss_changes":[1.2796864E1,2.9042358E0,1.0026182E1,0E0,0E0,0E0,0E0],"parents":[2147483647,0,0,1,1,2,2],"right_children":[2,4,6,-1,-1,-1,-1],"split_conditions":[1E0,2.91E1,1.028E0,-5.192233E-3,-1.6156206E-2,-2.8832958E-3,4.6733916E-3],"split_indices":[20,11,18,0,0,0,0],"split_type":[0,0,0,0,0,0,0],"sum_hessian":[1.194E3,2.72E2,9.22E2,2.38E2,3.4E1,3.36E2,5.86E2],"tree_param":{"num_deleted":"0","num_feature":"24","num_nodes":"7","size_leaf_vector":"1"}},{"base_weights":[9.977103E-4,-4.8769854E-2,2.0870186E-1,-7.123274E-4,-1.390454E-2,-7.1098823E-3,8.565413E-3],"categories":[],"categories_nodes":[],"categories_segments":[],"categories_sizes":[],"default_left":[0,0,0,0,0,0,0],"id":86,"left_children":[1,3,5,-1,-1,-1,-1],"loss_changes":[1.2929817E1,9.832566E0,3.7001982E0,0E0,0E0,0E0,0E0],"parents":[2147483647,0,0,1,1,2,2],"right_children":[2,4,6,-1,-1,-1,-1],"split_conditions":[9.0819E1,8.51E1,9.38E0,-7.123274E-4,-1.390454E-2,-7.1098823E-3,8.565413E-3],"split_indices":[17,10,8,0,0,0,0],"split_type":[0,0,0,0,0,0,0],"sum_hessian":[1.243E3,1.003E3,2.4E2,9.3E2,7.3E1,1.8E1,2.22E2],"tree_param":{"num_deleted":"0","num_feature":"24","num_nodes":"7","size_leaf_vector":"1"}},{"base_weights":[-4.0656463E-3,-9.844621E-2,9.053989E-2,-2.3446355E-3,-1.156797E-2,-3.3093432E-3,5.034799E-3],"categories":[],"categories_nodes":[],"categories_segments":[],"categories_sizes":[],"default_left":[0,0,0,0,0,0,0],"id":87,"left_children":[1,3,5,-1,-1,-1,-1],"loss_changes":[1.0805943E1,4.287473E0,5.9896703E0,0E0,0E0,0E0,0E0],"parents":[2147483647,0,0,1,1,2,2],"right_children":[2,4,6,-1,-1,-1,-1],"split_conditions":[1.077E0,9.71E0,9.46E0,-2.3446355E-3,-1.156797E-2,-3.3093432E-3,5.034799E-3],"split_indices":[1,8,8,0,0,0,0],"split_type":[0,0,0,0,0,0,0],"sum_hessian":[1.206E3,6.05E2,6.01E2,5.36E2,6.9E1,1.33E2,4.68E2],"tree_param":{"num_deleted":"0","num_feature":"24","num_nodes":"7","size_leaf_vector":"1"}},{"base_weights":[1.3151699E-3,-4.447887E-2,2.1298578E-1,-4.298547E-4,-1.1200803E-2,-5.394402E-3,8.792919E-3],"categories":[],"categories_nodes":[],"categories_segments":[],"categories_sizes":[],"default_left":[0,0,0,0,0,0,0],"id":88,"left_children":[1,3,5,-1,-1,-1,-1],"loss_changes":[1.1760829E1,8.718738E0,3.134036E0,0E0,0E0,0E0,0E0],"parents":[2147483647,0,0,1,1,2,2],"right_children":[2,4,6,-1,-1,-1,-1],"split_conditions":[9.0871E1,8.4E1,9.38E0,-4.298547E-4,-1.1200803E-2,-5.394402E-3,8.792919E-3],"split_indices":[17,10,8,0,0,0,0],"split_type":[0,0,0,0,0,0,0],"sum_hessian":[1.205E3,9.91E2,2.14E2,8.9E2,1.01E2,1.9E1,1.95E2],"tree_param":{"num_deleted":"0","num_feature":"24","num_nodes":"7","size_leaf_vector":"1"}},{"base_weights":[1.8484757E-4,-5.071521E-2,1.7186579E-1,-3.6610966E-3,3.409736E-3,7.2198277E-3,-7.270794E-3],"categories":[],"categories_nodes":[],"categories_segments":[],"categories_sizes":[],"default_left":[0,0,0,0,0,0,0],"id":89,"left_children":[1,3,5,-1,-1,-1,-1],"loss_changes":[1.0839854E1,7.629689E0,3.7955256E0,0E0,0E0,0E0,0E0],"parents":[2147483647,0,0,1,1,2,2],"right_children":[2,4,6,-1,-1,-1,-1],"split_conditions":[9.099E1,2E0,9.75E0,-3.6610966E-3,3.409736E-3,7.2198277E-3,-7.270794E-3],"split_indices":[13,20,8,0,0,0,0],"split_type":[0,0,0,0,0,0,0],"sum_hessian":[1.233E3,9.51E2,2.82E2,6.99E2,2.52E2,2.6E2,2.2E1],"tree_param":{"num_deleted":"0","num_feature":"24","num_nodes":"7","size_leaf_vector":"1"}},{"base_weights":[2.2058226E-3,-3.5144124E-2,2.2772507E-1,-1.34647945E-2,-4.1627986E-4,9.661984E-3,-4.1208253E-3],"categories":[],"categories_nodes":[],"categories_segments":[],"categories_sizes":[],"default_left":[0,0,0,0,0,0,0],"id":90,"left_children":[1,3,5,-1,-1,-1,-1],"loss_changes":[1.0247718E1,8.328057E0,2.9931269E0,0E0,0E0,0E0,0E0],"parents":[2147483647,0,0,1,1,2,2],"right_children":[2,4,6,-1,-1,-1,-1],"split_conditions":[9.125E1,8.879E1,9.74E0,-1.34647945E-2,-4.1627986E-4,9.661984E-3,-4.1208253E-3],"split_indices":[13,13,8,0,0,0,0],"split_type":[0,0,0,0,0,0,0],"sum_hessian":[1.207E3,1.036E3,1.71E2,6.2E1,9.74E2,1.51E2,2E1],"tree_param":{"num_deleted":"0","num_feature":"24","num_nodes":"7","size_leaf_vector":"1"}},{"base_weights":[2.6415787E-3,-4.814136E-2,1.7415851E-1,-1.2911485E-2,-8.223089E-4,7.981305E-3,-1.5078508E-3],"categories":[],"categories_nodes":[],"categories_segments":[],"categories_sizes":[],"default_left":[0,0,0,0,0,0,0],"id":91,"left_children":[1,3,5,-1,-1,-1,-1],"loss_changes":[1.0779158E1,7.402859E0,3.378295E0,0E0,0E0,0E0,0E0],"parents":[2147483647,0,0,1,1,2,2],"right_children":[2,4,6,-1,-1,-1,-1],"split_conditions":[9.099E1,8.879E1,8.28E1,-1.2911485E-2,-8.223089E-4,7.981305E-3,-1.5078508E-3],"split_indices":[13,13,10,0,0,0,0],"split_type":[0,0,0,0,0,0,0],"sum_hessian":[1.23E3,9.49E2,2.81E2,6.5E1,8.84E2,2.26E2,5.5E1],"tree_param":{"num_deleted":"0","num_feature":"24","num_nodes":"7","size_leaf_vector":"1"}},{"base_weights":[4.8507093E-3,-5.0359547E-2,1.5382595E-1,-1.4980159E-2,-9.34633E-4,6.6367267E-3,-6.30687E-3],"categories":[],"categories_nodes":[],"categories_segments":[],"categories_sizes":[],"default_left":[0,0,0,0,0,0,0],"id":92,"left_children":[1,3,5,-1,-1,-1,-1],"loss_changes":[9.935988E0,7.707055E0,3.980393E0,0E0,0E0,0E0,0E0],"parents":[2147483647,0,0,1,1,2,2],"right_children":[2,4,6,-1,-1,-1,-1],"split_conditions":[2E0,7.38E1,8.13E1,-1.4980159E-2,-9.34633E-4,6.6367267E-3,-6.30687E-3],"split_indices":[20,10,10,0,0,0,0],"split_type":[0,0,0,0,0,0,0],"sum_hessian":[1.201E3,8.76E2,3.25E2,4.9E1,8.27E2,2.95E2,3E1],"tree_param":{"num_deleted":"0","num_feature":"24","num_nodes":"7","size_leaf_vector":"1"}},{"base_weights":[-1.6600467E-3,-6.594779E-2,1.1515428E-1,2.8039482E-3,-4.088091E-3,2.9227373E-3,1.3651854E-2],"categories":[],"categories_nodes":[],"categories_segments":[],"categories_sizes":[],"default_left":[0,0,0,0,0,0,0],"id":93,"left_children":[1,3,5,-1,-1,-1,-1],"loss_changes":[8.9019165E0,5.7250752E0,3.470407E0,0E0,0E0,0E0,0E0],"parents":[2147483647,0,0,1,1,2,2],"right_children":[2,4,6,-1,-1,-1,-1],"split_conditions":[9.069E1,7.17674E2,9.175E1,2.8039482E-3,-4.088091E-3,2.9227373E-3,1.3651854E-2],"split_indices":[13,4,13,0,0,0,0],"split_type":[0,0,0,0,0,0,0],"sum_hessian":[1.183E3,7.65E2,4.18E2,1.96E2,5.69E2,3.78E2,4E1],"tree_param":{"num_deleted":"0","num_feature":"24","num_nodes":"7","size_leaf_vector":"1"}},{"base_weights":[-1.9646157E-4,-1.9992228E-1,4.45577E-2,-1.2661493E-2,-4.6967342E-3,2.9647732E-3,-7.082718E-3],"categories":[],"categories_nodes":[],"categories_segments":[],"categories_sizes":[],"default_left":[0,0,0,0,0,0,0],"id":94,"left_children":[1,3,5,-1,-1,-1,-1],"loss_changes":[1.1024273E1,2.182969E0,9.948516E0,0E0,0E0,0E0,0E0],"parents":[2147483647,0,0,1,1,2,2],"right_children":[2,4,6,-1,-1,-1,-1],"split_conditions":[9.44E0,9.35E0,9.72E0,-1.2661493E-2,-4.6967342E-3,2.9647732E-3,-7.082718E-3],"split_indices":[8,8,8,0,0,0,0],"split_type":[0,0,0,0,0,0,0],"sum_hessian":[1.225E3,2.24E2,1.001E3,6.1E1,1.63E2,8.63E2,1.38E2],"tree_param":{"num_deleted":"0","num_feature":"24","num_nodes":"7","size_leaf_vector":"1"}},{"base_weights":[5.292623E-3,-1.5572344E-1,5.2855477E-2,-1.182632E-2,-3.4814482E-3,3.0908745E-3,-8.735095E-3],"categories":[],"categories_nodes":[],"categories_segments":[],"categories_sizes":[],"default_left":[0,0,0,0,0,0,0],"id":95,"left_children":[1,3,5,-1,-1,-1,-1],"loss_changes":[9.24973E0,2.6415777E0,1.0040223E1,0E0,0E0,0E0,0E0],"parents":[2147483647,0,0,1,1,2,2],"right_children":[2,4,6,-1,-1,-1,-1],"split_conditions":[9.46E0,9.35E0,9.75E0,-1.182632E-2,-3.4814482E-3,3.0908745E-3,-8.735095E-3],"split_indices":[8,8,8,0,0,0,0],"split_type":[0,0,0,0,0,0,0],"sum_hessian":[1.207E3,2.73E2,9.34E2,6.1E1,2.12E2,8.38E2,9.6E1],"tree_param":{"num_deleted":"0","num_feature":"24","num_nodes":"7","size_leaf_vector":"1"}},{"base_weights":[-2.0046826E-3,-1.6691394E-1,4.6894282E-2,-1.731554E-2,-4.5072483E-3,-2.2026563E-4,6.721819E-3],"categories":[],"categories_nodes":[],"categories_segments":[],"categories_sizes":[],"default_left":[0,0,0,0,0,0,0],"id":96,"left_children":[1,3,5,-1,-1,-1,-1],"loss_changes":[9.931992E0,3.242095E0,7.352533E0,0E0,0E0,0E0,0E0],"parents":[2147483647,0,0,1,1,2,2],"right_children":[2,4,6,-1,-1,-1,-1],"split_conditions":[8.968E1,9.38E0,2E0,-1.731554E-2,-4.5072483E-3,-2.2026563E-4,6.721819E-3],"split_indices":[13,8,20,0,0,0,0],"split_type":[0,0,0,0,0,0,0],"sum_hessian":[1.224E3,2.8E2,9.44E2,2.6E1,2.54E2,6.91E2,2.53E2],"tree_param":{"num_deleted":"0","num_feature":"24","num_nodes":"7","size_leaf_vector":"1"}},{"base_weights":[2.537757E-3,2.7613085E-2,-3.008555E-1,-3.766522E-3,3.062648E-3,-1.968957E-2,-7.0138727E-3],"categories":[],"categories_nodes":[],"categories_segments":[],"categories_sizes":[],"default_left":[0,0,0,0,0,0,0],"id":97,"left_children":[1,3,5,-1,-1,-1,-1],"loss_changes":[9.275327E0,9.206125E0,2.0288095E0,0E0,0E0,0E0,0E0],"parents":[2147483647,0,0,1,1,2,2],"right_children":[2,4,6,-1,-1,-1,-1],"split_conditions":[8.51E1,8.9993E1,9.92E-1,-3.766522E-3,3.062648E-3,-1.968957E-2,-7.0138727E-3],"split_indices":[10,17,1,0,0,0,0],"split_type":[0,0,0,0,0,0,0],"sum_hessian":[1.224E3,1.133E3,9.1E1,3.46E2,7.87E2,2.2E1,6.9E1],"tree_param":{"num_deleted":"0","num_feature":"24","num_nodes":"7","size_leaf_vector":"1"}},{"base_weights":[-9.087724E-3,-6.014903E-2,1.3008393E-1,-1.4500359E-2,-1.3392142E-3,5.9108385E-3,-1.0867704E-2],"categories":[],"categories_nodes":[],"categories_segments":[],"categories_sizes":[],"default_left":[0,0,0,0,0,0,0],"id":98,"left_children":[1,3,5,-1,-1,-1,-1],"loss_changes":[8.461752E0,6.6293354E0,5.5223393E0,0E0,0E0,0E0,0E0],"parents":[2147483647,0,0,1,1,2,2],"right_children":[2,4,6,-1,-1,-1,-1],"split_conditions":[2E0,7.38E1,9.8E0,-1.4500359E-2,-1.3392142E-3,5.9108385E-3,-1.0867704E-2],"split_indices":[20,10,8,0,0,0,0],"split_type":[0,0,0,0,0,0,0],"sum_hessian":[1.189E3,8.72E2,3.17E2,4.8E1,8.24E2,2.93E2,2.4E1],"tree_param":{"num_deleted":"0","num_feature":"24","num_nodes":"7","size_leaf_vector":"1"}},{"base_weights":[6.5074647E-3,-2.7401853E-1,3.3159945E-2,-1.3893282E-2,-4.4872467E-3,2.0782952E-3,-9.951218E-3],"categories":[],"categories_nodes":[],"categories_segments":[],"categories_sizes":[],"default_left":[0,0,0,0,0,0,0],"id":99,"left_children":[1,3,5,-1,-1,-1,-1],"loss_changes":[8.885153E0,1.6131968E0,9.076003E0,0E0,0E0,0E0,0E0],"parents":[2147483647,0,0,1,1,2,2],"right_children":[2,4,6,-1,-1,-1,-1],"split_conditions":[9.38E0,1.9902E1,9.76E0,-1.3893282E-2,-4.4872467E-3,2.0782952E-3,-9.951218E-3],"split_indices":[8,2,8,0,0,0,0],"split_type":[0,0,0,0,0,0,0],"sum_hessian":[1.192E3,1.01E2,1.091E3,5.2E1,4.9E1,1.01E3,8.1E1],"tree_param":{"num_deleted":"0","num_feature":"24","num_nodes":"7","size_leaf_vector":"1"}},{"base_weights":[-2.0453893E-4,-2.6460034E-1,2.9132152E-2,-2.3329917E-2,-7.350395E-3,1.9181395E-3,-8.711295E-3],"categories":[],"categories_nodes":[],"categories_segments":[],"categories_sizes":[],"default_left":[0,0,0,0,0,0,0],"id":100,"left_children":[1,3,5,-1,-1,-1,-1],"loss_changes":[9.389836E0,2.1559944E0,7.7014737E0,0E0,0E0,0E0,0E0],"parents":[2147483647,0,0,1,1,2,2],"right_children":[2,4,6,-1,-1,-1,-1],"split_conditions":[8.912E1,8.804E1,9.75E0,-2.3329917E-2,-7.350395E-3,1.9181395E-3,-8.711295E-3],"split_indices":[13,13,8,0,0,0,0],"split_type":[0,0,0,0,0,0,0],"sum_hessian":[1.199E3,1.19E2,1.08E3,1.1E1,1.08E2,9.91E2,8.9E1],"tree_param":{"num_deleted":"0","num_feature":"24","num_nodes":"7","size_leaf_vector":"1"}},{"base_weights":[-4.523895E-3,-1.6531484E-1,4.243834E-2,-7.076718E-3,2.3720942E-3,2.8160168E-3,-6.029709E-3],"categories":[],"categories_nodes":[],"categories_segments":[],"categories_sizes":[],"default_left":[0,0,0,0,0,0,0],"id":101,"left_children":[1,3,5,-1,-1,-1,-1],"loss_changes":[9.143828E0,2.4162178E0,7.6211605E0,0E0,0E0,0E0,0E0],"parents":[2147483647,0,0,1,1,2,2],"right_children":[2,4,6,-1,-1,-1,-1],"split_conditions":[9.46E0,2E0,9.72E0,-7.076718E-3,2.3720942E-3,2.8160168E-3,-6.029709E-3],"split_indices":[8,20,8,0,0,0,0],"split_type":[0,0,0,0,0,0,0],"sum_hessian":[1.203E3,2.72E2,9.31E2,2.36E2,3.6E1,7.93E2,1.38E2],"tree_param":{"num_deleted":"0","num_feature":"24","num_nodes":"7","size_leaf_vector":"1"}},{"base_weights":[-7.6982235E-3,1.8793197E-2,-2.6903036E-1,1.4890634E-3,-9.551601E-3,-1.7905422E-2,-6.59441E-3],"categories":[],"categories_nodes":[],"categories_segments":[],"categories_sizes":[],"default_left":[0,0,0,0,0,0,0],"id":102,"left_children":[1,3,5,-1,-1,-1,-1],"loss_changes":[8.42188E0,7.5589504E0,1.8223076E0,0E0,0E0,0E0,0E0],"parents":[2147483647,0,0,1,1,2,2],"right_children":[2,4,6,-1,-1,-1,-1],"split_conditions":[2.78E1,9.76E0,9.61E-1,1.4890634E-3,-9.551601E-3,-1.7905422E-2,-6.59441E-3],"split_indices":[11,8,15,0,0,0,0],"split_type":[0,0,0,0,0,0,0],"sum_hessian":[1.204E3,1.094E3,1.1E2,1.014E3,8E1,2.4E1,8.6E1],"tree_param":{"num_deleted":"0","num_feature":"24","num_nodes":"7","size_leaf_vector":"1"}},{"base_weights":[3.7796183E-3,-9.122623E-2,7.7319644E-2,-1.4422982E-2,-2.3473168E-3,3.56522E-3,-6.4245234E-3],"categories":[],"categories_nodes":[],"categories_segments":[],"categories_sizes":[],"default_left":[0,0,0,0,0,0,0],"id":103,"left_children":[1,3,5,-1,-1,-1,-1],"loss_changes":[8.506496E0,3.9334798E0,4.4221816E0,0E0,0E0,0E0,0E0],"parents":[2147483647,0,0,1,1,2,2],"right_children":[2,4,6,-1,-1,-1,-1],"split_conditions":[1.055E0,8.87E1,8.51E1,-1.4422982E-2,-2.3473168E-3,3.56522E-3,-6.4245234E-3],"split_indices":[1,13,10,0,0,0,0],"split_type":[0,0,0,0,0,0,0],"sum_hessian":[1.214E3,5.28E2,6.86E2,3.4E1,4.94E2,6.29E2,5.7E1],"tree_param":{"num_deleted":"0","num_feature":"24","num_nodes":"7","size_leaf_vector":"1"}},{"base_weights":[-4.7326973E-3,-5.79983E-2,1.4033023E-1,-9.919063E-4,-1.0654102E-2,3.734328E-3,1.6609143E-2],"categories":[],"categories_nodes":[],"categories_segments":[],"categories_sizes":[],"default_left":[0,0,0,0,0,0,0],"id":104,"left_children":[1,3,5,-1,-1,-1,-1],"loss_changes":[9.22157E0,6.301279E0,3.3506823E0,0E0,0E0,0E0,0E0],"parents":[2147483647,0,0,1,1,2,2],"right_children":[2,4,6,-1,-1,-1,-1],"split_conditions":[2E0,2.81E1,9.1113E1,-9.919063E-4,-1.0654102E-2,3.734328E-3,1.6609143E-2],"split_indices":[20,11,17,0,0,0,0],"split_type":[0,0,0,0,0,0,0],"sum_hessian":[1.192E3,8.74E2,3.18E2,7.83E2,9.1E1,2.92E2,2.6E1],"tree_param":{"num_deleted":"0","num_feature":"24","num_nodes":"7","size_leaf_vector":"1"}},{"base_weights":[2.9110226E-3,2.5851116E-2,-2.967224E-1,-1.0762413E-3,4.561152E-3,-1.885418E-2,-7.3357644E-3],"categories":[],"categories_nodes":[],"categories_segments":[],"categories_sizes":[],"default_left":[0,0,0,0,0,0,0],"id":105,"left_children":[1,3,5,-1,-1,-1,-1],"loss_changes":[8.415922E0,6.8150625E0,1.4212947E0,0E0,0E0,0E0,0E0],"parents":[2147483647,0,0,1,1,2,2],"right_children":[2,4,6,-1,-1,-1,-1],"split_conditions":[8.51E1,1.113E0,9.92E-1,-1.0762413E-3,4.561152E-3,-1.885418E-2,-7.3357644E-3],"split_indices":[10,1,1,0,0,0,0],"split_type":[0,0,0,0,0,0,0],"sum_hessian":[1.23E3,1.145E3,8.5E1,7.42E2,4.03E2,1.9E1,6.6E1],"tree_param":{"num_deleted":"0","num_feature":"24","num_nodes":"7","size_leaf_vector":"1"}},{"base_weights":[3.966854E-3,-1.2822841E-1,5.382025E-2,-8.724034E-3,-1.799901E-3,3.1346856E-3,-8.460621E-3],"categories":[],"categories_nodes":[],"categories_segments":[],"categories_sizes":[],"default_left":[0,0,0,0,0,0,0],"id":106,"left_children":[1,3,5,-1,-1,-1,-1],"loss_changes":[7.811394E0,2.910903E0,9.132285E0,0E0,0E0,0E0,0E0],"parents":[2147483647,0,0,1,1,2,2],"right_children":[2,4,6,-1,-1,-1,-1],"split_conditions":[9.48E0,1.038E0,9.75E0,-8.724034E-3,-1.799901E-3,3.1346856E-3,-8.460621E-3],"split_indices":[8,15,8,0,0,0,0],"split_type":[0,0,0,0,0,0,0],"sum_hessian":[1.184E3,3.22E2,8.62E2,1.22E2,2E2,7.71E2,9.1E1],"tree_param":{"num_deleted":"0","num_feature":"24","num_nodes":"7","size_leaf_vector":"1"}},{"base_weights":[2.8021513E-3,-1.4471462E-1,4.945802E-2,-1.9205494E-2,-4.228101E-3,3.1812193E-3,-4.8328517E-3],"categories":[],"categories_nodes":[],"categories_segments":[],"categories_sizes":[],"default_left":[0,0,0,0,0,0,0],"id":107,"left_children":[1,3,5,-1,-1,-1,-1],"loss_changes":[8.290823E0,2.4919748E0,7.154397E0,0E0,0E0,0E0,0E0],"parents":[2147483647,0,0,1,1,2,2],"right_children":[2,4,6,-1,-1,-1,-1],"split_conditions":[8.9878E1,9.35E0,2.69E1,-1.9205494E-2,-4.228101E-3,3.1812193E-3,-4.8328517E-3],"split_indices":[17,8,11,0,0,0,0],"split_type":[0,0,0,0,0,0,0],"sum_hessian":[1.204E3,2.87E2,9.17E2,1.3E1,2.74E2,7.53E2,1.64E2],"tree_param":{"num_deleted":"0","num_feature":"24","num_nodes":"7","size_leaf_vector":"1"}},{"base_weights":[-6.4439485E-3,-1.4692087E-1,3.915558E-2,-1.966393E-2,-4.316935E-3,2.244212E-3,-7.7399136E-3],"categories":[],"categories_nodes":[],"categories_segments":[],"categories_sizes":[],"default_left":[0,0,0,0,0,0,0],"id":108,"left_children":[1,3,5,-1,-1,-1,-1],"loss_changes":[7.8341618E0,2.625144E0,5.9609747E0,0E0,0E0,0E0,0E0],"parents":[2147483647,0,0,1,1,2,2],"right_children":[2,4,6,-1,-1,-1,-1],"split_conditions":[8.9886E1,9.35E0,8.51E1,-1.966393E-2,-4.316935E-3,2.244212E-3,-7.7399136E-3],"split_indices":[17,8,10,0,0,0,0],"split_type":[0,0,0,0,0,0,0],"sum_hessian":[1.215E3,2.98E2,9.17E2,1.3E1,2.85E2,8.39E2,7.8E1],"tree_param":{"num_deleted":"0","num_feature":"24","num_nodes":"7","size_leaf_vector":"1"}},{"base_weights":[-4.2033657E-3,-9.731208E-2,6.263655E-2,-1.0670384E-2,-2.2660005E-3,3.5101565E-4,7.492149E-3],"categories":[],"categories_nodes":[],"categories_segments":[],"categories_sizes":[],"default_left":[0,0,0,0,0,0,0],"id":109,"left_children":[1,3,5,-1,-1,-1,-1],"loss_changes":[7.625828E0,3.3359685E0,5.603572E0,0E0,0E0,0E0,0E0],"parents":[2147483647,0,0,1,1,2,2],"right_children":[2,4,6,-1,-1,-1,-1],"split_conditions":[9.019E1,8.879E1,2E0,-1.0670384E-2,-2.2660005E-3,3.5101565E-4,7.492149E-3],"split_indices":[13,13,20,0,0,0,0],"split_type":[0,0,0,0,0,0,0],"sum_hessian":[1.22E3,5.11E2,7.09E2,6.6E1,4.45E2,5.29E2,1.8E2],"tree_param":{"num_deleted":"0","num_feature":"24","num_nodes":"7","size_leaf_vector":"1"}},{"base_weights":[-4.237393E-3,-4.8528645E-2,1.278204E-1,-9.174627E-4,-1.04032755E-2,2.7262082E-3,1.111053E-2],"categories":[],"categories_nodes":[],"categories_segments":[],"categories_sizes":[],"default_left":[0,0,0,0,0,0,0],"id":110,"left_children":[1,3,5,-1,-1,-1,-1],"loss_changes":[6.906107E0,4.8319726E0,2.6541395E0,0E0,0E0,0E0,0E0],"parents":[2147483647,0,0,1,1,2,2],"right_children":[2,4,6,-1,-1,-1,-1],"split_conditions":[9.0698E1,8.52E1,9.156E1,-9.174627E-4,-1.04032755E-2,2.7262082E-3,1.111053E-2],"split_indices":[17,10,13,0,0,0,0],"split_type":[0,0,0,0,0,0,0],"sum_hessian":[1.18E3,8.86E2,2.94E2,8.16E2,7E1,2.36E2,5.8E1],"tree_param":{"num_deleted":"0","num_feature":"24","num_nodes":"7","size_leaf_vector":"1"}},{"base_weights":[3.9641673E-4,-7.1935594E-2,8.3635755E-2,-6.7828577E-3,-8.169434E-4,3.8109906E-3,-6.694668E-3],"categories":[],"categories_nodes":[],"categories_segments":[],"categories_sizes":[],"default_left":[0,0,0,0,0,0,0],"id":111,"left_children":[1,3,5,-1,-1,-1,-1],"loss_changes":[7.233979E0,3.7324948E0,3.908265E0,0E0,0E0,0E0,0E0],"parents":[2147483647,0,0,1,1,2,2],"right_children":[2,4,6,-1,-1,-1,-1],"split_conditions":[1.089E0,9.48E0,9.76E0,-6.7828577E-3,-8.169434E-4,3.8109906E-3,-6.694668E-3],"split_indices":[1,8,8,0,0,0,0],"split_type":[0,0,0,0,0,0,0],"sum_hessian":[1.197E3,6.39E2,5.58E2,1.79E2,4.6E2,5.13E2,4.5E1],"tree_param":{"num_deleted":"0","num_feature":"24","num_nodes":"7","size_leaf_vector":"1"}},{"base_weights":[1.0953863E-3,3.5940345E-2,-1.574473E-1,2.2915255E-3,-5.8062132E-3,-2.2485228E-2,-4.4362987E-3],"categories":[],"categories_nodes":[],"categories_segments":[],"categories_sizes":[],"default_left":[0,0,0,0,0,0,0],"id":112,"left_children":[1,3,5,-1,-1,-1,-1],"loss_changes":[6.6931024E0,5.951126E0,2.8902407E0,0E0,0E0,0E0,0E0],"parents":[2147483647,0,0,1,1,2,2],"right_children":[2,4,6,-1,-1,-1,-1],"split_conditions":[2.69E1,9.72E0,7.48E1,2.2915255E-3,-5.8062132E-3,-2.2485228E-2,-4.4362987E-3],"split_indices":[11,8,10,0,0,0,0],"split_type":[0,0,0,0,0,0,0],"sum_hessian":[1.213E3,9.97E2,2.16E2,8.72E2,1.25E2,1E1,2.06E2],"tree_param":{"num_deleted":"0","num_feature":"24","num_nodes":"7","size_leaf_vector":"1"}},{"base_weights":[-1.4065244E-3,-1.8872969E-1,3.0653805E-2,-1.0340439E-2,-4.238588E-3,-3.5241446E-3,2.4797148E-3],"categories":[],"categories_nodes":[],"categories_segments":[],"categories_sizes":[],"default_left":[0,0,0,0,0,0,0],"id":113,"left_children":[1,3,5,-1,-1,-1,-1],"loss_changes":[7.389984E0,1.1232934E0,5.5184827E0,0E0,0E0,0E0,0E0],"parents":[2147483647,0,0,1,1,2,2],"right_children":[2,4,6,-1,-1,-1,-1],"split_conditions":[8.936E1,8.879E1,9.46E0,-1.0340439E-2,-4.238588E-3,-3.5241446E-3,2.4797148E-3],"split_indices":[13,13,8,0,0,0,0],"split_type":[0,0,0,0,0,0,0],"sum_hessian":[1.22E3,1.78E2,1.042E3,6.5E1,1.13E2,2.42E2,8E2],"tree_param":{"num_deleted":"0","num_feature":"24","num_nodes":"7","size_leaf_vector":"1"}},{"base_weights":[-1.6042052E-3,-3.390301E-2,1.9546746E-1,-1.1839261E-2,-5.77105E-4,8.827478E-3,-1.734069E-3],"categories":[],"categories_nodes":[],"categories_segments":[],"categories_sizes":[],"default_left":[0,0,0,0,0,0,0],"id":114,"left_children":[1,3,5,-1,-1,-1,-1],"loss_changes":[7.7383814E0,5.4707127E0,2.4531622E0,0E0,0E0,0E0,0E0],"parents":[2147483647,0,0,1,1,2,2],"right_children":[2,4,6,-1,-1,-1,-1],"split_conditions":[9.125E1,7.31E1,7.38893E2,-1.1839261E-2,-5.77105E-4,8.827478E-3,-1.734069E-3],"split_indices":[13,10,4,0,0,0,0],"split_type":[0,0,0,0,0,0,0],"sum_hessian":[1.218E3,1.049E3,1.69E2,5.4E1,9.95E2,1.38E2,3.1E1],"tree_param":{"num_deleted":"0","num_feature":"24","num_nodes":"7","size_leaf_vector":"1"}},{"base_weights":[-3.9923913E-3,1.9007554E-2,-2.527253E-1,-7.9054255E-3,1.5070253E-3,-1.5129935E-2,-6.169838E-3],"categories":[],"categories_nodes":[],"categories_segments":[],"categories_sizes":[],"default_left":[0,0,0,0,0,0,0],"id":115,"left_children":[1,3,5,-1,-1,-1,-1],"loss_changes":[7.093232E0,6.5992827E0,1.1367049E0,0E0,0E0,0E0,0E0],"parents":[2147483647,0,0,1,1,2,2],"right_children":[2,4,6,-1,-1,-1,-1],"split_conditions":[2.79E1,7.38E1,8.02E1,-7.9054255E-3,1.5070253E-3,-1.5129935E-2,-6.169838E-3],"split_indices":[11,10,10,0,0,0,0],"split_type":[0,0,0,0,0,0,0],"sum_hessian":[1.226E3,1.123E3,1.03E2,9.8E1,1.025E3,2.7E1,7.6E1],"tree_param":{"num_deleted":"0","num_feature":"24","num_nodes":"7","size_leaf_vector":"1"}},{"base_weights":[-1.0520903E-3,-1.3482419E-1,3.895549E-2,-1.3379345E-2,-3.680274E-3,-1.0263958E-3,3.8295465E-3],"categories":[],"categories_nodes":[],"categories_segments":[],"categories_sizes":[],"default_left":[0,0,0,0,0,0,0],"id":116,"left_children":[1,3,5,-1,-1,-1,-1],"loss_changes":[6.429989E0,1.831625E0,4.4526463E0,0E0,0E0,0E0,0E0],"parents":[2147483647,0,0,1,1,2,2],"right_children":[2,4,6,-1,-1,-1,-1],"split_conditions":[8.97E1,9.38E0,1.089E0,-1.3379345E-2,-3.680274E-3,-1.0263958E-3,3.8295465E-3],"split_indices":[13,8,1,0,0,0,0],"split_type":[0,0,0,0,0,0,0],"sum_hessian":[1.193E3,2.75E2,9.18E2,2.6E1,2.49E2,4.65E2,4.53E2],"tree_param":{"num_deleted":"0","num_feature":"24","num_nodes":"7","size_leaf_vector":"1"}},{"base_weights":[7.948962E-3,-1.3166125E-1,4.8044425E-2,-8.474819E-3,-2.4749965E-3,3.0234274E-3,-5.768986E-3],"categories":[],"categories_nodes":[],"categories_segments":[],"categories_sizes":[],"default_left":[0,0,0,0,0,0,0],"id":117,"left_children":[1,3,5,-1,-1,-1,-1],"loss_changes":[6.73702E0,1.6920438E0,7.672389E0,0E0,0E0,0E0,0E0],"parents":[2147483647,0,0,1,1,2,2],"right_children":[2,4,6,-1,-1,-1,-1],"split_conditions":[9.46E0,9.38E0,9.72E0,-8.474819E-3,-2.4749965E-3,3.0234274E-3,-5.768986E-3],"split_indices":[8,8,8,0,0,0,0],"split_type":[0,0,0,0,0,0,0],"sum_hessian":[1.203E3,2.66E2,9.37E2,9.1E1,1.75E2,7.96E2,1.41E2],"tree_param":{"num_deleted":"0","num_feature":"24","num_nodes":"7","size_leaf_vector":"1"}},{"base_weights":[-2.416609E-3,-8.326601E-2,6.230714E-2,-1.2594448E-2,-2.1363264E-3,1.5124882E-3,1.2444911E-2],"categories":[],"categories_nodes":[],"categories_segments":[],"categories_sizes":[],"default_left":[0,0,0,0,0,0,0],"id":118,"left_children":[1,3,5,-1,-1,-1,-1],"loss_changes":[6.3526297E0,3.176785E0,3.632305E0,0E0,0E0,0E0,0E0],"parents":[2147483647,0,0,1,1,2,2],"right_children":[2,4,6,-1,-1,-1,-1],"split_conditions":[1.058E0,8.87E1,9.175E1,-1.2594448E-2,-2.1363264E-3,1.5124882E-3,1.2444911E-2],"split_indices":[1,13,13,0,0,0,0],"split_type":[0,0,0,0,0,0,0],"sum_hessian":[1.209E3,5.39E2,6.7E2,3.7E1,5.02E2,6.32E2,3.8E1],"tree_param":{"num_deleted":"0","num_feature":"24","num_nodes":"7","size_leaf_vector":"1"}},{"base_weights":[-2.3661728E-3,1.8488696E-2,-2.6186436E-1,1.6180497E-3,-6.5503623E-3,-1.7781539E-2,-5.8242343E-3],"categories":[],"categories_nodes":[],"categories_segments":[],"categories_sizes":[],"default_left":[0,0,0,0,0,0,0],"id":119,"left_children":[1,3,5,-1,-1,-1,-1],"loss_changes":[6.6891594E0,6.445581E0,1.8242788E0,0E0,0E0,0E0,0E0],"parents":[2147483647,0,0,1,1,2,2],"right_children":[2,4,6,-1,-1,-1,-1],"split_conditions":[8.51E1,9.72E0,9.92E-1,1.6180497E-3,-6.5503623E-3,-1.7781539E-2,-5.8242343E-3],"split_indices":[10,8,1,0,0,0,0],"split_type":[0,0,0,0,0,0,0],"sum_hessian":[1.221E3,1.131E3,9E1,9.99E2,1.32E2,2.2E1,6.8E1],"tree_param":{"num_deleted":"0","num_feature":"24","num_nodes":"7","size_leaf_vector":"1"}},{"base_weights":[4.167416E-3,-1.1933307E-1,4.3469362E-2,-1.0551451E-2,-2.5512741E-3,4.676769E-4,8.107857E-3],"categories":[],"categories_nodes":[],"categories_segments":[],"categories_sizes":[],"default_left":[0,0,0,0,0,0,0],"id":120,"left_children":[1,3,5,-1,-1,-1,-1],"loss_changes":[5.922764E0,2.349214E0,5.201636E0,0E0,0E0,0E0,0E0],"parents":[2147483647,0,0,1,1,2,2],"right_children":[2,4,6,-1,-1,-1,-1],"split_conditions":[1E0,9.59E-1,9.125E1,-1.0551451E-2,-2.5512741E-3,4.676769E-4,8.107857E-3],"split_indices":[20,15,13,0,0,0,0],"split_type":[0,0,0,0,0,0,0],"sum_hessian":[1.22E3,2.92E2,9.28E2,5.6E1,2.36E2,8.03E2,1.25E2],"tree_param":{"num_deleted":"0","num_feature":"24","num_nodes":"7","size_leaf_vector":"1"}},{"base_weights":[-1.8907763E-3,-1.3589795E-1,3.8119704E-2,-9.61856E-3,-3.1934627E-3,2.3248794E-3,-8.154605E-3],"categories":[],"categories_nodes":[],"categories_segments":[],"categories_sizes":[],"default_left":[0,0,0,0,0,0,0],"id":121,"left_children":[1,3,5,-1,-1,-1,-1],"loss_changes":[6.543898E0,1.6015329E0,7.164349E0,0E0,0E0,0E0,0E0],"parents":[2147483647,0,0,1,1,2,2],"right_children":[2,4,6,-1,-1,-1,-1],"split_conditions":[9.46E0,8.97E1,9.75E0,-9.61856E-3,-3.1934627E-3,2.3248794E-3,-8.154605E-3],"split_indices":[8,13,8,0,0,0,0],"split_type":[0,0,0,0,0,0,0],"sum_hessian":[1.212E3,2.79E2,9.33E2,6.4E1,2.15E2,8.47E2,8.6E1],"tree_param":{"num_deleted":"0","num_feature":"24","num_nodes":"7","size_leaf_vector":"1"}},{"base_weights":[-6.7583527E-3,-4.8093744E-2,1.05952665E-1,-1.3199661E-2,-9.736779E-4,4.829772E-3,-6.833476E-3],"categories":[],"categories_nodes":[],"categories_segments":[],"categories_sizes":[],"default_left":[0,0,0,0,0,0,0],"id":122,"left_children":[1,3,5,-1,-1,-1,-1],"loss_changes":[5.777488E0,5.955122E0,3.2435486E0,0E0,0E0,0E0,0E0],"parents":[2147483647,0,0,1,1,2,2],"right_children":[2,4,6,-1,-1,-1,-1],"split_conditions":[2E0,7.38E1,8.13E1,-1.3199661E-2,-9.736779E-4,4.829772E-3,-6.833476E-3],"split_indices":[20,10,10,0,0,0,0],"split_type":[0,0,0,0,0,0,0],"sum_hessian":[1.239E3,9.09E2,3.3E2,5E1,8.59E2,3E2,3E1],"tree_param":{"num_deleted":"0","num_feature":"24","num_nodes":"7","size_leaf_vector":"1"}},{"base_weights":[-3.6752285E-3,8.9970585E-3,-3.493257E-1,-1.1305606E-3,4.67382E-3,-1.4071913E-2,-9.500885E-4],"categories":[],"categories_nodes":[],"categories_segments":[],"categories_sizes":[],"default_left":[0,0,0,0,0,0,0],"id":123,"left_children":[1,3,5,-1,-1,-1,-1],"loss_changes":[5.448331E0,6.1082654E0,6.1835384E-1,0E0,0E0,0E0,0E0],"parents":[2147483647,0,0,1,1,2,2],"right_children":[2,4,6,-1,-1,-1,-1],"split_conditions":[9.79E0,2E0,1.155E0,-1.1305606E-3,4.67382E-3,-1.4071913E-2,-9.500885E-4],"split_indices":[8,20,1,0,0,0,0],"split_type":[0,0,0,0,0,0,0],"sum_hessian":[1.221E3,1.179E3,4.2E1,8.85E2,2.94E2,3.5E1,7E0],"tree_param":{"num_deleted":"0","num_feature":"24","num_nodes":"7","size_leaf_vector":"1"}},{"base_weights":[-4.165041E-3,-8.54418E-2,5.4832947E-2,-1.4717E-2,-2.2105586E-3,3.4343654E-3,-2.5816134E-3],"categories":[],"categories_nodes":[],"categories_segments":[],"categories_sizes":[],"default_left":[0,0,0,0,0,0,0],"id":124,"left_children":[1,3,5,-1,-1,-1,-1],"loss_changes":[5.847943E0,3.6633837E0,3.9397583E0,0E0,0E0,0E0,0E0],"parents":[2147483647,0,0,1,1,2,2],"right_children":[2,4,6,-1,-1,-1,-1],"split_conditions":[1.055E0,8.86E1,8.23E1,-1.4717E-2,-2.2105586E-3,3.4343654E-3,-2.5816134E-3],"split_indices":[18,13,10,0,0,0,0],"split_type":[0,0,0,0,0,0,0],"sum_hessian":[1.214E3,5.12E2,7.02E2,2.9E1,4.83E2,5.27E2,1.75E2],"tree_param":{"num_deleted":"0","num_feature":"24","num_nodes":"7","size_leaf_vector":"1"}},{"base_weights":[-0E0,1.9705718E-2,-2.4411939E-1,-8.96505E-3,1.3634705E-3,-1.2657617E-2,-4.4066203E-3],"categories":[],"categories_nodes":[],"categories_segments":[],"categories_sizes":[],"default_left":[0,0,0,0,0,0,0],"id":125,"left_children":[1,3,5,-1,-1,-1,-1],"loss_changes":[5.664453E0,5.7113748E0,1.0096788E0,0E0,0E0,0E0,0E0],"parents":[2147483647,0,0,1,1,2,2],"right_children":[2,4,6,-1,-1,-1,-1],"split_conditions":[8.51E1,7.32E1,2.0069E1,-8.96505E-3,1.3634705E-3,-1.2657617E-2,-4.4066203E-3],"split_indices":[10,10,2,0,0,0,0],"split_type":[0,0,0,0,0,0,0],"sum_hessian":[1.166E3,1.08E3,8.6E1,6.8E1,1.012E3,4E1,4.6E1],"tree_param":{"num_deleted":"0","num_feature":"24","num_nodes":"7","size_leaf_vector":"1"}},{"base_weights":[-2.2681498E-3,-1.3162285E-1,3.5078354E-2,-1.4208007E-2,-3.3578207E-3,-1.7066333E-4,5.18235E-3],"categories":[],"categories_nodes":[],"categories_segments":[],"categories_sizes":[],"default_left":[0,0,0,0,0,0,0],"id":126,"left_children":[1,3,5,-1,-1,-1,-1],"loss_changes":[5.878815E0,2.4690762E0,4.2762685E0,0E0,0E0,0E0,0E0],"parents":[2147483647,0,0,1,1,2,2],"right_children":[2,4,6,-1,-1,-1,-1],"split_conditions":[8.968E1,8.846E1,2E0,-1.4208007E-2,-3.3578207E-3,-1.7066333E-4,5.18235E-3],"split_indices":[13,13,20,0,0,0,0],"split_type":[0,0,0,0,0,0,0],"sum_hessian":[1.208E3,2.71E2,9.37E2,2.8E1,2.43E2,6.92E2,2.45E2],"tree_param":{"num_deleted":"0","num_feature":"24","num_nodes":"7","size_leaf_vector":"1"}},{"base_weights":[-1.1436695E-3,-1.3045538E-2,3.3527884E-1,-4.3261973E-3,7.491376E-4,-0E0,1.2970208E-2],"categories":[],"categories_nodes":[],"categories_segments":[],"categories_sizes":[],"default_left":[0,0,0,0,0,0,0],"id":127,"left_children":[1,3,5,-1,-1,-1,-1],"loss_changes":[4.9252524E0,4.6317954E0,4.971485E-1,0E0,0E0,0E0,0E0],"parents":[2147483647,0,0,1,1,2,2],"right_children":[2,4,6,-1,-1,-1,-1],"split_conditions":[9.175E1,1E0,6.23E1,-4.3261973E-3,7.491376E-4,-0E0,1.2970208E-2],"split_indices":[13,20,12,0,0,0,0],"split_type":[0,0,0,0,0,0,0],"sum_hessian":[1.246E3,1.206E3,4E1,2.87E2,9.19E2,4E0,3.6E1],"tree_param":{"num_deleted":"0","num_feature":"24","num_nodes":"7","size_leaf_vector":"1"}},{"base_weights":[6.601906E-4,-2.7281687E-2,1.8029387E-1,-4.8607923E-3,5.2281015E-4,4.1259523E-3,1.472109E-2],"categories":[],"categories_nodes":[],"categories_segments":[],"categories_sizes":[],"default_left":[0,0,0,0,0,0,0],"id":128,"left_children":[1,3,5,-1,-1,-1,-1],"loss_changes":[6.0712533E0,4.9304595E0,2.210814E0,0E0,0E0,0E0,0E0],"parents":[2147483647,0,0,1,1,2,2],"right_children":[2,4,6,-1,-1,-1,-1],"split_conditions":[1.2E1,9.48E0,9.156E1,-4.8607923E-3,5.2281015E-4,4.1259523E-3,1.472109E-2],"split_indices":[22,8,13,0,0,0,0],"split_type":[0,0,0,0,0,0,0],"sum_hessian":[1.198E3,1.037E3,1.61E2,2.85E2,7.52E2,1.31E2,3E1],"tree_param":{"num_deleted":"0","num_feature":"24","num_nodes":"7","size_leaf_vector":"1"}},{"base_weights":[4.5396476E-3,-2.4533978E-1,2.24276E-2,1.0154863E-3,-9.95594E-3,-5.6842924E-4,4.433444E-3],"categories":[],"categories_nodes":[],"categories_segments":[],"categories_sizes":[],"default_left":[0,0,0,0,0,0,0],"id":129,"left_children":[1,3,5,-1,-1,-1,-1],"loss_changes":[5.359303E0,9.388881E-1,4.590651E0,0E0,0E0,0E0,0E0],"parents":[2147483647,0,0,1,1,2,2],"right_children":[2,4,6,-1,-1,-1,-1],"split_conditions":[8.893E1,9.21E-1,2E0,1.0154863E-3,-9.95594E-3,-5.6842924E-4,4.433444E-3],"split_indices":[13,18,20,0,0,0,0],"split_type":[0,0,0,0,0,0,0],"sum_hessian":[1.207E3,7.8E1,1.129E3,9E0,6.9E1,8.23E2,3.06E2],"tree_param":{"num_deleted":"0","num_feature":"24","num_nodes":"7","size_leaf_vector":"1"}},{"base_weights":[-3.924775E-3,1.4522961E-2,-2.2453739E-1,1.2078998E-3,-7.3578455E-3,-1.4798961E-2,-5.0704787E-3],"categories":[],"categories_nodes":[],"categories_segments":[],"categories_sizes":[],"default_left":[0,0,0,0,0,0,0],"id":130,"left_children":[1,3,5,-1,-1,-1,-1],"loss_changes":[4.954999E0,4.961581E0,1.2204909E0,0E0,0E0,0E0,0E0],"parents":[2147483647,0,0,1,1,2,2],"right_children":[2,4,6,-1,-1,-1,-1],"split_conditions":[2.81E1,9.75E0,8.02E1,1.2078998E-3,-7.3578455E-3,-1.4798961E-2,-5.0704787E-3],"split_indices":[11,8,10,0,0,0,0],"split_type":[0,0,0,0,0,0,0],"sum_hessian":[1.201E3,1.109E3,9.2E1,1.021E3,8.8E1,2.3E1,6.9E1],"tree_param":{"num_deleted":"0","num_feature":"24","num_nodes":"7","size_leaf_vector":"1"}},{"base_weights":[-3.0263881E-3,-2.4354108E-2,2.1897918E-1,-4.9365866E-3,4.350843E-4,9.224908E-3,2.0080566E-4],"categories":[],"categories_nodes":[],"categories_segments":[],"categories_sizes":[],"default_left":[0,0,0,0,0,0,0],"id":131,"left_children":[1,3,5,-1,-1,-1,-1],"loss_changes":[5.624917E0,4.7316523E0,9.185214E-1,0E0,0E0,0E0,0E0],"parents":[2147483647,0,0,1,1,2,2],"right_children":[2,4,6,-1,-1,-1,-1],"split_conditions":[1.173E0,8.968E1,8.19E1,-4.9365866E-3,4.350843E-4,9.224908E-3,2.0080566E-4],"split_indices":[1,13,10,0,0,0,0],"split_type":[0,0,0,0,0,0,0],"sum_hessian":[1.194E3,1.092E3,1.02E2,2.62E2,8.3E2,8.3E1,1.9E1],"tree_param":{"num_deleted":"0","num_feature":"24","num_nodes":"7","size_leaf_vector":"1"}},{"base_weights":[4.334172E-3,-2.3053652E-2,1.4401369E-1,1.48271265E-5,-6.429408E-3,3.0958392E-3,9.704714E-3],"categories":[],"categories_nodes":[],"categories_segments":[],"categories_sizes":[],"default_left":[0,0,0,0,0,0,0],"id":132,"left_children":[1,3,5,-1,-1,-1,-1],"loss_changes":[4.6160254E0,3.8212237E0,1.3255649E0,0E0,0E0,0E0,0E0],"parents":[2147483647,0,0,1,1,2,2],"right_children":[2,4,6,-1,-1,-1,-1],"split_conditions":[9.09E1,9.71E0,2E0,1.48271265E-5,-6.429408E-3,3.0958392E-3,9.704714E-3],"split_indices":[17,8,20,0,0,0,0],"split_type":[0,0,0,0,0,0,0],"sum_hessian":[1.195E3,9.99E2,1.96E2,8.72E2,1.27E2,1.42E2,5.4E1],"tree_param":{"num_deleted":"0","num_feature":"24","num_nodes":"7","size_leaf_vector":"1"}},{"base_weights":[1.9255296E-3,-2.5998434E-2,1.7188856E-1,-8.509975E-3,-1.3869761E-4,-3.009794E-3,7.1083712E-3],"categories":[],"categories_nodes":[],"categories_segments":[],"categories_sizes":[],"default_left":[0,0,0,0,0,0,0],"id":133,"left_children":[1,3,5,-1,-1,-1,-1],"loss_changes":[5.745406E0,4.8743153E0,1.440403E0,0E0,0E0,0E0,0E0],"parents":[2147483647,0,0,1,1,2,2],"right_children":[2,4,6,-1,-1,-1,-1],"split_conditions":[9.125E1,7.38E1,6.15E1,-8.509975E-3,-1.3869761E-4,-3.009794E-3,7.1083712E-3],"split_indices":[13,10,12,0,0,0,0],"split_type":[0,0,0,0,0,0,0],"sum_hessian":[1.199E3,1.03E3,1.69E2,9.2E1,9.38E2,1.7E1,1.52E2],"tree_param":{"num_deleted":"0","num_feature":"24","num_nodes":"7","size_leaf_vector":"1"}},{"base_weights":[-6.870481E-3,-1.22051954E-1,2.8167821E-2,-1.0131132E-2,-2.3991745E-3,1.7608014E-3,-8.5706785E-3],"categories":[],"categories_nodes":[],"categories_segments":[],"categories_sizes":[],"default_left":[0,0,0,0,0,0,0],"id":134,"left_children":[1,3,5,-1,-1,-1,-1],"loss_changes":[4.978193E0,2.45045E0,5.65869E0,0E0,0E0,0E0,0E0],"parents":[2147483647,0,0,1,1,2,2],"right_children":[2,4,6,-1,-1,-1,-1],"split_conditions":[1E0,8.06E1,8.26E1,-1.0131132E-2,-2.3991745E-3,1.7608014E-3,-8.5706785E-3],"split_indices":[20,10,10,0,0,0,0],"split_type":[0,0,0,0,0,0,0],"sum_hessian":[1.224E3,2.86E2,9.38E2,6.6E1,2.2E2,8.7E2,6.8E1],